347 64
56 2.1102386 -0.2956088 1.5870352 0.035229605 -1.9768842 -1.9312708 0.020016216 1.4353962 0.3531377 0.70633507 0.39184186 0.90999687 -2.3647478 0.95957553 -3.1172078 2.0593364 -1.1427537 1.1581855 1.3877383 -3.1415372 1.7637365 1.4300917 1.8540083 0.28511742 -1.5417219 0.636145 -1.2188725 -2.7481308 1.2748979 -0.04143119 0.49916726 5.4501176 -0.58454573 -0.95756036 0.52375716 -1.5266185 -1.0290511 -0.53133667 -0.82615614 0.64767766 -0.45336014 -3.5818088 3.523672 0.7927765 -0.5980952 1.763179 -1.285261 -2.9493015 -0.9626392 1.3874668 -0.055401016 0.09898527 -0.6423295 0.24774139 0.85610837 1.6341264 0.64695275 -3.8036602 2.6797 0.17592917 -0.356938 0.019873329 -0.09687133 0.60254264
67 1.3784952 0.7457825 1.9593532 0.1266659 -0.5543553 -2.59449 0.99562895 0.49875394 -2.528277 -0.76481164 3.4545488 -0.09544788 0.15800004 2.2324905 -2.34513 1.7238812 -3.494857 -1.8672918 0.092578836 -1.5641806 0.20389889 1.7796527 1.6185834 -0.07130508 -3.2944932 -2.4730086 -2.4561458 -3.0378494 0.945152 -1.0338044 1.7426351 2.6999161 0.36566082 1.6068505 0.9064089 -1.3515229 -0.80413723 -1.2984892 -1.6504902 -0.06635329 -0.33030838 -0.7372267 1.0318943 2.468525 2.2887828 -0.058900747 -1.6063197 -2.2332706 -1.0280539 -0.27312517 -0.86808497 -1.2941246 0.8322625 -0.26177442 0.04826024 2.5344963 0.7735478 -1.0411853 0.477412 -1.3618699 -0.8415563 -0.89246994 -1.643599 1.6419036
322 -2.129752 -1.9537867 1.7993606 -1.126021 -4.171389 0.870424 -1.1569409 1.7337403 0.288817 0.89695454 1.3301257 1.6601096 -1.7359517 0.27641273 -0.43885225 -0.14240406 1.6605324 -1.159709 -1.3781296 -3.2901978 -0.46725672 0.9123035 1.164937 0.30968708 -2.0491283 -2.1510513 -2.3416991 -4.9344425 0.5167451 -0.43213278 0.021645501 2.0543408 3.082531 -0.18200772 1.6563165 -1.6959127 -2.0378149 -0.79453003 -0.3761476 -1.278211 0.3329456 -2.4956343 4.2132134 2.527176 -0.07919558 0.66797984 2.3123932 1.3065639 -1.4599615 0.2249465 1.339645 -1.6364269 -2.6689851 1.5933326 2.5713892 2.2207606 0.96815926 -3.2687452 2.4453106 -0.42116258 -1.9361079 1.9655 0.66097975 2.5981376
271 1.8359007 -0.3763162 1.2968966 1.9968839 -2.5664318 -1.1868258 -1.0460439 1.0416304 -0.1774404 -0.68140227 1.672907 0.41797248 -0.84874177 1.6036206 -3.4852848 3.153323 -0.74185383 -1.654648 1.4369503 -1.3638515 3.3938074 1.6124675 0.50614744 -1.8168956 0.047819983 -1.2120941 -1.9241431 -1.2034 2.49922 -0.0385551 -0.51761705 1.5091332 -1.6773293 -1.6661186 0.4339198 -3.4390345 -2.3211453 -1.6904846 -1.5967107 0.16455628 -0.02678239 -3.9720263 1.0580527 0.42995206 -0.3340658 1.5075598 1.0734762 -2.5885575 -0.67805326 1.1254063 1.2342174 1.7391657 -1.4063731 -0.6997078 1.5609038 1.634212 0.76531816 -0.93781966 2.2823625 -0.43246418 0.57458484 1.2247573 -0.39010075 0.48928708
25 2.8706367 -1.9757557 0.66124254 3.4664433 1.5753746 1.6165869 -1.1820366 -2.222004 2.7667828 0.44175825 3.4295547 -0.2964786 -2.2113037 1.036703 -1.7570512 1.2683073 3.356591 -1.5198741 -0.66768503 -3.4132352 0.95169353 -2.2140133 1.6849973 -1.3209585 -2.2548811 -5.306237 -0.6760918 -3.056957 2.2542403 2.4666817 -0.51949257 0.67252874 -0.54314345 0.11057985 0.5487877 -3.0739663 1.6175798 -0.41131186 -1.7750505 3.2753308 -1.8985155 -1.8648797 1.0732749 -0.44541696 2.1971788 0.020423371 -3.578957 -2.8440242 -1.1581877 -1.2216814 -1.5685066 2.689182 -1.1338638 1.5319829 0.2345624 0.5464267 0.07683112 -1.1333008 3.0788012 -0.9053578 -0.6511843 1.5965149 -1.7277093 1.9871469
277 3.7729666 -0.7222829 -1.4635745 0.80267054 -1.303091 1.0102456 -1.585231 1.3451477 -2.939901 -1.023057 5.2224426 1.525279 -2.7241747 0.8133077 0.3394703 2.347501 0.26782355 0.65235126 -0.11795493 -1.7327925 -2.7092266 3.7714884 -0.69857025 0.15943311 -1.3027203 0.11270725 0.6607787 -2.849551 -1.0780708 -3.2657304 1.1007516 -1.2199268 2.6750839 0.22123562 -2.5200968 -1.4963183 -0.70461494 -3.173484 1.2503452 1.0913569 -1.7409037 -0.6491575 2.104562 1.8281446 -1.9731371 0.09337667 -3.0152006 -3.2710748 -0.71680576 -1.9176166 -2.9739418 -0.7693215 0.32384628 -1.8496372 0.82857746 0.17134012 -2.1882954 0.028065186 2.0272098 -0.8466076 -2.2815208 -0.18993041 0.1637661 -2.2786405
119 2.609269 -2.698039 1.1605369 1.7722855 -4.878166 1.1974814 -0.41205978 0.14908645 -4.9340296 -1.0005918 0.56870973 3.4150977 2.1571696 -1.2790059 1.0507764 1.5348016 -2.4547784 -0.86782414 -4.3499966 -0.86545074 1.9840409 -1.3267547 -1.3401595 -1.1078523 -2.9006803 -3.018644 0.6192767 1.7093693 -0.3429348 -1.8738042 0.14684995 2.2313905 -0.5940739 1.6504008 -2.1511889 0.8383893 -3.2768762 -1.9906876 1.8328545 1.7146894 -0.87079287 -2.410668 -2.6262512 -2.180839 0.75181496 1.4413842 0.6044327 -4.0813227 -0.7909807 -1.567315 -1.2203873 4.7847013 -3.0256512 -1.6903279 1.7452215 1.4765954 0.9243947 0.018211523 2.5085404 -2.3901978 -1.6875504 1.7107933 3.1297793 1.0850525
26 2.1646416 0.763997 1.6884079 1.1477998 0.6304153 -0.7818558 0.20097193 1.8436284 -1.9121268 -2.8587596 1.5423427 -1.792911 0.66746205 1.2391847 -3.2583363 1.1358103 -1.6464319 -0.9672834 1.167683 -1.4483244 1.5311409 0.93893546 1.2032748 -1.60453 -2.5648654 -2.2996473 -3.7980208 -1.0482002 2.1014397 -0.71706605 1.3120776 3.0450253 -0.8302998 0.71888834 1.1858414 -2.2730799 -0.49165002 -1.9404049 -1.0775702 0.257416 -0.24391396 -1.1774573 1.6748772 1.9655148 1.673343 1.2806416 -1.2880657 -1.1427089 -0.4651383 1.4472675 -1.0410868 -0.27933085 -1.7310926 -2.0115638 0.6950332 1.9222144 1.0055597 -0.11233277 2.551536 -0.22148412 0.05557041 2.2237427 -1.8927523 1.3274055
21 -0.33644035 -0.43266782 1.8130103 -2.3456225 -0.12987539 -0.7561902 -1.396693 0.8070853 -1.4775481 -1.7028286 0.5760975 -0.20724075 -1.5915356 2.6706078 -1.6288959 1.0868737 -1.5526129 -2.0624053 1.35711 -2.0695348 -0.2785187 3.8858206 3.2403903 1.371909 -1.8625863 -1.8945059 -3.2362528 0.17442827 0.8295381 -3.1929698 3.616598 1.9338046 0.948898 -2.380132 -0.602246 -0.74228185 2.1057317 -2.0887122 -0.23671229 -0.9630462 4.134289 -3.0758502 -3.4078465 -1.2929255 -1.4859029 -0.6482083 -5.83512 -0.16415358 1.231363 -1.9278857 -3.9225345 0.15484107 -1.847346 -0.10324786 0.30644137 2.477431 -0.8159478 -2.1587386 0.55112076 0.4070655 -1.9801267 -0.4296077 0.70627755 -1.6520311
252 -0.4763521 -0.56483096 0.9730177 0.228943 0.8776144 -2.3246126 1.4101837 0.65743285 -1.6835289 1.0998846 3.6188776 0.052039437 -0.415917 1.1063114 -4.5245466 1.8277422 -1.3619927 -1.3657064 -0.04811109 1.0662097 0.95101565 1.4293815 1.4538888 -1.0946147 -1.444744 -1.1417161 -2.761571 -2.8718798 0.7603871 -1.415369 1.4973024 3.2747393 -0.2536386 -0.15441883 0.35335985 -1.8034799 -1.8957123 -1.5879581 -0.30436215 -0.21929203 1.2201331 -2.5380273 0.0668268 -1.2842077 -0.20600608 -0.5487617 -3.8691704 -2.3921955 -1.7664174 0.44755945 0.2593871 -0.5612399 -0.515917 -2.6899974 2.0737555 1.1618694 0.45099238 0.4463941 2.13502 -1.09752 -0.49419504 -0.57611686 -0.25088418 0.1476095
122 0.09170056 1.2268854 2.143244 -1.1390781 -0.5443977 0.40133563 -1.4282472 -0.4951882 -2.3070054 -1.409457 0.722028 -0.5818662 1.2031585 0.5744862 -2.3991694 2.1500547 -4.069759 -2.774623 1.6385627 -0.41282856 -0.042781062 3.0057247 3.208487 -0.49240047 -4.097221 -3.8569417 -1.467116 -1.1296405 1.1528751 -1.0333823 2.436953 2.9789639 0.55949706 0.7222966 1.8764182 -0.20091185 0.072277695 -1.5233414 -0.5843266 -1.3229259 4.106504 0.3691738 -1.5265577 -0.5874691 0.2074816 -1.4073744 -2.7345805 -2.1592393 -0.6576232 -1.8966001 -0.13932581 0.6879017 -0.2435558 1.1093036 -1.963584 2.3265185 -0.34831056 -3.1571476 1.0786183 0.9759814 -1.9178463 0.685271 -2.2128475 -0.5575769
239 2.3059247 2.0143938 1.6320922 1.7217518 -0.60027295 0.10795168 -0.5201832 1.9488659 -1.3337363 0.33900672 -2.6716084 0.13895382 -1.8927864 0.61635333 -1.896622 1.9236112 -2.650603 -1.1414232 -1.0380459 2.0476384 1.857019 2.292377 0.6661304 -0.46646443 -3.3607068 -1.1889942 -1.4058453 -4.2013407 1.623873 -0.6821205 0.791203 5.9340425 -2.7754192 0.4756024 0.093416795 -1.5061301 -1.1795983 -1.3535632 -2.3176837 1.0953461 1.8264974 -1.8394955 3.1746902 0.22553118 0.42241588 -0.066330984 -2.7393866 -0.8249534 -1.3549556 0.56315887 -0.36159942 0.6723001 -1.4074681 -2.2397823 -1.9020873 -0.8093902 -0.7526332 -0.73442256 1.3244491 0.650052 0.11498814 0.8527083 -2.0582829 0.6997393
312 1.0980974 2.2244756 0.80866677 -2.322516 1.1602286 -0.7037553 0.56204075 0.80796206 1.7341647 1.2633493 -4.1998196 1.4608275 2.9455817 -6.2630534 5.7004213 -4.2701435 -3.2240531 2.6402864 1.30278 1.5137612 -0.46926823 -2.1309884 -0.07923358 1.0675995 5.0695324 3.4853413 -0.70070386 1.6339186 -2.009891 1.8770851 -1.8892268 0.83348334 0.74242157 -0.91199183 -0.4929174 1.009497 0.9980235 1.7293646 0.9591525 0.9325466 -1.4909431 3.5017428 -1.1357096 1.5493611 0.3423093 -2.855888 -0.22072531 2.1334243 -0.5471533 -2.4379978 3.9706159 -0.6829051 0.9116935 0.17710961 0.37334523 1.6357647 1.0169854 3.092539 -3.7848604 1.7031987 1.1009332 -0.7456396 -1.0710931 -4.358312
203 -0.56059307 -0.2057824 -0.8355126 0.82800204 -1.0862594 -1.1414626 0.8194589 0.83098155 -2.519053 1.5968845 2.8577394 -1.0384177 -1.1137537 -0.2391062 -3.8281646 2.004684 0.3235024 -0.48059773 0.2678023 -0.95733243 0.16738133 2.1725645 -1.6315033 -0.97400326 0.34695244 -0.041100312 -2.3242939 -2.7579398 2.7544284 -0.95191413 0.5973275 2.4620512 -0.370659 0.97486293 0.7099899 -1.1633443 -3.4439218 1.3840885 0.5021471 1.8840435 1.0348271 -3.240775 0.14419031 -1.4294283 -0.03397585 0.6588554 -4.135498 -1.8765064 -1.6244009 2.3411224 -0.73727703 0.16837502 -1.41254 -1.6403542 1.3367909 2.5708497 1.2336354 0.2831839 2.7865036 0.4939511 2.045354 -0.22109751 2.209483 -0.16951759
9 -0.412975 1.1393805 1.1354271 2.5491471 -0.52649206 -1.166356 -3.9722009 2.4252868 -0.10454468 -1.8053789 -0.047232013 0.22510774 -0.2512627 2.3045042 -4.1786947 0.027703254 -2.0778992 -1.4681938 -1.2766393 -1.6972988 0.6836452 1.5611781 0.34425125 -0.75238544 -3.2706597 -4.4831667 -3.3420312 -0.92299795 2.0649238 1.4791893 0.51308346 2.581627 -1.477348 1.2693261 0.58258337 -2.545993 -1.0813489 -1.7140328 1.223395 0.13256925 -1.5734953 -1.8878263 2.1903982 1.969281 2.8543847 1.4665731 -0.20669815 -1.3043034 0.62030846 0.9239135 -0.3245948 1.1769279 0.26715332 1.8293265 3.0998542 1.0557837 0.7892303 -1.8419259 2.703755 -1.2522209 -0.11348774 0.66267926 -0.8864895 -0.637872
315 -1.0292786 -1.6422566 1.5762134 1.9147862 -1.7742001 -0.52800715 -0.3345882 2.747689 1.580855 -1.3582125 0.65677845 -1.4076821 0.3889911 -1.1528682 0.22749625 3.0745463 3.3420372 -0.5677897 -1.1911077 -3.6298845 -0.551847 -0.41713345 -2.1470072 0.7979676 -5.057823 -5.2860594 2.5155118 -3.213026 -0.13585179 -0.84032065 0.74156046 0.6652773 1.4627156 0.65278405 1.0485384 -1.958885 1.1884679 -0.44400895 -1.2963787 -5.461868 0.4936174 -3.997 1.1454855 1.8259865 2.6324337 -1.3408308 0.21285732 1.1626873 -1.7194057 0.96346337 -2.3698697 1.6703651 0.23382388 -2.9995341 -0.6001148 -0.6622395 1.9737529 -1.1939046 2.0694432 -0.97019976 -1.9551523 0.5535231 1.2777596 2.9913523
200 0.6947992 -0.8180014 0.72546476 1.235372 0.31985956 -1.445209 -0.49942458 -2.0162654 -2.8103385 0.2123364 2.4692316 0.07406543 -2.4385257 0.60751295 -1.1548133 1.5437385 -3.9378319 -1.3004078 3.4851432 -2.3724804 1.0151979 -0.16768841 1.9652144 1.010108 -1.8874378 -4.7815285 -2.9265544 -2.0202696 1.722133 -2.1905398 0.6073393 3.0228863 -0.14837728 -0.5764875 -0.27504316 -1.7822582 0.39990562 -2.0567765 0.07326808 1.3218955 0.8103652 -1.0792887 1.1236986 0.8431245 0.94779813 0.318586 -0.6692455 -3.060371 0.5424547 -0.95784 -0.3659968 -0.3511531 -0.032195166 -0.027055778 2.1183653 0.3425982 2.1161053 0.36207014 -0.5675097 -1.8988941 -1.9812136 2.1509202 -1.6284858 0.3999776
304 1.8980747 -3.6987512 2.6342566 -0.34362918 -1.1248286 0.32468235 1.6953743 0.9337295 -0.1913349 -0.6371091 2.7653022 -3.3130794 -1.9481341 1.7060854 -3.3999527 0.2996223 -0.4850669 -2.1793473 -0.36049193 -2.619721 -1.078455 0.5100204 1.5815415 -0.89511794 -4.0045233 -0.8605379 -1.3569125 -1.8101252 -0.83138394 -1.2367557 -0.3884178 1.5087202 -1.2630672 -0.5774878 1.932903 -1.3283231 0.1092734 -2.300942 3.3448904 -1.151475 0.15956406 -2.4392512 2.874233 3.736213 2.3392599 1.217432 -2.7224808 -0.14991753 0.5555899 3.4111352 -1.2833322 -1.6435596 0.9942268 -0.0989207 1.7014991 1.3179218 -0.4529978 2.9664795 2.6800518 0.8234357 0.36406338 -1.0266846 0.114145726 2.0262682
41 0.20372924 0.40335834 1.0483947 -2.7626784 0.4050272 -1.9303256 0.7579177 0.4268113 -0.8142424 1.7356727 -5.4711585 -0.15464053 0.43304393 -2.4128199 5.32416 -3.4285758 -0.25039163 5.4864244 -1.4610504 1.5515534 -1.0388548 -0.7447413 0.6817886 -1.1842483 4.950088 3.7153664 -2.8538256 2.1411855 -2.8352392 1.6443083 -2.2874384 -0.5336884 -0.64901775 0.017214274 0.8796323 1.6223128 0.9747749 1.7743155 1.4750161 0.9785038 0.4389056 3.3875177 -1.9071976 -0.46107927 1.9190414 -0.55827075 1.4974713 3.1401303 0.33268827 -0.9660854 2.5543573 -1.3221439 2.8822365 1.4327413 -0.39384007 -0.36267498 0.5613777 1.6266835 -3.5064352 2.6362953 2.1379056 0.629159 1.4716423 -0.4198127
115 -2.0130126 2.2549744 -1.5015819 -0.33860016 3.348115 -2.8534856 2.0597131 0.9920564 -0.16879486 0.71416247 -4.9591403 -0.09556103 2.7970428 -3.2464492 4.121058 -3.2103653 -1.7916458 4.585426 2.0369399 4.2489204 0.08164754 -1.3794466 1.1288712 1.7408673 5.672457 1.8324616 2.1996121 0.84465307 0.10066677 -1.1333885 -2.2176893 0.14354125 -0.98129624 -0.65526956 -0.07224921 0.5420218 1.8415679 1.8286823 -2.313994 1.9194895 -0.7415391 2.6493182 -0.6028096 2.4385245 1.2522404 -3.0072074 0.7182438 1.8551055 1.3379195 -0.89330834 3.3693385 -0.30104154 1.8174468 0.72118515 0.7089844 0.4716883 0.4191024 2.2342157 -2.0092223 -0.739076 1.115661 -2.5315359 1.272386 -3.0925186
98 1.9831716 0.47724137 0.85955906 0.4972211 -2.0146105 -1.480382 -1.7669421 -1.1617229 -1.0018479 1.0329748 0.9230635 0.074679896 -0.5366204 2.48008 -1.6954652 1.772355 0.3926003 -3.6379507 1.4725547 -0.02092382 2.9835732 -0.44459316 -0.76914644 -2.4049356 -1.6389775 -0.92639714 -1.8995938 -1.6364138 2.231059 -1.2616676 -0.06347996 3.8044612 -2.9374745 -0.72559136 0.095958196 -0.5853716 -1.9589102 -0.5658347 -0.20112622 -0.11799073 1.323862 -1.6619729 1.0222844 -2.0836983 -0.18604322 0.6393069 -0.94078815 -3.716411 -1.3724424 1.1963298 -1.5442535 -2.100282 0.08063248 -1.880763 0.78314614 -0.14795499 0.35706535 -1.5522069 1.7528347 0.035180356 0.3171465 0.21704626 -0.2911866 0.034583982
188 1.9588782 1.3446724 0.06467043 2.413295 -0.22353105 -2.740714 -4.548338 -0.3397746 -3.4175549 -2.8049042 2.0122132 0.28301546 -0.2909419 1.9352723 -2.001208 0.6960687 -3.30497 -2.0893352 2.4099615 -1.1167979 0.032308534 0.43316704 0.57487136 -1.2043394 -1.6472273 -2.1757972 -2.0869212 -0.13732927 2.0248759 -0.46851712 0.3805369 1.1411078 -0.92256176 0.6758375 0.12354006 -2.1360111 -0.5117582 -2.663782 1.1715481 1.4303845 -0.28078806 -2.9683702 2.4015017 2.0614026 1.0244306 -0.3719334 1.3922026 -0.3557243 0.6221727 0.26718497 0.64887404 0.90819985 -0.10676154 2.6150253 4.470534 0.33454838 0.98198336 -2.9098155 2.7044792 -1.281213 -0.4031534 0.44311413 1.7479694 -0.6052514
285 3.483988 -1.1467763 3.5958831 1.7039791 -2.073649 -1.2811376 -1.8613559 -0.9428595 -1.5448761 0.5460649 3.239159 3.103515 0.44625056 -0.7833908 -0.89087987 1.29354 -0.84062654 -0.0057426807 0.61963356 -0.732285 -1.5128059 -0.33934087 1.0412469 1.0933889 -2.898081 -2.4127672 -0.16837445 -3.8741415 -1.667523 -2.5920043 0.14210305 3.6407356 0.19078779 -0.56307745 -1.130024 -1.3286569 -1.3397638 -0.012350175 -3.4388633 -1.6709511 -0.45821112 -3.6554692 2.3832297 -3.6973095 -0.9369613 -0.3041532 0.30850747 0.42102632 0.9876083 -1.361521 -1.4417382 -0.76713306 2.9580212 2.5905988 -3.0624552 0.922735 0.6392134 -2.0768995 0.40643257 1.0088581 1.7391275 -1.558084 2.3382201 2.8155634
170 -1.2154307 -1.1791604 -0.11804951 2.7223973 -2.0387664 0.7130706 -1.4880375 1.1751392 -1.9418888 0.20119038 4.4152136 1.1283036 -2.1939497 0.8163418 -2.0391173 -0.14013241 -4.1108193 -1.6504917 3.8273532 0.4497575 0.022994993 1.6655933 -2.5926282 -0.44189128 -1.5574343 -0.2576584 -2.2656305 0.6595549 1.3226124 0.12826414 3.2935038 1.7215431 -1.039605 0.318902 0.31164542 -1.2194116 -1.2891947 -0.6741796 -0.90475404 0.80776817 1.3747064 -2.9148395 1.0384669 -0.30369085 1.386143 -0.25955895 0.45524278 0.89245754 1.5836687 1.0924053 1.7241254 -3.2849765 -1.2208501 -1.4942691 3.9098012 -0.0708036 1.4019856 -4.8248944 3.1079876 -1.5827508 -0.37117854 0.5898772 -0.2145539 2.1386695
199 0.69860363 -1.1596195 0.5703821 2.297472 -0.3114204 -0.7295726 1.4599661 3.7886922 -0.073484115 -0.63508326 0.9052634 -1.4709951 -0.9713136 1.00168 -3.5324996 2.0468965 0.4488784 -1.8078111 0.096686885 -2.7006223 0.51471215 2.044423 -1.200714 1.0200266 -1.5652447 0.04641917 -0.9653809 -0.54997677 1.9667585 -1.524002 0.076124236 3.7260485 -1.8851925 0.5340888 0.45268175 0.13415565 -0.23456162 -1.5421845 -3.5179396 -0.28217694 -0.18938312 -5.0200157 1.7390143 0.32655445 -1.1624295 2.7578726 -0.28407347 -4.4009056 -1.6944692 -0.6820793 0.07164107 0.069081135 -1.4610924 -3.1610596 -1.4551338 -0.46687716 1.8553936 -0.12550473 0.85307634 1.5964175 2.001629 -0.43936267 -0.29066145 0.2357561
272 -1.1097947 1.4489613 -0.02236739 0.4063143 -3.089822 -0.5830132 -5.0928025 2.8239632 1.9085281 -0.6337703 0.003921687 -2.1468801 -4.125181 2.015474 -1.1691886 -2.2023044 -3.0767276 -4.025365 -2.4492137 -0.08932584 1.8062353 -0.49583098 1.3828329 0.3995935 -2.1524231 -3.2613137 -2.2217221 -2.1564016 3.3993046 -2.5948796 1.7480268 -2.0785942 -0.5956789 -3.2467077 2.9804745 -2.5851865 0.8319509 -2.9491217 -0.4862333 -0.2451254 -0.51645744 -0.5145386 -4.890555 0.0025975038 -0.90675646 0.12079415 -0.1740116 -1.0851384 2.555485 -1.4823858 -5.1878157 0.81707263 0.28656706 0.959768 2.5486343 1.4329461 2.3578713 -3.4235418 -0.2940795 0.6326327 -1.1233097 -0.25538707 1.4713548 2.3895373
40 2.470367 -1.6434739 2.4449594 -1.5301461 3.4005015 -0.37750235 -3.4566295 4.9111967 0.54225194 0.40881228 0.84294516 -4.050113 3.5026386 1.4341915 -2.4508889 1.7006271 -1.61804 -1.1647888 -0.77047366 -2.058552 1.0002283 1.5146587 -0.5043592 -0.65924406 0.1378696 -1.3275036 -2.02005 -1.9825791 2.0384984 -0.8380988 2.2507098 1.4340918 -0.851895 0.48186195 -0.7229427 -0.5490966 -1.0853145 -0.34888148 3.2613425 1.7387576 1.8123763 -2.3804765 5.563622 -1.0324005 -1.386173 1.6792774 -0.7358136 0.17132393 -0.4434731 0.59069175 -3.2833648 1.6227922 3.9080849 -1.7869797 -0.90198123 -1.8885427 1.4398193 -2.702571 -0.048103563 -2.1418784 1.072215 2.0603745 -2.3274548 1.80042
332 2.4839656 2.1800866 1.399732 -1.3205762 0.63428074 -0.1571445 0.12716787 -0.2697212 -2.0506673 -3.1123142 1.6233371 1.2471515 -1.4385582 0.003764323 -0.85572094 2.4154665 0.24111979 -1.5303406 -4.1097407 -1.7808741 -1.981704 0.76008016 -3.5001764 0.5356659 -3.6132793 -3.1590629 -1.4332844 -3.0861967 2.340628 -0.8839193 -2.5430162 0.3710202 1.1905597 1.9016743 0.3421403 -1.2759235 0.25760788 0.35975614 1.232398 3.3489969 1.7895185 -3.3608613 2.6432972 -2.2675729 -3.9756944 -0.9206738 2.890369 -3.4596014 -0.1305132 2.738182 -2.4828703 -0.94182014 -0.5330714 -0.5273483 0.48643476 -0.5666591 0.88897705 0.07786716 -0.30328152 0.32690772 -2.099683 1.8874809 1.500124 1.4521475
186 0.37416163 -1.541761 -0.50470984 -1.4165955 -2.932895 -2.1411445 1.325544 -1.6951164 0.06732012 0.685935 -0.12954159 -1.6504173 -1.6215569 -0.28990424 -1.2932591 3.41408 -1.6968302 -1.6885777 1.333866 -1.9720085 2.0208533 0.48121232 -0.56709033 1.1249305 -1.5520651 -0.06145981 -1.9717547 -4.21091 1.5448112 -0.04122654 2.376555 4.6991005 0.647793 0.8808349 3.269268 -0.33111763 -0.5211022 -0.07626934 -0.6474406 1.3966831 -0.66800797 -3.5264866 0.3007704 -0.7796986 0.37557602 -1.6130782 -2.0589275 -2.0618193 1.1758946 -0.42644927 -0.026366994 -2.4933584 -1.3111064 1.5102667 -1.8504987 0.5737038 -0.042601246 -3.1302052 1.4891669 -0.90569574 -0.83239657 3.0708842 2.0358977 0.4358608
280 -1.4694273 -2.3517528 3.4945092 4.306926 -1.7822773 -0.05835986 -2.2781928 2.5173497 -1.8540741 -1.1621827 3.2294743 1.1857319 3.3494031 -0.59695673 -0.1835361 0.32940793 0.7850669 -0.4064432 -0.35721248 -3.2005353 -0.6398928 0.6698242 -0.7553655 -0.29992887 -0.60980445 -2.3527439 0.7040054 -1.8743788 2.3493967 -0.24783649 1.2385429 1.448557 -1.2804823 -1.350937 -0.3619684 -2.9377878 2.6423109 -2.8240585 -2.7393746 0.2608781 -0.3255197 -4.207621 1.2032527 -0.3766326 0.83564705 -0.0010542395 -0.63419366 0.24188344 2.4365685 -0.11915521 -4.141473 0.13114071 -0.15538715 1.658396 2.0075858 1.1930084 2.2941191 -0.7507915 1.3134179 0.047157075 -4.0659456 0.52041125 -3.438578 -1.4535431
142 -0.9423625 0.6827829 0.32927856 -1.1155639 -0.14058904 -2.7244496 2.2031975 -0.9177847 -3.422322 0.03614295 3.3487835 0.70443296 0.0894054 0.7886574 -3.0827603 0.81951267 -2.2802305 -2.8543437 0.8801325 -1.3634564 -1.6355015 0.9771546 2.2298725 0.69182956 -2.9325535 -3.3201127 -2.606072 -2.0339444 0.8778107 -1.0695517 0.2225997 2.7788353 1.0769749 0.94804776 0.5484326 -1.3926492 0.18863113 -1.0820322 -0.5764201 1.1200911 0.4988717 -1.8736676 1.708474 1.5440509 1.406628 -0.14446355 -1.7833848 -0.46910715 -0.13104618 1.0254419 -2.2510867 -3.5145829 -0.46397904 1.4978166 -2.2149913 1.1681614 -1.4492134 -0.39582908 1.149849 0.012330454 -2.2429008 2.274854 -2.1097918 1.4802091
19 -0.5224287 -0.14554615 0.07736597 1.8085947 2.0357306 0.5131585 -1.703064 -2.1872907 -0.6941987 3.30845 -2.4238422 1.4123697 1.7098721 -2.845756 -1.0010619 -1.405143 3.5911448 6.8414097 3.6901479 1.0249187 -4.5056524 0.53764975 -1.3222977 2.1866739 5.090088 2.274101 0.4686925 3.7318008 1.3007002 4.5736732 -0.12919751 -7.7079268 0.24367855 0.81072927 -0.8391408 -0.14214423 2.3992364 1.6794937 2.0548859 0.8709451 -4.449539 5.2514334 -4.896325 -1.6735773 -2.6414 -1.9854251 5.770747 -0.5899579 2.1708274 -2.8252974 5.43246 -2.396426 2.6774826 2.6493719 -1.621499 1.8205335 -2.5827699 6.789166 1.3200717 -0.858464 3.0260532 -3.2252636 -5.4652967 -1.5061107
172 1.6455321 -0.5425177 0.32059488 -0.055140257 -0.14546645 -0.27693924 -0.23200041 2.3341398 -0.091163374 3.4383976 2.39997 0.51667273 -0.50521195 0.37975562 -4.5423503 3.756832 -1.1025156 -2.2795286 -1.2649757 -2.350635 1.4404472 2.3896914 -1.2675565 -0.22140686 2.1679337 -0.0038777497 -1.8851229 -1.1399245 3.4342945 -0.50737476 0.67854625 3.1690578 -4.4686894 -3.0438402 -0.76160264 0.52774954 -1.8256148 -0.2837276 -0.9699127 -1.3714582 -0.07833657 -1.8081594 0.453719 0.031100241 -2.508601 0.3656573 0.7447405 -5.009733 1.1031843 -0.66806376 -3.4160306 0.48743793 -0.24050412 -4.79031 -0.09883343 1.6835617 0.87694246 -1.7235528 0.5865422 0.30393782 0.54669094 -0.6975704 -0.7389207 1.3731067
326 -3.2561357 1.1039063 0.13121492 -1.0801814 1.8952137 -0.4579199 0.3636909 0.70083714 -0.90220207 0.3203709 -4.0066895 1.4109391 0.8464548 -4.891158 2.6252367 -3.831079 -0.3555497 2.0854232 -0.16103983 3.0469234 1.2328694 -2.079033 0.24511465 -1.3425629 3.8055573 1.6638857 0.05796205 3.0037918 -0.83154285 1.6730752 -1.6501527 -0.28081295 -1.7698103 -1.2974079 -1.2524114 -0.03736991 2.203778 2.1228783 0.67226565 -0.9751138 -2.3766704 2.6335094 -0.79672337 2.3706148 1.7491381 -2.6768072 1.3044753 2.744814 -0.01774664 -1.2379065 2.817747 0.38165754 1.8186191 1.5636789 -1.040921 -1.1857938 -0.87743276 2.0417798 -2.6431077 2.189076 1.0794796 0.6897888 -0.6439814 -0.45753512
213 -1.6039065 0.68933773 -1.3308957 1.4142042 -2.5167599 5.3577914 1.276528 0.48596123 -0.5678701 0.4562684 3.4805832 0.72927743 0.1604303 1.8107455 -3.0489025 2.9815784 4.60707 -2.0353026 0.55248344 -1.0970379 -1.7424253 1.6055518 1.7488582 -0.3545126 -2.2852147 -4.139676 3.6023571 -5.613993 -1.2340071 1.6864505 0.8425017 2.4172416 4.293564 -0.9886062 2.291436 0.25453287 -0.35890418 0.17596193 1.0922474 -6.89718 0.3065089 -1.4790171 0.24362257 4.079711 1.0964195 0.114133544 0.28397965 -1.220087 -1.1741394 3.9235003 -1.5099813 -2.2201192 0.6790934 -0.7447438 -0.15239444 0.42078263 0.86098677 0.59083784 -2.2145758 0.58369875 0.81473124 2.688927 4.037052 -0.058119487
113 0.2810857 0.84953076 0.12630616 0.69625896 -1.8707688 -2.198186 -0.480345 2.7600048 -1.8365829 -1.2503694 -0.5369033 -0.56211483 -1.1258181 -0.65574104 -0.48281378 0.54424614 -0.9897605 -1.867348 -0.08118832 -1.0091298 0.93140215 1.93968 0.19342381 0.8141225 -0.3923052 -3.6778615 -2.392969 2.0913308 1.6387551 -0.76194376 -0.82844746 0.70474863 2.1822414 -0.22599117 -2.0690646 -2.7453225 0.57893646 -2.9087727 0.027732816 0.863499 -0.8163673 -2.8499904 2.7879841 -1.9373546 0.8132369 1.6766241 -3.863864 -2.3681421 -1.2417313 3.4511898 -2.78926 -1.7958071 1.4553996 -2.5748198 -0.6855479 0.37388238 -0.44202304 -1.8107395 3.3768802 -1.0441324 -1.478147 0.450418 0.92780834 -0.067071944
343 -1.9262812 1.9956605 0.25781682 -2.3176618 1.8532066 -2.6389418 1.5150821 2.7841473 -0.5730292 1.7307304 -2.5424461 -0.36594266 1.7652941 -2.9996767 3.529216 -3.3860013 0.7787554 4.162079 3.4103887 2.0241346 -0.2783833 -1.6618339 -0.24554211 -0.9700817 1.5742452 3.2188683 0.78123844 2.494684 -1.8719863 2.9979978 -1.5814131 0.6537024 -1.3212694 -1.4173012 -0.5212591 1.26031 2.4784455 3.349062 0.09995688 -0.02168492 -1.2227519 2.5719974 -1.5649927 0.35104132 0.93355554 -1.0223951 1.2994753 3.6715605 -0.22284386 -3.523547 1.2822958 0.3011892 1.365366 0.3175505 -1.3766077 1.2413298 -0.2901117 4.6750903 -0.58782214 2.8559706 0.82653683 0.9018783 0.16756476 -2.6445649
323 0.60363215 -0.11781783 1.8049858 0.44883937 -3.1958869 0.24671757 -0.6145677 -0.83527833 -2.9019456 2.043877 2.706277 0.17446426 -0.932134 2.9359212 -3.8762968 -0.14420515 -1.9429368 -2.5018425 3.310154 -1.4128652 -2.220269 -0.10843326 0.15147336 -2.264863 -1.8412352 -3.3178754 1.215366 0.10887016 1.1123759 -2.4963515 -1.3030325 2.7801166 -1.0936422 1.1493702 -1.2758273 -0.76233995 -3.5854042 -0.84644544 1.3443722 3.3398163 1.6420566 -0.1583222 1.2168599 1.7107817 0.76035434 -0.3867188 0.8605228 -0.5620258 0.35362923 -0.2010546 -4.0272326 -3.5474505 0.3414072 3.2895446 3.076167 0.57223886 3.9929924 -2.7465615 -0.19303517 -2.715277 -1.1825262 0.90399796 -0.22534427 -0.67642117
175 -0.8395065 2.4664922 -0.74502313 -3.0553885 0.6674096 -1.1193826 0.05572785 -4.069324 4.626276 2.5061371 -1.5412848 -0.68639004 0.42744008 -2.2611225 -0.8131997 1.0413986 0.73611903 4.546734 2.4943027 -0.6930698 -0.0077487854 0.03622996 -2.4700584 2.7056546 -1.8104008 2.710269 -1.7856318 3.0672655 -2.386366 -1.505818 3.4323535 -3.933207 -3.1136353 1.2674392 0.91013736 2.3057945 -0.6052878 -0.27874383 -1.6068447 4.27686 -1.2654101 4.188093 -0.6844808 -0.70450294 0.7666668 1.0292854 1.486607 0.5110439 1.0158391 -0.78499323 -1.1490555 -3.1819892 0.75757533 0.3931811 -0.4774718 -1.8550907 -1.5119524 6.0172095 -0.13736646 -1.902102 -3.9361193 1.2963322 0.8471247 -0.4030304
214 -0.6749714 -1.9378114 -0.34487516 -0.075669505 4.0604844 -1.6513389 -0.30382344 1.4639742 -0.20985131 0.24925375 -3.088723 1.3636557 1.3583221 -3.9606764 1.8112594 -3.5457249 0.58441496 6.718854 1.7224258 1.1027119 0.40597117 -4.3812733 2.0342107 -0.08466429 5.2246733 3.7458835 0.46044824 2.4611907 -0.14229758 2.295084 -1.8406353 -0.7232689 -2.9812722 1.6810881 0.25948346 0.31229162 1.7305572 1.972753 0.051056955 0.94650024 -2.6090977 1.98133 -2.034181 -1.9759814 -0.15371238 1.5297271 0.8931328 2.1935086 0.37565207 -1.124665 1.1281322 -3.7926295 1.9025986 2.1245577 -1.449147 -2.3058763 0.14558993 1.1368016 -2.259561 3.6033313 1.7988268 1.2835376 0.09904409 -3.65689
169 -1.1295886 -3.4016743 -0.15482548 0.78252006 0.73759884 -0.4399876 -1.5157151 -2.2948081 -1.7772269 -3.98667 3.332088 -2.1609757 0.07489631 -1.5428288 -1.6913061 2.3203802 0.75642824 0.68681604 2.9650605 -1.2301834 1.0102476 -1.0619066 0.14666711 0.6714968 -2.566817 -3.2635236 -0.45770895 1.0374615 -1.592783 -1.5788348 -0.4889575 2.8525817 -1.0274018 -0.48805135 -1.7954152 -3.779506 -3.359582 -2.8691096 -0.7628757 -0.74406725 2.7124083 -0.52057487 0.93354064 -1.1503317 -2.0109043 -2.3315248 2.1302404 -4.4779577 0.46547148 4.4644995 -3.691896 -0.24606287 1.6916173 -0.62807554 -0.47460923 4.361295 1.7007415 -1.258488 -0.74137414 -1.2786196 -2.6355815 1.6896651 2.2795875 2.770738
325 0.50031984 -0.57258373 0.96491 -0.09903558 -0.13423356 -2.6374233 -0.21235393 -0.39979067 -1.7492642 0.0040582623 1.2515607 -0.44889647 -2.7244813 -1.0200579 -0.706325 0.72446907 -1.417793 -3.1903193 1.2373712 0.93590474 0.5793383 2.5779436 -1.6937667 -0.1755034 -0.014497307 1.6394151 -0.905898 -1.5088031 2.2449434 -1.0368541 0.7855476 0.966232 -3.359971 0.7123581 0.054529104 -1.2203988 -0.59333056 -0.9148287 -0.5194421 -0.71953714 0.08695067 -5.175038 2.2182095 -0.95620704 -0.24021693 1.8459831 0.08635099 -3.790989 -2.7431371 1.5532223 -1.48428 -1.2839974 -0.7302827 -2.9285169 -0.16773716 2.5297687 -1.4746252 -1.2768241 2.055734 1.6036589 1.5459598 0.31482178 -0.09892629 -0.09874861
23 2.1146443 1.7612472 -4.9647765 2.3201985 1.8040185 0.6445415 1.5838147 -0.9364964 2.9302263 0.6352609 -0.8622038 2.237913 -0.2170275 1.6393521 2.7445486 -3.4722714 5.166417 0.8132828 2.3558352 -0.57011575 3.525561 0.7043379 1.9609407 -2.351328 2.5634604 5.9464774 2.2914119 4.7662325 -7.0283566 4.8936234 5.2889805 -0.66189796 -4.3222256 -3.318669 -1.2068282 4.473312 3.6967244 -3.8561049 -0.0022925388 8.4347 -1.0217607 3.2575495 1.1267705 -0.08880654 4.218959 -0.0038140463 0.37902984 2.4519644 0.40692985 -1.2063444 6.8956876 -1.7043924 4.9677296 -4.6537 -0.21802637 -0.041591894 -6.352974 -3.2299502 2.502064 -0.2969795 -1.5482974 2.7406378 -1.7245734 1.112677
261 1.5690198 -1.1308386 1.7526115 0.01452167 -3.0219655 -3.4697847 2.4922826 0.21321636 -1.7602805 1.6210202 0.7647051 0.2818382 -1.5057921 0.5327812 -2.745891 4.6173387 -2.006727 -1.6241226 2.375922 -0.6223049 4.007138 0.41622788 -0.8620054 0.6502775 1.3738879 -3.398664 -2.3156483 -1.0717833 4.6324353 -0.7837153 1.3625864 1.9322089 -1.4293444 -2.2449987 1.3347394 -1.2095156 -1.2110724 -1.6318295 -1.4668194 0.41294745 1.3573414 -3.3388407 -1.6339 -0.9343877 -0.6678777 -2.7342083 1.0748875 -1.9085873 -3.9276974 3.2527223 0.101768084 0.5637517 -1.8555532 -2.2847154 0.47308102 -1.0526396 -1.5754564 0.06700553 0.23505245 -1.0975478 2.808906 -2.6858187 -0.10301575 0.083831854
109 1.8593234 2.3294084 3.2346432 3.2738867 -2.0703747 1.3665239 -0.3649394 -0.9003864 -1.8847579 0.310146 1.619519 -1.2030088 -0.50401825 -0.58392626 -1.5793188 1.1702354 -1.509146 -1.1918327 -2.1525185 -0.47106007 1.4113508 1.8849425 -1.5784076 -1.1981039 -1.4718324 -4.6111956 -0.7346873 -0.030367583 4.8625865 -1.8229376 -0.3027687 1.674378 2.190704 -0.65466285 -1.2399853 0.8336138 -1.7606821 -2.0634522 0.97763586 2.7003624 0.27788255 -5.398203 0.022082333 0.5651616 1.8274004 2.2023263 -0.0011802715 -2.4135303 1.3463874 1.4584706 0.40947437 -1.429411 -1.204078 -0.6191802 -3.0041149 0.083947726 -3.7686648 0.29330975 1.4038274 1.4608095 -1.9466261 1.1693621 -2.4683554 -0.7657765
313 2.9646163 -4.83091 0.3128365 1.9541117 -3.6923304 -1.8564771 -1.6087699 -0.011579927 -0.30625007 2.1502955 2.4395032 0.56939954 -2.9269342 -0.84167856 0.9372083 1.4729367 -2.7195601 -2.3145843 -0.4220544 -0.9158633 1.8623819 -1.8266848 -2.3288465 -0.9230499 0.26881135 1.2457 -2.0019763 1.1888353 -1.20184 -2.7948484 -1.215843 4.4079485 -1.8983823 -0.72274315 3.6202238 1.965492 -0.07600747 -2.1395206 0.90678984 -1.2558057 1.5381439 -6.725269 2.1192245 0.36529428 -1.0502198 0.9625434 -1.4236017 -3.1803403 -2.795958 0.10983799 0.7984045 3.0362782 -2.531599 -0.39940938 -1.4188918 0.19791344 -1.7064892 0.11155805 -1.9141579 -0.48437908 2.1058538 -0.97315013 -1.57525 1.2642783
236 1.74126 -5.2999744 3.1876965 0.1305271 -1.4971253 -0.0054746075 1.3652161 2.3721848 -1.890194 -4.6972704 -2.8095765 -0.2777562 -0.58996034 1.8720952 -0.63149184 1.159206 3.799437 -1.6908135 0.32470593 -2.7756896 3.5173206 -0.831871 -0.08585701 0.014915071 -2.6716433 -2.8191333 -2.742209 -1.1261812 2.3910599 1.7033879 1.5018556 1.1850383 0.48896205 -0.8408943 -0.33410627 -2.9311318 -3.486322 -3.1339717 1.2198433 0.8894057 3.1410606 -3.2597644 1.6615753 3.7245877 1.8652437 -1.6021713 1.4264555 -1.3478843 3.1734235 -0.47892553 -1.6420234 1.4592662 -1.0131243 1.1499959 -0.80579805 0.20358437 0.88238186 -1.5816061 0.6520385 -0.21316305 -1.570417 -1.9010651 -3.079201 -3.0966146
116 -3.5428107 1.5772187 -1.0291411 -1.353934 2.8274844 0.3157771 2.1544218 -0.4833175 1.5929132 2.960702 -3.6386719 0.90417033 0.6951854 -4.99968 1.6193712 -3.1843784 0.16918425 2.375522 1.0018376 4.392358 0.14344376 -0.38652855 -0.98393023 1.0323638 2.364751 1.8178416 -0.33655015 1.7576377 -2.5099604 2.5223362 -1.7746838 0.03600291 -2.5901384 -1.2078552 0.23728007 0.7390145 1.1910611 2.499476 -0.59738004 0.8385585 -1.1182883 3.8282287 -0.9907481 0.27195254 3.292993 -3.1295004 2.3416185 1.7138041 0.015936328 -1.0676496 1.9356542 1.0736108 -0.18682164 0.050910063 -0.024221083 -0.9385449 -1.8847572 0.87825495 -4.1683574 0.81791294 1.6850516 1.695346 -3.3661702 -0.73733884
291 4.796311 -1.9111748 1.6303782 -2.2763383 2.2134743 -0.71950155 -1.9330934 0.89203626 -0.22031051 1.968603 1.4019717 1.8182313 -1.0284979 -1.7460594 -0.60085905 2.5516963 -1.6756619 -2.6784444 -4.9719405 -0.33214882 -1.4858344 1.0502837 0.18001679 -0.41662169 -4.9864016 -4.1820273 1.6555754 -1.4671196 2.0797865 -3.5341213 0.08054297 2.985337 -1.5005188 -0.49048746 1.2389657 -0.5610878 -1.3888361 -2.078203 -1.4414817 -0.95998764 1.3071694 0.11249607 5.571402 1.3446543 -2.9704845 -0.6409 1.3448821 1.3386114 0.31999418 -0.5676001 -3.2325354 -1.1275471 2.7467573 1.3466899 3.4518762 -0.10956252 -1.2297587 1.0807943 -0.66354406 -2.6562881 0.1779095 1.059855 -2.1681516 -0.733775
118 0.5519385 -0.87312484 0.72009397 -0.10778477 -0.22557104 -3.309308 2.3232787 0.45664003 1.1785704 1.0962807 2.5726073 -2.2507389 -1.9233339 1.3384788 -3.4931567 3.1925316 -0.62802696 -3.0450215 -0.5119857 0.28784245 -0.123210095 2.7486997 -3.8096263 1.4878782 2.518783 -1.8161839 -1.811257 -2.698147 1.4660846 -0.049753815 -0.087952785 1.6306467 -2.6743681 2.7732008 0.16045678 1.2507194 -2.01979 0.5890973 0.38669765 1.0937568 -1.2722338 -3.9816346 -0.046580397 -3.124238 -1.1673611 0.29540518 -1.003941 -3.83886 -1.4961863 0.6500907 -1.0017564 -0.5178126 0.9182773 -3.4636805 0.9524786 3.1030104 -1.2867178 -0.45108005 3.0520458 2.7994106 0.59078133 -0.57527155 0.6103494 -0.5925799
137 -1.6450915 1.2383332 -1.8651685 -1.7884381 3.6214197 -3.4708705 0.029745497 0.8154363 -0.94107926 1.7457978 -1.3782338 3.4731014 -0.036932018 -4.59289 4.7482533 -3.263288 2.4935787 4.745883 0.9290921 2.0685894 -1.3110067 -5.155878 0.08299766 -1.1845766 4.129202 0.908523 -3.8429353 0.65982234 0.17597526 2.0012288 -2.2359376 -1.9785917 -0.17286515 1.6057891 1.5161058 0.023988143 -0.7932139 1.3213997 2.136009 -1.0978105 1.9337672 3.5123937 -3.9317946 1.2804998 -0.20155507 0.07344928 4.599805 0.45691383 -2.3480191 -1.4585702 2.0253313 -1.2007029 1.4742197 0.46766672 2.3452587 -1.7420058 -0.38678157 0.80102205 -1.7906791 0.73072356 4.421267 2.3460133 -0.22168896 -1.708911
227 0.98543054 3.07105 -2.789112 -2.2760248 2.557022 0.06254672 0.8620939 -3.8414207 4.4007807 2.369738 -1.7255247 -1.7469494 -0.64621645 -1.1580198 -1.8203367 0.6627272 0.7080896 4.9450865 3.207517 1.0177622 -0.510085 -1.7966363 -1.9519806 0.76324034 -1.4444442 4.805235 -1.6825176 2.601555 -5.4920855 0.13261022 1.4224262 -4.6077676 -0.41814905 2.765954 -0.19542481 1.6493547 2.636038 0.6267445 -1.8952965 4.1495886 -3.062738 3.8656218 -1.1411741 -0.38740048 0.70652974 2.7319212 1.2840405 -0.35386547 1.281455 -2.6000524 1.6408101 -0.5455889 1.2285099 -0.57518655 0.65817684 -0.23618327 -1.1408184 3.8211007 -1.4069788 -3.5064023 -1.1188672 -0.4300977 0.57417965 -2.4076293
82 0.45080316 -2.7686584 2.3373764 -1.2171217 -0.9112168 -2.0516362 3.587678 -0.43121615 0.97878844 0.7062802 -0.3339027 -0.5595307 -0.26597267 -1.0911846 -2.125714 4.048851 0.3221772 -4.410963 -1.5612528 -1.8479886 3.9387462 1.055769 -5.0148115 1.6104376 1.3430934 -3.560694 -0.6950283 -0.9264455 2.583882 1.869534 -3.447037 -0.021072509 -5.0624547 -1.3887918 -0.062497444 -0.3235467 -2.0737288 -1.4770273 0.39622197 1.0014768 0.1398376 -6.709743 -0.5015986 -0.49464992 1.1370767 -2.5781808 -3.0489318 -3.3106883 -1.4699594 4.1122546 -1.1074252 0.007124423 -0.511245 -2.7589185 -0.63270986 -0.68187344 -3.0315511 -2.1628675 -1.0727044 0.25397754 -0.93199027 -1.1041124 -0.9038943 -1.8152255
53 2.2219043 -9.046872 -1.3397255 2.848902 -0.28340235 3.088427 -0.59087193 -0.20757836 -0.5267413 -3.1384165 1.3031849 3.4238806 0.0011082118 4.6928024 1.8650641 1.363384 -0.18620142 1.8008373 -2.0839474 2.5362628 -0.12670293 0.52889174 1.3825724 1.7853594 -1.8026175 -2.2112434 0.4332774 -2.9274974 0.08449059 -0.1722956 -0.6985791 -3.4933722 2.4182196 1.1726735 1.3408815 3.2446597 -5.5901136 5.686663 -0.07335178 -4.2710786 0.95235795 -1.1192044 1.9151889 0.9093047 -1.8535157 1.9550369 -1.967572 2.6381087 2.2480867 -0.1356621 -0.56629074 1.7646114 -3.361845 -1.1252531 -2.1215963 -0.62242395 3.739426 -1.0381382 -4.3327036 -1.9606887 -1.5490792 -0.589312 0.3960039 5.061027
342 1.7859535 0.61733115 1.7028266 1.3016509 -3.953224 -3.097445 -0.075071745 -0.80971026 -1.8098226 0.9602731 1.1035469 -0.75913596 -3.2828908 1.370255 -1.8264699 2.3521204 -2.813694 -3.0127883 2.4990509 -1.4914201 3.867736 -1.1006801 -0.91133076 -1.5342973 0.80421877 -0.48850706 -0.49043527 2.2334754 1.8108103 -0.6759979 0.92625594 2.6884627 -2.732844 -1.5626128 0.9136349 -2.0999074 -0.5471391 -0.5950102 -2.310483 -1.1987686 0.2740829 -4.057648 1.1951498 1.5458717 -2.5261614 -0.38497153 -1.7607843 -1.3473928 -2.4930143 0.9356994 -0.22044931 -0.00080307375 -0.9785779 -1.3345926 -1.2460542 -1.6100007 -1.3458146 1.3948598 1.8677579 -0.74629146 -1.6526607 -1.639844 0.5952157 0.07251193
329 -0.8060037 0.97111154 -2.2988923 -0.30590275 0.6602988 5.5486245 1.1195338 5.904216 -2.500831 -3.8788533 1.8594887 4.0530257 -2.4539669 5.4500685 2.2468555 -0.057264324 0.7697336 -6.3056216 -1.0393583 -2.7384284 0.74978626 0.9249184 5.6729903 2.1654136 0.9678509 -3.022411 -0.31657392 -4.067277 -1.0209911 1.2210828 -0.5046879 3.5855846 -2.7679865 0.90751266 -0.711315 3.3191168 1.0314698 -3.6893861 3.2467034 -0.11137865 -2.4311619 -0.8149552 -6.140019 -0.58754754 -7.4397693 0.8765507 -0.92752045 -0.6076782 1.9266956 4.456238 -4.116773 3.9741461 -2.161883 1.0433832 2.3943338 0.34333113 -1.1024647 2.4827418 -3.8074934 -0.8448802 1.6213149 1.5833613 4.3518643 1.0317862
20 -0.76694167 0.22271891 0.43962553 -2.7083025 2.5605555 -1.9200269 2.5608652 2.6407838 0.80977637 1.3351365 -2.914094 0.62486213 1.9655107 -2.8424442 4.408575 -2.5302374 0.7999485 4.57868 1.4081379 3.8744535 -0.3444487 -1.1020275 -0.30902806 -0.27310732 2.6652389 0.26521108 0.9559269 1.0567429 -1.4434398 3.611418 -1.4293557 1.9435263 -1.3454471 -0.5567706 -1.4184458 -0.09644869 1.5938362 3.9793646 0.074549735 -1.487503 -0.8443468 4.2366385 -2.264873 0.112793885 0.2639501 -2.2710629 1.5431595 2.1998928 -0.92983717 -4.367998 -0.2535758 0.9499436 1.0376469 -0.05547631 -1.7523084 1.8613287 -1.5483412 2.4381244 -1.5162063 2.126401 1.0970169 1.9216639 -1.8990351 -1.1438466
14 -2.2092328 2.5606334 -1.2941735 -1.0107125 -0.27793628 -3.7979553 2.4752119 1.475554 -0.42860824 1.0738108 -2.7222958 0.5440107 0.96631795 -2.5795338 4.151198 -2.6354473 -0.27742228 0.33206648 -0.35623622 2.9627829 -1.3567657 -1.4002291 2.0352623 0.3282188 3.6525435 1.4802485 -0.2755466 3.0658998 -4.424418 1.4761243 -1.8150723 -0.43088293 0.078571975 1.7894198 -1.4456052 1.2588371 1.3117216 2.7634346 1.5230953 -0.50760436 2.235952 2.9383938 -1.5544212 -0.38393706 0.36648747 -2.4577627 2.205347 0.4621271 0.7163127 -0.88685983 4.132079 -2.4707425 1.7584394 0.6628768 -0.49095613 -0.7121048 0.11842293 2.6416235 -2.45589 1.1749398 1.3963016 -1.4952513 -1.230698 -1.6773136
144 -1.1977605 0.07267001 -2.4050107 -2.3150656 1.8973641 -0.7387804 2.638162 -2.851447 0.5591257 2.0537238 -3.085556 -0.88854235 0.943613 -3.875361 1.8113077 -3.7133503 0.45469424 1.8248774 -0.7188214 2.8590126 -0.014215454 -1.9265418 -0.44138044 1.3631868 2.5899923 1.8518025 0.18427546 3.6767411 -3.7503393 3.348405 -1.5684685 0.33664882 -2.2897313 -0.54204994 -0.9074972 -0.118396856 0.58990854 2.2334154 -0.12239335 0.24755095 -0.18720323 4.2392054 0.67551196 -2.3048003 1.7310098 -3.561525 2.3927698 0.4809447 0.41691345 -1.0933369 1.2238767 -1.8028013 1.9657892 1.211455 0.025196487 -2.80937 -1.805858 -0.61985934 -4.6238794 0.57121575 2.4690244 -1.304215 -2.1487064 -3.0801954
104 -0.1539353 -1.3932962 1.1687886 1.4619492 -1.5104383 1.4689833 -0.2538669 -0.6491251 -1.8044896 1.1830646 -1.794145 -1.9001358 -0.79513246 -1.0991861 -2.270908 3.9229898 -3.436797 -2.1646903 -0.61300474 -0.50780535 0.69470775 4.5360646 0.30209368 -2.9658742 -0.910147 -1.1715044 -2.2456303 -2.3634095 1.4211153 -1.6696081 2.868605 4.028545 1.2389299 1.6719278 -1.8873023 -2.4969668 -2.668143 -2.4172108 -2.8343918 1.5435427 0.8326651 -1.5301014 -0.6648058 1.2917172 1.1067384 -1.323227 -1.0221579 -2.2503355 1.1129729 0.854174 0.7882915 -1.6720238 0.3574503 -0.4820131 -3.5815918 0.7843046 -2.2680075 -0.97201884 -1.7682164 -1.6657581 -0.5668467 0.7541766 -1.2573808 2.6849709
111 -1.8163149 0.6818026 1.2367488 -2.57877 2.478986 -0.122286305 4.682504 2.4866652 -1.1365657 1.9922582 -1.7964195 1.2890825 0.6212871 -0.6642462 6.5228715 -4.5457044 2.3707948 2.914463 -0.64699465 2.8566399 -4.0064797 1.7922187 -0.5243452 -0.98102325 4.4347034 3.1576228 -3.796662 2.7983644 -0.13360643 0.48791984 -4.314058 1.2393273 -0.5982691 0.5131166 0.2790273 1.7880445 0.016149642 2.2215278 -1.043168 0.938177 1.2600849 2.7082708 -3.5044281 2.1236024 0.48051232 -1.985847 -1.6273582 1.1504055 -1.4451921 -3.3762007 1.4183019 -3.908506 1.3540632 2.9778206 -0.54999936 -3.646976 -1.5146663 3.3757763 -1.880483 0.60850453 4.3692503 -0.5341853 -1.2766696 0.21791947
179 1.0371786 1.7832146 -1.1399268 2.6762354 0.61660206 -5.208677 2.4509778 -1.1637712 0.2622255 0.55357164 -0.41532347 -1.5667206 -1.6375569 2.5300736 -0.0811248 1.4002043 1.7992643 4.7581964 2.8471186 1.8368944 0.55874485 2.2436008 1.6273986 -1.5356152 -0.71464825 1.5102043 -1.3135741 1.4414564 -1.4661496 -1.3184917 -0.9685099 -5.188462 1.0229591 1.0271692 2.3381264 -1.865107 2.7351055 0.37744305 0.43620035 -3.8364089 2.0714798 -3.5435688 2.799208 0.4796769 2.1926515 0.41271836 2.2611513 1.3850062 0.33947396 -1.2885652 -1.5225081 1.7177544 2.5436363 -1.7889677 -0.5212942 -3.5298169 -1.001194 -0.1310327 -4.262664 5.4353313 -1.2481083 -0.5265844 0.029154938 -0.60744387
13 0.22729549 -0.9314907 0.3356142 0.5107068 -4.466655 -1.8543898 0.011242132 -1.3653361 0.71785104 2.038115 1.3244164 0.5421367 -0.023859562 1.0795219 -1.0156386 1.2608829 -1.6027193 -2.5240924 2.199526 2.5359468 1.4372846 0.7249177 -2.3263574 -1.3713578 0.37791368 -2.052544 -1.3907661 -1.9855205 3.242893 -1.5304422 0.67007494 2.9813795 -1.7508101 -0.80350614 0.93659556 -1.7088405 -0.54379565 -0.7834251 -1.132678 0.17247154 -2.1179109 -2.7402847 0.65915465 -3.3049076 -0.69576275 -0.31561098 -1.6620674 -2.819899 -2.0790155 1.4394356 -1.9334853 0.15868193 1.6806382 -3.9961185 1.0817989 1.8361728 -0.64410263 0.75073826 1.5995814 2.090088 0.8857612 -1.267887 -0.18547446 0.18971358
149 -1.6368814 2.2358851 0.96735424 -0.09382357 1.3797 -1.453511 0.88687146 3.9778304 0.568517 0.76927346 -3.4013999 0.68430585 3.1806316 -4.3455024 1.9684682 -3.045434 0.7180908 1.7146223 1.720257 4.333007 -0.108543195 -0.935003 0.90947694 -1.2749218 3.9990313 2.1193013 0.22135812 2.0123932 -2.5707664 1.8143653 -0.5301609 -0.33144885 -1.9818363 0.8076851 0.62559927 1.8537637 1.028084 2.5991056 0.047339503 -0.3084343 -2.3043873 0.6853589 -1.1984446 -0.28130797 2.2443812 -0.68011063 1.8511602 4.3593564 -0.20560288 -2.4738646 1.6823725 0.19224897 0.5704038 1.6779577 -1.311283 -0.2808459 -1.4971542 0.8229557 -2.2664664 2.708343 0.6185168 0.0011823273 -0.34667882 -2.0977507
226 -1.8908309 2.7989528 -1.1550181 -0.11563013 2.145376 -1.4914584 2.3054957 2.4299273 -0.17457825 -0.5315475 -2.1509418 -0.08900279 2.922018 -3.1350186 3.8204916 -2.4561675 1.4095516 2.7521036 1.4765289 2.3713117 0.61324596 -1.1690254 2.1809542 -1.2461946 3.6111403 1.8116809 0.61144286 2.4862306 -2.2072322 1.162004 -2.57139 0.46511915 -3.1624053 1.1497887 -0.06428652 1.693315 -0.32283866 1.845851 -1.3987068 -1.4442791 -2.2979171 0.76097554 -2.2295957 0.15392298 1.1944318 -1.3620993 1.9265614 0.8124282 1.9515462 -1.9934229 2.9025538 -0.6379714 -0.033068966 1.7510278 -1.9131671 0.85100204 -1.1184044 0.31419024 -2.3341694 3.3632207 0.04830524 -0.037407763 -1.3540827 -3.551978
99 0.7768502 0.51989126 -3.915332 -1.6479024 1.8157964 0.17907834 0.28567937 -2.0457237 4.0880036 3.053332 0.69578445 -0.9242219 -0.29789662 1.0983037 0.19341128 0.21806207 -0.61087847 2.4482305 2.1812725 2.2580857 -0.74689835 -0.8532488 -2.2604272 2.4229481 -1.3897415 4.0320234 -1.3194871 2.7207582 -5.4389687 -0.17507079 2.811405 -6.7802763 -1.5080901 1.575178 -0.20686175 2.5180478 0.99123204 -1.2528107 -2.1450353 4.1909285 -3.3638697 4.4574795 -0.2770873 -0.4874629 0.3834122 1.454533 1.9962733 -1.2820247 2.5738773 -2.7291336 1.4474094 0.68157345 0.18676937 0.8777962 -0.62049735 1.0990169 -1.7408409 2.145344 -1.0032429 -1.4926586 -1.2298849 0.028771278 2.0680323 -1.1463183
211 1.9023274 -0.19365284 2.3346355 -0.29545423 -0.49791816 -3.2388172 -0.8580473 0.19699094 0.42557353 3.5540645 4.072804 -0.5570683 -0.38479376 1.1892816 -1.4376855 3.6638021 -1.0926204 -2.9429157 -0.03982772 -1.0882003 2.0141575 -0.06413936 -2.6654458 -1.1521614 0.20194106 1.6895167 -1.8733177 -1.0682642 1.9789345 1.3622285 -0.26387858 1.9934497 -2.8516297 -0.68650395 -0.22939214 1.4241735 -3.320273 0.58933884 0.51150626 -1.624384 1.3902028 -4.4875274 0.68716097 -2.0576847 -1.1159599 -0.018899577 -2.0100522 -4.9557304 -1.3156505 0.39025733 0.8138469 -1.1139847 -0.78811127 -3.461341 -0.28327164 2.3446858 0.783777 -3.0641763 1.8464109 0.94868207 0.86855936 0.26860198 1.4490534 -2.5995526
346 -0.38161907 -1.8807241 -0.07148174 1.7599285 -2.3451889 2.2465832 -0.018837672 -0.22569288 1.9187443 -4.0363326 0.12527655 1.2400253 -0.20709035 6.0506687 1.2692221 -0.7085654 2.2681487 -1.4641672 -3.1521919 -2.036149 -2.1646693 0.58596385 3.5447407 -0.7984106 -0.78230083 2.320305 2.561796 -4.697204 1.3706077 0.027453708 0.9258058 -5.456871 2.5289843 -0.8489547 -2.6794891 0.96172124 -0.7247071 3.6087785 -0.07097644 -4.8936324 4.287757 2.7126684 -2.7459643 1.368392 -0.609923 2.5701857 -3.1591392 2.8419828 0.10593044 -1.3675253 -1.3143857 0.7410035 -0.98111665 -0.85518914 -0.38266942 -2.6160538 1.4279727 -2.7172086 -5.1873236 -2.7739222 0.81230056 -3.1794124 5.0982165 0.27089548
339 1.8859944 -4.4545574 -1.7264602 -4.8665333 3.53105 4.272318 -2.990601 -0.84434855 3.131825 3.6879394 5.4460516 4.0146813 2.0160673 1.8018873 0.59594464 1.0186563 -0.360757 -0.25299662 -1.2376858 3.3989003 2.0046756 -1.095282 2.1292243 1.4024365 -2.6720407 -5.002694 2.2815385 -0.20467706 0.47959775 -3.7550108 -0.045113087 0.28278708 -1.0086318 0.4377299 -1.5964477 -4.866828 -0.41300634 0.7475092 1.4732614 -1.9305378 -0.23077872 -5.7945647 2.3094873 -1.063342 1.8216034 1.3204737 -1.5686494 -1.4681885 -2.4325023 6.5811825 1.8982637 -8.370046 -0.3486833 1.3016613 2.472883 2.0752735 0.17927389 1.9182724 3.1061602 1.6442611 -2.7770772 -4.650887 0.70059305 1.5796564
143 -0.40077218 0.476337 0.521697 -2.4827642 2.5168543 2.0809867 0.007539258 -0.9631774 1.6111535 -0.011524053 -1.7774405 0.92718524 -0.11990468 -1.3221166 -4.053216 -0.50967723 2.334798 2.7067316 0.3839905 -0.4178051 -1.1189376 1.9854352 -3.224948 2.4310215 -1.1453143 2.360222 1.4086914 3.7803755 -1.5906549 -0.07926789 5.9722614 -5.322862 -3.302881 1.4474128 -0.09830366 2.6988366 0.52734184 -0.46041095 -1.4867585 4.1764407 -3.2300248 6.214516 0.43415195 1.6413649 -0.5453697 -0.11456854 -0.0517775 0.6128323 0.011104963 -1.3756692 1.9911422 -1.3458562 -3.3845358 0.40472564 -2.8201983 -0.35681665 -2.3892338 3.132728 1.1951017 -2.7881749 -1.550578 1.0561857 2.1793683 -3.953008
324 1.0606701 1.9935459 0.66106683 -2.7470677 0.2882242 1.7240517 2.3606007 -1.6875811 -3.7970304 3.5604272 -1.5938665 4.895239 3.846406 2.4755716 2.4249606 0.70400035 -0.61018276 -2.4761808 -0.36989716 -3.568151 3.7874522 1.09062 -1.7551018 -3.7929382 -1.2207302 -0.8053221 3.3439012 -1.1181369 3.5263493 -4.971596 6.031792 1.3206898 -1.5577035 -1.8270439 -1.1990618 0.98624206 -1.8248247 -0.05923641 2.6161356 -1.2199851 -1.6398747 -2.5692704 1.3121362 0.746282 -0.8486818 -1.6890198 -0.12337688 -4.0669565 0.35011658 3.6018896 0.46898857 3.6923163 -0.15582754 1.7733915 1.6904674 2.8601644 3.8321106 1.2286192 3.8910751 4.4316278 -2.2161705 1.7674172 0.6556001 2.3785582
310 -1.268818 1.4215044 -1.0509857 -3.9111288 0.9029333 -2.2411478 1.6370748 1.0022596 0.6612486 1.0644914 -4.1888843 0.26381692 0.89837253 -3.1957428 3.909217 -4.9378433 0.92129046 3.9030938 -0.5429348 0.40526754 1.3415632 -1.9981003 2.1063707 -1.9453818 5.172465 1.5065663 -3.713419 4.0519667 -1.1070926 2.1821313 -1.9136589 -1.8304471 0.4197128 -0.8746419 2.173271 -1.8391111 -2.5385902 2.283688 1.5814011 -1.6496716 -2.428259 4.829334 -0.9667131 2.4973001 1.728826 -1.4197243 2.3313074 -1.0275918 -2.9750574 -0.66305184 1.80694 0.6756759 3.8849654 3.256753 1.136414 0.17218076 0.0173147 -1.7938988 -1.9699825 1.9217885 3.1671352 -1.8206534 0.026642831 -2.0273874
224 0.44176236 -1.7632781 -2.2513509 1.3835952 -4.737498 4.872625 2.0297992 0.7013547 0.054744106 -0.84155387 -1.5389974 -0.028161647 0.7732203 1.3995194 -2.046822 3.080109 0.70268846 -2.6760914 2.3309116 -0.382659 1.0116465 -0.74947023 0.92631507 0.3410456 -1.9466044 -2.6811123 -2.7267163 -2.510196 1.8100599 0.21786775 -3.3787682 2.1885777 -0.32192454 -0.36730808 1.7312688 0.17009103 0.12420362 -3.3288813 0.4234527 0.010515752 0.96305317 -1.6935967 2.889089 -1.7144301 2.7636092 3.9935868 0.3782323 -2.2194567 1.5654829 0.67974746 -2.0277698 -0.61009836 4.2500873 1.4143988 1.6338724 0.56921095 2.7680037 0.036200255 0.52944505 1.4126263 -1.5694584 0.015232728 -2.7579663 -3.4284773
17 -2.1679926 1.5010456 0.8705475 -0.7308356 1.728979 -3.2258859 0.7633842 0.14270501 -0.24625804 1.1604825 -0.58001655 1.6663787 0.32089084 -3.61657 2.859198 -0.50988835 0.23831746 5.049591 0.17440437 0.18001783 -0.3435508 -3.1733866 0.42900532 -1.036797 2.781048 2.9376013 0.40933365 2.546764 -3.7973564 2.374592 -2.0512097 0.2116976 0.064335376 0.44754198 -1.0269214 0.1219393 4.1094017 1.5259392 -1.8188702 -0.40946746 1.9700632 0.6839607 -3.7408216 0.13653749 0.021607783 -1.9827625 1.4940841 3.1266747 -0.80255336 -2.7090201 5.722858 -0.34849706 1.0564653 0.9472146 -0.8831204 -1.7101026 0.5246982 2.5604987 -1.9253119 0.54490715 0.8067881 0.55826056 0.9997093 -2.3537111
128 1.573242 0.6653679 1.9183891 -0.949447 1.0615914 -0.17693004 -0.9588145 -1.723819 -4.6369624 -1.2400614 0.63971305 0.50894356 -2.2210298 2.040839 0.5338736 0.6582859 -2.6115177 -0.9624171 3.2320893 1.2226003 3.3352058 1.2046404 -2.284971 -0.5469412 -3.4556158 -2.300916 -0.3466219 -0.96489215 1.1649655 0.25829569 0.07387419 1.4640894 -1.8866584 3.668504 -1.1209427 0.5445959 -1.1313944 -4.145848 -0.32899535 -2.063417 -2.1619325 -3.5413237 2.2359753 -1.4144942 -2.162011 -0.8975336 -2.2881346 0.59046984 -0.885107 0.8646244 -2.518156 1.8710768 -1.5655472 -0.60433805 -0.73749906 -0.06335941 2.9119792 -0.3075375 3.560749 0.009059587 1.7194551 -0.00069219834 -0.32563978 0.23263483
334 1.3964851 1.0010742 -2.7317064 -2.2545276 -3.9863837 -1.0714316 -0.55328786 0.6189175 -5.5275474 0.6427753 0.3443766 -3.627861 -1.8981373 -1.2736062 -2.1284788 3.609472 -0.9626983 0.031790167 -3.0313017 -3.2662485 -1.8924141 1.3889165 0.35001868 -1.0157299 0.013185207 -2.145026 -2.1700861 4.8927536 0.24596511 0.03325729 -0.5597364 5.918599 2.8148131 0.04286161 -3.5162199 -2.439867 -2.2237976 -1.2677983 -0.47938946 -1.0288947 0.9823751 -1.4242269 0.62271327 1.0160999 3.6249 0.8313328 -1.9540521 -0.9940481 0.025935763 2.0308573 -1.9515164 2.130276 0.22118966 -2.3507175 0.0764937 -0.5730166 -3.3105435 -0.3755208 1.2037718 -0.8489478 -4.7207947 1.660394 1.2102352 0.99987394
141 1.251669 -1.9859815 -0.43799847 0.24062386 -1.9590958 -0.6725825 -3.4545267 0.73283195 -0.025402818 -0.30000678 -0.7205142 -3.710617 1.1317457 1.5782664 0.8461524 1.6192418 0.5236672 -1.830341 -0.6082294 0.14475183 -1.2860059 -1.4637581 -0.84226286 -0.15402038 -1.8192923 -2.8099754 -4.216298 -3.8732333 1.5870737 0.43171442 1.7547238 1.8528953 -0.7875336 -1.9586192 -0.3780878 -2.4584582 4.832724 -3.9719129 1.6193404 1.1949956 2.5096967 -1.6935793 2.4951766 -0.5204452 -1.6898396 1.2630309 2.1976688 -2.4788725 -4.0698023 0.8306212 -1.416143 -1.3198625 -0.81990594 -0.03345408 2.7964385 -0.39676353 3.1034968 0.26833886 1.5434326 -0.07139644 0.8060951 4.075168 -2.214891 -1.3545834
28 -2.4740696 -0.5341666 -3.3594625 -1.9577324 0.9907906 -3.5466223 1.7677437 -0.746781 -0.7149352 1.5288621 -3.4122574 -0.069682546 2.0442033 -4.803639 3.1886556 -1.8213707 -0.1118597 1.4846854 0.36288875 1.1193571 -0.29884806 -0.6511025 0.22228163 -0.8248743 2.786224 1.8497071 0.42681834 2.3749948 -3.7666779 2.544479 -2.013079 1.1553695 -0.4681076 -0.87539333 -1.4450505 2.2097974 2.2414663 2.1143894 -0.18311326 -1.3462747 2.7251003 2.8357308 -2.1893678 -1.7636564 -0.25562128 -2.1380458 2.334607 2.6605396 -0.6248199 -2.626462 2.6220806 -2.2974765 1.9697679 1.0771872 0.3969277 -0.28536287 -0.37091705 0.2970715 -1.8231832 1.332938 3.1396205 -0.6973328 0.41266534 -2.782813
265 2.7432613 -2.0473266 0.7903024 -0.39894795 -1.4517603 0.32978237 2.6295793 -0.70025575 -0.21688588 1.6882675 -0.26668766 0.86899275 -1.5783153 -2.317388 -1.6709336 1.0464445 -0.9221079 -1.446487 1.986013 -0.2666097 -1.1816903 0.9686133 -5.0119452 -3.4380183 -1.4145993 0.019740177 -2.8578906 -0.773801 1.5276542 0.3848062 -0.078828186 -0.8729746 -4.1151466 -1.0476627 0.70221305 0.62144464 -0.7918538 -3.4239404 0.3761608 -3.0035496 -0.03422126 -3.8989573 2.3838022 1.4205172 -1.6387072 0.9778175 -1.9595951 -7.1029444 0.16602008 -0.23902239 -1.4835868 0.20301324 -2.4709148 -3.10715 -1.9864047 1.3263516 1.3914241 -0.84769815 1.8778136 0.46745315 1.2658972 -0.9375368 -1.2529877 1.5569353
80 0.8438346 -2.153684 -1.6994399 2.2683983 0.107500516 2.5775864 1.6499984 -0.35751447 2.4632561 -3.7856834 2.0611286 1.0800887 -1.7729605 3.9646072 1.5489094 1.4202936 0.5514682 -1.8351698 -1.7091496 1.6514872 -0.45043436 0.24677412 3.7092853 2.134057 -1.1910355 4.0262237 2.382704 -0.6690818 5.210357 -1.1360788 -1.63128 -4.4027367 4.221778 -2.8294494 -0.53120893 3.0508316 -4.34859 4.4436607 -0.4190906 -3.78785 1.3201491 0.89244926 0.6939039 3.7367258 -1.1129264 0.55968666 -0.25775474 3.8381164 0.41707996 -0.29307503 -2.987465 2.626483 -3.8014617 1.8413863 -2.7654972 -3.341567 3.3659656 -0.8408218 0.1278658 1.4631224 -0.09551843 -0.9549178 3.5760067 0.49919346
249 2.261751 -0.5609851 -1.7458022 2.435674 -1.6237347 2.132294 1.3213695 -0.35414687 1.4900182 -4.6255236 2.4367106 1.6281502 1.9329605 4.708198 3.5266085 0.67212635 -0.052965853 -0.6013345 -3.5200472 1.2673527 -1.6078963 0.1743042 0.16238797 1.7444289 -1.7451854 1.8999547 2.029832 -3.6921756 4.309812 -0.19701965 -0.6252909 -2.5701683 5.5186524 -0.54066473 -1.802506 1.8745047 -2.6005461 3.45996 0.14333643 -6.014323 -1.5465163 1.8644544 1.1794587 -1.9724748 3.337735 -0.008633254 -0.6205407 1.8090757 0.59414226 0.7966902 0.8046421 1.6483325 0.0025990868 -2.4956477 -0.69053143 -1.1571692 4.696667 -2.185867 -1.7054973 -0.37131983 0.33321798 -0.24163544 1.4066229 0.96317095
223 1.311554 -1.2399718 4.1705446 0.33344662 -2.9833853 1.341818 0.636991 0.5191242 -1.2569295 1.0392976 1.6881067 -0.4857658 -2.8073797 1.4848709 -1.092214 0.9360496 -0.83838934 -3.250108 0.72318166 -1.1791891 -0.6425019 -0.6246588 -1.0546596 -1.1747825 -1.9233972 -0.13314372 -3.574539 1.0693859 0.15558174 -0.83504903 -0.47658017 2.5426517 -0.8317637 2.0240443 0.28573543 -1.0370418 -0.12640269 -2.6083906 -0.042336322 -2.0489736 0.24770756 -2.2337704 1.7000537 -2.1288712 -0.46660134 -0.2639728 -1.1665752 -2.3798232 -2.9828832 -0.23450966 -0.05402462 -0.43797964 0.44178772 -1.9209865 -2.1575444 -0.91621053 1.1869845 -2.0752509 3.4298053 2.3459198 1.4112791 -0.9095553 0.20520326 1.784779
242 3.3027887 -2.7901263 -0.7285042 0.77009904 -1.2653532 -0.04171339 1.6764188 1.2554716 2.8600175 -5.143068 -0.1523378 -1.6371341 0.2357195 2.8866148 2.1344824 3.6314793 1.1179215 -1.1801625 -1.2923622 1.0479181 -1.80668 -1.7274046 2.6989622 1.9591467 -1.4313607 0.47251096 3.870434 -2.2897906 3.9605417 0.6186188 -0.6885758 -4.5607915 5.880956 1.7089447 -0.8764502 2.5078433 -0.21533428 5.2649302 1.6426955 -4.235056 -1.8122104 -1.0213826 3.2128925 1.8996929 0.8689682 0.6058899 -2.374306 3.4015737 -0.2752899 1.9957898 -1.2655671 0.981726 -0.86424905 -1.9958981 -2.5928116 -2.7314138 0.874538 -3.5504203 -0.20956475 -1.361886 -3.7984068 -0.87567204 2.9314692 1.9998082
185 1.8065858 1.8908032 0.2975957 1.5987962 0.2867203 1.5795342 0.28291857 2.8788798 -0.01941039 3.5014412 2.8557656 -0.13279493 0.6307591 3.8338947 -0.9097529 3.0826557 -3.975897 -3.1629663 1.7706375 -1.0400614 2.254425 1.3010802 -0.293661 -2.2918994 -1.8804364 -1.7767171 0.54438245 -1.1068137 0.9346415 -2.6814482 -0.010206977 -0.3064389 3.2079012 0.47319448 -3.7891374 -5.3230205 -3.0054886 -1.9449822 -1.7870859 1.8264481 1.978757 -1.4501766 0.52534056 -2.5150506 0.4642192 -1.8973768 -3.968991 -3.9318173 -0.936573 0.9585074 2.455301 1.0316602 -0.6595189 4.990852 3.3800488 -0.59195465 0.6574512 -3.2780144 -0.6761742 -1.6743286 -3.5822518 -1.6497796 -2.4133391 -0.6472994
62 0.14748801 -0.9444905 0.62135416 -0.1598389 -5.103303 1.962092 -0.6333023 -3.8064253 -1.863854 0.8886395 -0.453423 -0.8316212 -1.7182671 1.5186439 -2.8547046 4.191885 0.8725736 -1.1889756 0.06595526 -0.5265733 -0.8104114 0.52761835 1.1169662 -0.5553572 2.036572 -3.8596437 -2.57612 -3.268417 -1.629061 -1.6465168 1.4114959 -0.0532357 -2.561036 3.13545 1.1382158 -4.384435 -0.8732392 -0.9299707 0.1927717 -0.79205203 0.50320584 -2.573535 2.5577185 2.7116702 2.634353 2.0737407 1.1845235 -0.22833034 0.431915 2.1163216 -0.51345634 1.6866795 -0.2471613 -0.9614453 0.8451956 1.8375161 1.5447646 -2.805153 1.8113768 -1.057794 2.745722 4.1015325 0.76613945 -5.5878463
177 0.27531865 1.0874442 -0.8891527 -3.7063951 1.6524192 0.65809613 -0.5768139 -3.3264647 1.5453981 1.3928684 -2.618301 1.3548093 0.22834815 0.93978894 -1.9298154 -0.17915559 1.2294772 3.0321987 -0.34070092 -1.4026874 -1.8728617 2.3310585 -2.5748975 1.8542967 -1.5889543 4.1182556 -1.4063742 4.1633153 -2.3718464 -0.032299794 2.6306028 -4.520177 -0.86312646 2.7319763 -1.419883 3.7745311 1.3955007 -0.93931335 -1.477952 2.7040958 -2.7174852 4.641494 0.83644104 1.9994925 -0.6943132 1.7241507 -0.08472714 2.2419498 2.5541768 -2.9574683 1.1526824 -1.5535067 1.3302902 -1.2517209 0.31508785 -0.6570779 -1.1433318 1.8102535 1.8413755 -1.3565085 -1.7354681 -0.6320261 0.10528487 -1.0808051
158 2.6871305 -5.809704 -1.2011069 0.17186016 0.23867936 -0.046282623 -3.273204 3.1055863 -2.164883 0.31360793 0.72376174 -0.5175157 -0.5309646 -4.1145077 -0.7635224 2.10578 2.4514143 0.28918543 2.6626954 0.72738016 -4.279445 4.1267314 2.9230425 -0.852382 -2.34473 -2.455407 3.992575 -1.9877723 0.89547616 -5.667592 -0.2669976 3.439082 1.6167984 -2.0067515 1.960972 1.2238276 -5.257433 0.48406604 0.12252987 -2.1827571 1.5482831 1.7582225 4.3479805 -3.9417324 -0.39895278 2.2419674 -0.40092787 -3.4194508 -1.3109671 3.2616787 0.17730917 4.997438 1.2141479 0.31737784 1.0263548 1.0779004 0.64225817 -2.1420827 -1.6847179 -0.58253 -1.5170401 0.16837186 -3.0731034 1.8571639
91 0.52834123 2.9458995 0.05626555 2.4857566 2.8246408 0.342901 1.9390266 -3.5060956 3.2275712 0.8101386 -0.14644182 -0.5471698 -1.3355367 3.1458402 -0.3872949 -3.9906895 2.5705657 1.2151283 1.2586368 -0.93222845 -0.097572334 -1.6538652 -1.0170443 2.2651358 -1.4377766 4.132489 0.5396497 2.8991644 -2.9339962 -0.15476122 -3.1903389 -0.17586057 -1.3861846 -3.1729395 0.7303154 3.5320609 0.0018480386 0.41385853 1.3516492 0.6899335 0.72371024 3.9032662 -1.1486396 -1.574021 -0.46777737 0.8240816 1.3097981 0.2915835 -0.44446772 -0.037562203 0.61643314 0.9507145 -0.9034841 0.65328085 -0.5619067 0.19478515 -2.1846988 -1.7467111 0.5401703 0.5436487 -0.012540615 3.6755466 -1.4372402 0.15454666
259 1.709739 -0.109829344 0.09030961 1.9158621 3.7071877 1.1843752 0.9439286 -3.2837303 3.275328 0.7845485 -1.4616226 -1.2067677 -0.1498326 2.3348212 -1.3340168 -3.0535338 2.2109697 0.8601735 0.17288212 1.2100319 1.2234213 -0.749973 -0.9049426 2.52292 -1.8813312 3.8929174 0.578252 2.3259916 -3.6934903 1.1757128 -1.9101483 0.057568766 -1.9255457 -3.1639612 0.56538516 2.9450846 -1.9159391 1.1754534 0.29839423 -0.33244073 0.491528 2.6424017 -1.2895533 -2.3067393 -0.1502001 2.2771838 1.4547623 1.5203031 1.6565144 -0.77460635 2.3703938 0.67127067 0.72301584 2.0973973 -1.398442 -0.2836304 -4.1926246 -2.1419995 1.1562095 0.52951694 1.77639 3.7431664 0.06869581 0.60404825
8 0.4150035 1.5677555 -0.24913892 2.5885794 2.5492492 0.39269775 1.861632 -3.2618663 1.7707081 0.403984 -0.37077644 -0.8816501 -2.33759 1.6341928 -0.8245754 -3.792938 2.247921 0.5315007 -0.18066505 0.35151523 1.382272 -1.2875862 -0.016856128 2.809207 -1.1234777 4.2678094 0.82749593 2.8650732 -4.4472895 -0.6473356 -1.8107111 -1.1015186 -0.8872844 -3.1900265 0.31036183 2.4577801 -1.2903713 0.57246614 0.7390817 0.0495845 2.2173026 3.2692556 0.22602339 -1.2234728 -1.1870338 2.3978486 2.7460403 -0.67853177 1.185135 -0.5125963 3.317267 0.90699023 0.19803764 1.2222327 -1.3136512 -0.43656453 -2.7897644 -1.392301 1.2592484 -0.035088714 0.743938 2.3699753 -0.42979357 0.4774645
89 0.24389732 2.7766197 4.0513124 -0.40247583 1.5887899 -0.39015645 0.66985977 -1.7878848 2.4196508 1.6581658 -1.1032834 -2.3938322 -1.2497348 -2.0234673 0.6261847 -2.9219813 1.9908876 7.5292525 3.3976421 1.5958388 -1.2888569 -2.451745 -0.27052173 0.7310953 0.37231967 2.8636942 0.262362 4.9000874 2.8003778 2.0198646 2.911261 -1.2406138 2.4473155 -0.3213226 -3.4877148 -0.20282984 1.8541648 1.9440973 -3.3031702 1.1069036 -2.1981294 -0.026677625 -3.0482326 -1.7619383 -1.5549129 0.48444727 0.63562655 3.5501602 2.0841486 1.5214603 2.6818292 -0.48291245 0.067465656 1.1841602 0.61776423 0.43733138 1.6104791 2.0917983 -2.3644774 -1.6948494 3.640827 -1.7304316 -1.7863907 -1.9547713
161 2.1311622 -1.1866516 -1.4225173 0.70340735 -4.09333 -0.961346 -3.0586843 1.0561262 -2.248886 1.5636326 0.81716406 -1.9579078 -1.6744543 0.8200551 0.49061915 0.6537995 1.2780662 -1.8544085 0.15934937 -3.2948434 1.2335228 -1.8210453 -2.5677986 0.69036406 -0.72080165 -3.4634545 0.081477955 0.0982526 4.5969696 -2.9321957 4.5122495 3.755109 -0.504315 0.42131087 0.34748688 2.6071413 -1.6232892 -5.203501 2.794027 -1.32507 0.8726669 -2.3214178 2.398547 0.24951965 -1.4541223 -0.9758187 -0.19521633 1.7302186 -4.4169173 -2.3235576 -0.40257633 -3.155043 0.19820479 0.113838054 -0.21476465 -0.8854138 0.07934731 1.7059032 -1.0914083 0.27934802 -1.9077779 0.67006844 -3.5819387 0.079193816
232 1.785559 0.6818473 -0.48451072 -0.4331148 0.88355863 1.2926927 -0.69618374 4.4039364 1.0354022 -1.2217993 -1.0592903 -0.9130913 0.62805617 0.15081866 -3.0067117 3.1200645 0.3013023 -4.4608097 0.07639295 -1.1419485 0.34099123 -0.8498484 1.0056272 -1.9282378 -1.37822 -1.6607317 -0.8064589 -3.124559 1.048223 -0.57829946 -0.16198619 0.5762383 -1.1930221 -0.9616517 -0.48608774 -3.6384246 4.3092275 -2.7915323 0.011189004 1.6596043 1.5783745 -3.5130196 4.169996 2.3210955 -1.1547227 1.9501394 0.70492613 -0.35014406 -0.9511852 2.1805708 -0.39371258 1.2163494 -0.3260336 -3.103422 -1.2668674 1.2030989 1.5178349 0.14913169 1.2245964 -2.3508306 0.24775003 3.444786 -0.16635887 0.26772815
31 3.8921862 -0.084265634 -5.1118283 -1.2576495 1.0366731 0.68713504 1.5834748 -0.45200118 1.8573825 -1.0285947 0.42811275 0.9443506 -3.7209692 -2.43201 -1.1654598 -1.8414901 5.8273854 -4.4764657 -2.6207442 1.650776 -1.8716329 1.3374891 -0.58369124 -5.0840178 -0.3718063 -0.83815646 0.12859753 -2.3046556 -1.987695 -3.6026351 1.9800602 5.70445 -1.467309 -0.6955307 3.4199626 -0.6882604 -0.802475 -5.143054 1.222906 4.2380214 3.6416025 -0.85209566 2.8910112 -1.9258624 5.4155135 -2.0522568 -1.1581047 1.9109898 1.1430833 1.4377385 -0.41787022 0.95552224 0.3472141 -0.7279679 3.0546105 -0.17965989 -0.7046153 1.7774163 2.022643 -0.6032188 -2.3555593 -2.2164195 -0.499049 3.0328987
297 -0.37488878 -2.7712245 -0.86634547 1.0483989 -1.6926 0.37629503 1.595147 -0.33048183 -0.27588826 -1.9314504 1.2489783 -1.1371541 -0.6216973 -0.10791532 -2.240596 1.7527295 -1.9029489 -1.9173256 0.7401579 1.634068 -0.40829805 -1.7692146 -3.179828 -1.561888 -0.97963923 -3.798111 -0.54234886 -4.025921 0.56915396 -2.2129142 1.3423322 3.5406725 -0.5393185 2.4176538 -1.8321882 -3.6622057 1.0134048 -0.5908457 0.55563825 1.6270477 0.28147626 -2.6514611 -1.3548197 -2.1784616 0.28784665 1.7852106 -0.45573652 -0.13459484 -1.3131765 -1.8001485 -1.4769953 0.87623787 3.0110881 1.6870052 -0.17892237 2.839456 -1.2247077 0.7497895 1.9587029 1.1490853 -1.3981408 0.13166538 0.78079295 -0.91323805
319 -0.3414172 3.607844 1.8722674 -0.14666219 1.8853179 -0.65996325 0.7723763 -0.771192 3.4076989 0.6244081 -0.96391845 -3.899288 -0.002036681 -0.92080945 -0.44406995 -3.6989093 3.2563672 7.785608 3.033223 1.6352569 -2.1775544 -2.1457417 -1.4455633 0.768505 1.599389 3.9234786 -1.2595465 4.031586 2.5738 2.8077614 3.0974598 -0.32372877 2.7506728 -0.73460704 -2.793184 0.12776744 1.3259382 1.2510188 -0.22976874 1.7254114 -2.0570989 -0.2278403 -3.4655576 -1.5117892 0.17942087 -0.06848762 0.923698 1.9829359 1.3603837 2.1511765 4.240733 -0.5044956 -0.032382324 1.0374329 1.5277983 0.006311393 2.4387407 3.4881682 -2.4310753 -1.8433049 2.878026 -1.6690533 -0.49248618 0.2573896
204 -0.7977478 -1.0758271 -1.2270344 4.3854175 -0.07547016 2.4524047 -1.4674444 -3.281074 2.5414824 -3.8922598 2.1885915 1.0596379 2.5550263 3.4241965 0.840936 1.4272739 1.3036511 0.6029267 -3.364738 -0.293029 -1.4605561 0.7932413 -0.33002216 -1.062617 -0.6092109 -1.6528331 3.2067223 -3.5005279 1.58054 -1.7356718 2.4266088 -3.7167115 2.6378648 0.8573909 2.3355777 1.6391281 -1.3070958 4.347157 0.2072763 -7.842551 0.033200856 3.0417016 2.4419978 2.427318 0.006491323 0.32519954 -0.38331094 -0.45415166 -1.9642347 0.77378976 -1.2434227 2.0683374 0.25968736 -0.5540245 -2.1055431 -4.8266926 2.0327778 -2.8495862 -2.4632483 -0.78468615 -1.8977153 0.63533175 3.4119718 2.942252
308 -0.6249168 1.8106045 0.17101236 -0.49676883 -0.3353546 2.8944721 0.006894587 0.329253 -0.6692791 0.52198213 2.5524232 0.35894257 -1.758228 -1.3416635 -3.396148 -0.7603868 -1.4311538 2.3793037 -4.9645658 0.23385163 0.76095563 2.7363455 1.2041364 1.7560494 -1.724855 -3.7489235 1.7840198 -1.2810308 -0.8826604 -3.411345 4.467724 1.9403728 -0.47364014 1.048315 0.9870752 -2.725527 -0.40508255 -1.8271133 4.2408204 -3.3039937 1.7206473 -3.0463028 6.156324 -2.3542051 -0.7350893 -2.0051541 -2.507027 1.7836906 -1.7719555 2.4195805 1.2151096 -0.12930825 -0.08496903 0.8901274 -0.40473926 0.2192978 1.9147197 2.038837 4.927479 4.183427 -2.9247766 -1.376734 -2.0451093 1.2985415
230 -2.836357 1.6700581 0.5020431 -4.8860807 4.616133 0.17197056 0.06281576 2.6188824 3.3801823 5.441938 1.102232 -1.9352748 -1.5386678 -1.4947633 2.4893434 -2.5845118 -1.2892431 4.222971 0.17000414 -2.5135927 -0.19293366 -3.8460226 -2.624852 -0.7246371 -0.060217302 4.3067183 3.9756577 3.8561172 -4.082117 0.5922283 -4.381745 -2.1109743 -3.0114193 5.24899 -0.18121058 -1.3338592 2.3150978 3.511349 -0.057879675 5.0158067 1.3633301 4.2877064 0.18455169 -0.33659318 4.0553756 -5.854767 3.846645 -0.06336351 2.8163333 0.18269655 0.69042116 0.5382734 2.094537 0.19791892 -5.0827045 0.4418346 -2.6152341 -0.8518081 -0.39865437 0.10435177 5.2667255 1.3975757 -4.7718997 -0.2759177
94 -0.11957825 -2.966679 -0.42998442 2.4651704 -0.5364748 2.0153873 -0.23686211 0.22147462 1.3812635 -4.0990715 0.8470137 -0.72429055 -0.82921475 2.2911603 1.7769309 0.41207185 1.1467154 -5.383407 -1.2199994 0.41919422 -0.71190965 0.43927252 1.654985 -0.7930509 -1.2377071 4.0777016 1.3075728 -1.7773755 2.2584841 -0.32723415 0.6845631 -5.35893 4.8641386 -1.0535432 -2.0718052 1.5897163 -1.592538 4.7246814 -0.366452 -3.9156454 1.9218149 2.4434385 0.21680215 0.25717357 1.6370443 1.4667398 -0.3514252 3.9934137 -1.1044339 2.1158373 -1.4049844 1.0958099 -1.4507447 0.3311175 -0.6814119 -2.1436162 4.4183936 -0.8613087 -3.9274778 -0.017855583 1.3405386 -1.031455 2.8242567 2.0605948
72 2.5961604 0.5426038 0.31238467 1.4993464 -1.7699817 -0.41670576 -0.23917527 2.828479 -1.6172355 -0.8892935 -0.75140953 -3.6286838 2.2829268 -2.4734511 -4.1469035 2.075396 -2.1477985 -2.2774427 -0.29327595 -1.9990411 -0.7731002 -0.8439436 2.497465 0.12415423 1.6467227 -0.35046917 1.4235514 1.9768876 2.0970228 -0.20429927 1.8674319 3.2824297 -1.8041463 0.12781003 -1.818833 -0.9704936 3.9964683 -2.2616687 -0.93971545 -1.4618175 1.062148 -0.76371294 5.425655 0.40769026 -1.400009 2.467192 -1.6315916 -4.742023 2.2924955 0.65671647 -2.6588144 0.4049235 1.2683885 0.3048049 0.97334576 1.2147998 1.9606481 -1.7469373 1.5575398 -2.2606528 -1.9629875 -0.95658284 1.5478581 2.3690836
48 -2.5980966 -4.52916 0.38444585 3.5258977 -3.619706 4.420148 -1.2883973 -1.3991877 2.250631 -5.3561463 -0.101238206 2.7352014 -1.3041034 3.722026 2.120217 0.36840796 -0.59685564 -3.1080782 1.6208885 -2.5140061 2.6174242 -1.0199172 2.9103868 -4.588437 -0.22746132 -3.2407095 0.40755168 -4.4039106 2.0725763 -0.61514205 -1.7207673 -1.3576531 3.5341535 2.1364315 -3.9490595 3.0812485 1.0035235 4.826673 2.2573528 -5.820801 -3.5677667 -0.8007456 4.9759407 3.5146768 -3.895692 1.8831536 -3.1744902 2.9723883 2.3613226 0.09297352 -0.34149855 2.3554425 -1.4579219 -2.7155752 1.3943347 -0.8007714 -2.5721774 -1.3391305 -3.2560966 -0.24193674 1.330398 -1.3813505 3.1846619 -0.56279916
140 -3.3330107 3.081355 -0.56804615 0.88446695 1.3626126 -1.4554455 0.7836984 2.321248 -1.2494332 1.9705359 -1.0422894 1.6343528 1.510257 -0.7291641 1.1970123 -2.9063125 1.8853935 2.0627708 -0.55371594 1.3290443 0.29701322 -2.4680002 1.7647661 0.32280135 5.0942297 1.0055385 -1.0422224 3.8041255 -3.7595775 3.0073602 -3.4769578 0.38413626 -1.9156606 0.28138924 0.73159057 -0.315165 0.34770864 2.99104 0.044438995 0.86188763 -0.9249613 2.0176651 -2.490232 2.5883355 1.9268585 -3.1373913 0.93466526 1.9432155 -0.5933791 -1.0073445 4.0623775 -0.36404684 0.68207055 1.0440464 -2.501655 -0.95618683 0.10986396 1.5449716 -1.4628922 -0.23249401 1.2994391 -0.933197 0.05773921 -1.9535109
320 0.22596815 1.6561337 -3.6504784 -0.72332066 -0.39370927 4.470833 -2.0099652 -1.1380092 1.8170298 -3.9438 -0.9331159 -1.1420175 1.0419978 1.9852453 -2.730083 -2.7671263 -1.0493895 -1.0675396 -3.7894366 -1.8666667 -1.1691792 -0.5574646 1.3954916 2.3201632 -0.40019014 3.3544657 4.38825 -3.4009528 4.3326316 -0.3206672 0.28598678 -2.2484157 3.5500226 -2.3135605 3.8672302 -2.4154775 2.3266351 5.000528 -0.2968191 -3.7285218 4.722133 2.0155563 -6.4764223 0.011136557 -5.2833614 0.0028159413 -3.6206803 0.022334673 1.7214592 -3.2252061 -5.0755706 3.5953882 -4.6325483 -2.007872 0.5321026 -1.6223395 1.074189 -4.4718275 -0.06841653 0.3242882 0.21736774 -3.0165653 3.320204 -0.6020054
92 -0.13523294 -2.7619867 -0.14232539 3.5144553 -2.0693133 2.0755951 1.1625125 0.8119357 0.7738049 -3.942803 1.9301554 2.3346593 1.3239201 4.4366884 0.8848193 -1.0206203 2.01866 0.024403375 -1.5175245 0.5107863 -1.4035518 -0.1796927 0.6494954 -0.33944672 -1.6563118 0.93473065 4.4337997 -2.8934004 1.9755021 1.4316965 -1.1806127 -5.177696 3.841303 -1.0191894 -2.0423431 1.687656 -1.0697418 4.555548 -0.14794977 -5.4547215 0.06532659 2.3429523 0.7973751 0.43872982 1.1660895 0.96742386 -0.5814606 2.8853643 0.47957662 -0.74767137 -1.1693864 0.64082086 -1.63623 -2.9111373 -1.4421335 -1.5526283 1.521297 -1.6601541 -3.3088398 -1.293361 -1.2544569 -1.5320772 1.3113807 1.4419748
136 3.0038106 2.2667425 -3.4453413 1.473316 -0.4701431 2.2015724 -3.9627266 0.37100926 -2.1035206 1.9081796 4.7733145 -0.9605065 -1.2298467 -0.07818583 -0.90413386 1.2396079 0.12486447 -1.4560437 -4.609429 0.23295929 2.3013453 -4.929473 0.052021887 3.0138052 -3.2599242 -0.88336384 0.72781265 -1.6987019 -2.0455048 -1.8893111 -3.78661 2.3481553 1.7129723 2.411234 -1.0551746 -0.14477517 -6.3079033 -5.1573415 2.6915526 -2.8289962 2.178126 -6.4380474 -1.6740471 2.007744 0.09100921 -0.9129026 0.7181719 1.6946278 -1.2661556 -2.6644976 0.24519111 -1.5250335 3.4618466 -1.135969 0.19982693 3.8795002 1.8876253 1.906891 0.8781385 -1.4110754 -2.6118207 -2.428852 -2.1910248 2.5952246
278 -0.8682348 -0.27044404 -1.6579435 -4.096971 2.6681783 1.0935622 1.4790736 -3.6599715 2.0068672 1.559349 -3.6257722 -1.3766581 0.73985326 -0.47574973 -1.3127288 1.1905986 3.1707053 2.880708 1.4172802 -2.7972102 -1.2833595 2.9482417 -3.4836476 0.9709009 -1.4817779 3.369189 0.050697345 2.278568 -1.5108975 1.1589735 1.821531 -5.025893 0.058126636 2.0738032 -1.8661803 2.5229042 0.8704758 -2.6889372 -1.4234396 3.1301978 -2.2333806 3.9538515 -1.4081846 1.5242653 -0.4176843 -1.1739129 -0.24642232 0.7351532 1.192888 -2.861388 1.0545908 -1.7803075 1.3091471 -0.9024346 0.78269356 -0.82792497 -1.1549731 1.3779203 1.6272492 -2.527651 -1.7016127 -0.36412203 1.5453663 -1.3461865
225 0.2775288 0.9397425 -1.6211038 -3.4783854 1.8992318 -0.47987747 -0.5996689 -3.30116 1.9993383 1.5974082 -1.6826122 0.72233576 1.3174226 -0.06103503 -2.4207642 -0.5542229 2.5100484 0.9115711 1.9667362 0.27562478 -2.0663576 0.7003529 -1.5237683 1.0221043 -0.8756774 4.6371293 -0.43969434 1.9572073 -3.028807 0.869842 2.985651 -6.5062704 1.3432839 3.5805616 -1.9319118 1.5478352 1.6987745 -0.36908108 0.2163185 4.8403177 -2.2883327 3.0076394 0.081443064 0.1744378 -0.80015117 2.7855952 1.1889572 1.3560413 -0.3128824 -1.9204009 0.43551397 -1.08183 0.8306863 -0.9754723 2.0562074 0.77174747 -2.1355133 1.1917007 1.3514861 -2.5921829 -1.1178323 -0.32375756 0.74741477 -1.5608203
238 0.47119865 -0.16362292 3.1694589 0.4441209 -1.269415 -3.662843 0.73479867 0.06105231 -0.20962973 -1.5776474 2.8011672 -2.1386695 -3.5270913 0.67548597 -0.40808064 0.6802944 -1.8922269 -2.1203308 -0.30175623 -3.1988542 0.118868835 0.10809641 -2.987105 1.1543573 -1.3789068 0.7324507 -2.4113173 -2.0144777 0.4353605 -0.18793473 0.32513192 3.1165266 -2.2780259 2.4949918 1.0249724 3.2381234 -0.32769108 -2.7857058 -1.2883184 1.5032344 -1.4669054 -1.6415578 0.8638451 -3.2710423 -2.9960532 2.3853621 -0.32822952 -4.493464 -3.3242059 3.2270484 0.5230012 -0.6021482 1.1824167 -5.5716796 -1.0786256 1.558177 -0.40723592 0.12264465 0.36001652 2.1821012 0.49959755 -2.4261873 3.1491346 -2.0547667
299 -1.195753 -4.3940997 -0.23123877 3.1338713 -1.4472473 2.697368 0.46404836 -1.5964592 -0.06547704 -2.734332 -0.28571507 -1.8068233 1.9266573 2.980118 1.4491106 -1.5144796 1.6983465 -1.3484689 -1.4433479 -1.3964996 -0.7746461 -0.7654934 0.80685896 -1.4355836 -1.7136405 1.2109387 3.9195852 -3.406659 4.0005126 0.6034642 -2.9707122 -5.09728 5.3126636 -1.2463448 -0.58351374 -0.41300672 -1.9535321 5.182816 -2.6250336 -1.6490773 2.2458143 2.8610046 -0.016813785 1.2248595 -1.0279504 0.21273246 -1.4129707 4.161731 -1.1275868 -0.086799905 0.19213536 2.4644852 -1.9320518 -3.6039495 -0.6243849 -3.2455614 3.8956113 0.50773764 -0.6847398 0.17941797 -0.72002685 -2.2059565 2.8610773 5.1155777
302 1.181926 -1.6706696 -0.907613 2.3950422 -0.9171951 1.4022536 1.6129186 0.6560014 0.83454645 -3.8065667 2.4993846 0.5858388 0.7910563 4.889179 1.1890502 0.95555055 0.50295657 -1.4140784 -1.9236244 1.4432286 -1.8006655 1.1514027 0.25350904 1.532542 -1.0877705 3.3368292 2.923487 -2.0597556 3.0019317 0.76486343 -2.8603647 -5.240709 5.1742916 -1.590271 0.13441604 0.4936217 -2.8572652 5.1795616 0.90541464 -4.68497 1.4267182 1.1525395 1.2801183 1.1807806 0.24088596 0.4803598 -0.7270115 1.3331796 -1.3035358 1.3616046 0.23841682 1.5819755 -3.8325543 -0.665431 -1.8849758 -0.88722485 2.7050874 0.12874597 -2.1993344 0.11195521 -0.626775 0.91458744 2.3803906 0.9492219
180 0.24596502 -2.6152887 -1.7017574 4.129324 -0.99988365 0.12340326 0.32136172 -0.9572305 1.9394901 -4.409635 0.9028955 -0.5533645 3.042132 3.6093574 -0.6469156 1.5815074 3.0678353 -0.89822733 -2.1251347 -0.7311755 -4.3136387 2.6440053 1.558272 0.6732154 -1.2340143 0.25425646 4.3082986 -1.4881798 1.7550566 0.22413763 -1.9165517 -3.6197295 4.452649 0.9399522 1.7886056 2.4380667 -2.1575212 4.4486504 -1.4666914 -3.8114426 0.46855006 1.7467054 -1.5670006 -0.40979147 1.0671929 -1.4645576 1.2867097 0.89318764 -1.5333645 -0.026931606 0.14111325 2.314969 -2.717466 -1.3360536 -2.0752375 -0.4429462 2.868261 -2.0951164 -3.9215693 -0.13849673 -0.3127441 -0.5468023 3.615114 3.6848555
88 -4.542942 -0.781401 0.37753448 2.2560492 -4.152042 1.1834977 -2.6938355 -3.7607243 -0.9029219 -2.20585 3.0046272 -1.2994152 0.31387794 -0.3877615 1.0306873 -6.2757325 3.0308878 -5.790887 -2.7018666 -3.913596 -1.9507219 -2.0568728 1.1339884 -0.5494057 -1.1724653 -4.145446 3.1022966 -7.8695855 -0.025040966 3.635459 0.09769261 0.3489488 6.277411 1.3053874 0.33483815 -3.90238 -4.6071353 -0.09531948 -6.193243 0.8848179 -0.4232068 1.40923 3.331403 -0.12770239 -4.9913116 0.08465116 -0.7055309 0.11036274 0.9535315 1.6107334 2.6693213 0.9123025 -3.0604231 -2.6073549 -4.7920575 -0.20238112 1.1878864 0.6751119 -4.4986677 0.36260328 0.4114301 1.6773596 4.1488056 -1.2015346
231 -2.646917 0.4615795 2.457544 -1.9244264 -1.2886146 0.3658077 -2.4504542 3.3431935 -1.2458138 -0.5519254 5.154434 -0.44048342 1.8517965 -1.4004854 -1.3189492 1.4601665 -0.2920148 -2.1979682 -1.965975 0.92374283 1.9770943 -1.6372154 -1.224895 0.089922145 0.67451525 -0.003579893 -2.3455684 -1.2169578 1.6979682 -0.04104899 1.5106214 1.453575 -0.4796157 -0.40884057 3.3839288 3.4982598 -0.17477706 -3.2359936 -3.0403178 2.6748614 -0.40108058 0.25361803 4.8075876 -2.6574361 -5.67472 0.925517 -2.3276665 -2.2067697 1.971588 3.958227 -2.17255 1.5454614 5.0033226 0.74354374 0.07167805 0.95062834 5.805848 0.68127227 -2.0674126 0.7824406 -1.7255343 3.1874995 2.871799 0.051133927
4 0.64221656 -1.4722322 0.4147634 -3.2547176 0.5001405 1.7005311 -0.58529377 -0.7017431 0.7593073 0.65661776 1.8486265 1.3805356 0.2688601 -1.7649199 2.6533768 -0.025999151 -0.31665006 2.2865372 -1.0002481 2.017558 1.2881414 2.3880255 0.45188197 -0.25302944 -0.65551883 -0.36445743 0.5040926 0.06965988 -0.036574014 -0.8357836 0.88486856 -0.7984479 -1.0926856 0.037052177 0.12879896 -1.467887 -0.025074916 0.04386071 1.1696463 -1.0059013 0.79992414 0.07814312 0.22381759 0.72393036 0.3216871 0.87070775 1.0872834 -0.54015523 -0.10220842 1.173415 1.3981544 -1.390153 -1.4380103 0.62560326 -0.41444534 0.1323526 0.26367328 -0.32488906 -0.2445029 1.0817388 -0.5085212 -1.1596774 0.5044191 -0.14172186
192 -0.8274299 3.539245 1.171906 -3.7444732 5.9484086 -1.4609665 1.9226521 2.8930233 -0.4771649 0.5100761 -3.2176232 -1.1060977 4.6490097 -2.0407681 -0.5260857 -1.2244259 -0.6072845 1.757368 -1.8662218 4.2866025 2.733603 -4.4394183 1.9990119 -2.927037 3.653359 -0.038069844 -3.5393538 2.1844723 -2.4917946 6.314549 -3.0438514 -1.4296057 -1.2336544 0.22872494 -5.616979 1.5618606 0.164605 2.1675704 -4.631485 -2.8720422 0.2628649 4.9532757 -5.269162 -1.036477 0.8814387 0.20757848 3.1836565 1.9861206 3.8631182 1.2516001 4.464805 -1.9167815 -1.533101 -0.6094595 -1.4325973 -1.2354717 -2.2455575 1.7832346 1.6458354 1.4047319 1.5582168 -1.2641927 -0.81420875 -0.09399511
181 2.0819068 -1.4151677 0.3725834 -2.33466 -0.5301166 2.4336889 -1.1295633 -0.5928569 0.5597979 1.8879926 2.1410735 0.9705839 2.2594118 -1.6157277 2.5017812 -0.67613506 0.38798025 0.561532 -0.31301892 1.4865246 1.161884 0.44381636 -0.12529367 -0.5042898 -0.9068438 0.093073525 1.7132949 0.25053602 -0.47963434 0.40732577 0.40518948 -0.9819334 -0.3085357 -0.8368499 -0.3863623 -2.6793725 0.10709061 0.45302036 0.8897195 0.060177233 0.27339438 -1.4215683 -0.93647504 1.7681406 -0.66188633 0.47319037 -0.28685525 -0.21892342 -1.6682347 0.46858603 0.77994466 -1.2079339 -1.1312695 -0.43866402 -0.07316796 -0.05540536 0.10436454 0.0561402 -0.5092384 0.07743222 0.28768682 -2.0440018 0.2599857 0.1091759
275 0.5011988 -1.8313298 -1.5777589 -2.9363823 -1.2833639 1.8355163 0.60394675 0.1416671 -0.4923966 0.71680397 2.0276084 1.4775971 0.7117678 -0.6658739 0.61729926 -0.48107174 0.20568468 1.8151352 -1.0049859 1.319275 1.5973597 -0.040406454 0.5230625 -0.46426252 -1.4867095 -0.7274629 0.3733382 0.32560393 -0.17043981 -0.46400458 0.590279 -0.3467698 -0.3435254 0.34471795 0.3148472 -2.0666897 0.5550377 -0.038531955 0.34073836 0.0048998026 0.90295845 -1.2153957 0.43346673 1.1859653 -0.5855005 1.6854861 0.6295321 -0.017106337 -0.450232 1.4195324 2.3952224 -2.1381855 -1.5155929 0.5317879 0.7143044 -0.646767 0.30039448 -0.019486997 -1.9618644 0.6264863 -0.24404293 -2.6331043 0.045968965 -0.3802426
7 3.8313305 -4.03468 -3.6036017 -4.309955 4.9388885 4.3716903 -2.7568185 -1.6467406 1.2320398 5.3166122 4.310589 2.0602658 1.6892745 1.8717669 0.2624908 3.5750654 2.0324209 -1.7297646 -1.7119422 -0.4076981 -2.2284877 -2.1615531 2.7918675 0.64427054 -1.9882331 -2.700072 2.1403172 -2.6542382 2.8790631 -3.144106 -0.045740034 3.487058 1.3525324 -1.9108256 -2.3758867 -1.4706703 -0.06987125 -0.9824904 1.610937 -2.7695618 -0.41347775 -1.5812672 1.410156 -0.585252 0.8819786 -3.0371952 -0.8608739 -0.96026284 -3.17638 3.6834815 1.3279958 -5.1558833 0.3135783 1.0484074 4.017892 2.8791063 1.9259336 2.069379 3.2760787 4.9410367 -4.884189 -4.1525106 -0.467387 -0.3197892
2 0.32194626 2.1699712 -0.5856822 -0.39147508 1.255345 -2.631206 1.9396158 2.3912904 -0.9453634 -2.246476 -2.9942536 0.08489441 2.5670211 -1.6316115 3.1264515 -3.552286 1.566461 2.449668 0.6723448 3.6747344 -0.7576786 -2.2647135 0.7704266 0.46086824 2.9955263 0.22312866 0.5910383 2.6521385 -2.0105295 1.6843376 -2.8317847 1.1954457 -2.5019662 2.3591518 -0.9515353 1.1443768 2.9672961 1.5040473 0.5252696 -0.35108784 -0.26134893 2.63678 0.18656388 -3.107008 0.53659123 -2.0073783 2.4730248 1.9488192 0.81294125 -2.632292 0.9167193 -3.9794388 0.87865096 0.2231874 -1.6574105 -1.0317914 -1.615728 1.3946785 -2.028822 2.4051523 1.8165677 -1.1682404 1.230512 -2.3069472
248 0.23501745 -0.03076412 -0.6469255 -1.2738938 -0.44004136 -0.19423935 -0.87579256 -2.2208498 -1.0077097 -3.862325 1.4456089 0.17766832 0.71316373 1.4115344 0.061617244 0.11988677 0.7838937 -3.2833223 -2.94461 -0.6523761 -3.6047945 2.9494557 -1.9130924 -5.047316 -1.75648 0.9250957 -3.763329 -2.4949265 0.69891053 1.1166213 -0.072682574 2.1525028 3.4831643 0.36966556 -0.009715705 -3.517222 2.804053 1.897292 -0.22716844 -2.132445 -2.8396986 -6.741047 -0.5085778 -1.4132401 -1.2077298 4.5461555 2.1842847 -1.7744122 -4.418201 3.4620118 -2.518442 -3.113034 -0.1581438 -1.84396 0.46884313 0.28356153 0.4914134 -0.9403467 1.2563069 -0.84892225 -3.2364273 1.1141623 -3.7325068 0.5835535
303 -0.7254591 -2.1518703 -0.2805086 -1.5660671 -2.7546544 -2.147472 0.13349538 1.0508897 -1.1509396 0.4807205 -0.66566455 -0.34270105 -2.0976217 0.37425447 0.25460595 2.689847 2.013975 -0.422992 3.9737065 2.2040882 2.5052369 -0.9591043 4.984577 2.1222794 0.08369905 -1.819414 -1.2582699 -5.3478036 1.0290093 -0.115478784 0.75807047 3.383462 6.7775664 1.1300949 1.3156395 2.5175803 -1.2037251 -2.8472304 1.6460567 1.1151295 -2.945244 -3.9916203 1.4263581 0.035088867 -0.7551511 -0.8339167 0.19818784 -1.235274 2.7018576 0.15344672 -2.0780747 0.06594934 0.93943775 2.6529722 -1.7026224 1.799084 -0.3814481 -4.070211 3.4271872 -1.1473155 -1.5876383 1.7766759 2.4448268 2.4653325
101 1.0701177 -3.267336 -1.3108363 2.5958972 0.8413826 0.45889667 -0.7542899 1.0002453 0.97526485 -2.6488922 -0.9483156 -0.031852353 0.48851734 2.282099 0.16058534 0.29785478 0.741324 -0.19578154 -1.3325486 -0.6577469 -1.127432 2.7089303 0.5351108 0.5624245 -1.219277 -0.23644815 1.8936234 -3.8999581 1.0758294 1.868641 -1.5139185 -6.816549 4.1279936 -2.0946617 0.11115784 1.9504112 -2.4044654 5.081553 2.1106007 -4.163958 -1.7577918 2.6925764 0.92738897 -0.8347906 1.5748214 0.78818053 -0.9393193 3.9220972 -1.6265849 2.8845508 -0.40315422 3.3753822 -2.1964607 -2.1967793 -1.4921124 -1.3666191 3.011968 -0.5650456 -3.133552 -1.5681608 1.3717747 -0.9718599 2.08055 1.3005929
194 -0.46277648 -2.3129523 -1.2679541 3.674995 -3.330563 0.19560444 1.7386397 0.05889001 0.8642948 -3.4313996 -1.2859805 2.2625885 1.5634154 4.225807 -0.27524048 -0.15153563 2.9431896 -0.39300522 -2.4101014 -0.6430728 -1.6667706 -0.09583908 0.922891 0.56581783 -2.3837242 0.3221013 3.5159209 -2.9355276 1.9114058 1.6545271 -1.4938909 -5.238786 3.481355 0.085150234 -0.999477 2.0879235 -1.2211365 3.3620172 -1.5944698 -4.9828568 -0.2869096 2.419163 -0.04939097 -0.60218066 1.3577371 0.070361584 -0.6812105 3.163774 0.20245528 0.772615 -0.7230554 0.56126857 -2.69851 -2.4065998 -1.2207409 -1.2415279 3.0879107 -1.3320143 -3.999634 -1.4295433 -1.4923137 -2.2558076 0.71203035 2.93129
49 -3.1227946 0.5259769 -1.4776703 -1.4912894 4.360515 -2.6507554 0.99030524 1.5432084 -1.3561561 0.7480028 -3.0913985 -0.5541414 0.30829525 3.1795497 -1.6139358 -6.112728 -1.2191707 5.5311847 2.6618268 6.242311 -4.3469253 -0.25854927 -1.1747519 -2.4555712 6.391975 2.6484382 3.336173 3.0985744 -3.1386075 2.9359794 -5.683523 -1.0149705 0.5649998 -0.8642372 -2.1418412 0.40992293 1.1631914 -1.8310515 -3.000481 -0.51703 0.32250637 1.5461568 -2.0450082 3.034496 -2.778181 -2.7746747 6.7413054 1.5519048 1.0608261 -0.3731778 1.8868486 -0.37771267 -0.8759995 -0.8778166 1.6611915 -0.5078365 -0.68264425 0.88596654 -3.0003397 0.19439912 -0.46210888 -3.897028 0.048552334 -1.6293622
256 -1.5186334 -0.43216196 -0.89685124 4.7088027 1.4617627 -5.37251 -1.3196964 -1.4169185 -1.4936929 1.9735917 -2.0336807 1.4910896 -4.0926824 0.6925923 -3.167395 0.4354497 0.008659979 0.58511204 3.876777 -2.7360442 0.518677 1.3884963 -1.7378949 0.53355056 0.18278165 2.7742693 1.2411267 -0.5070168 -2.0286431 -1.4565659 -3.550122 -2.7541316 0.46754467 0.16982806 2.542577 0.4298191 1.7723556 1.4941915 -1.1791183 -0.16840915 4.8066163 1.1705866 3.0110984 2.884507 2.8741517 -0.8738787 1.4480755 1.3813485 0.9095417 -2.8096156 -0.74115634 -1.5145608 2.5350878 -0.0913091 -0.4899118 -3.1281748 -1.5854957 0.24336557 -2.0175853 3.9600508 -1.5311515 0.7386578 0.39575103 -1.8101442
233 -3.4665442 -0.9740967 -2.0621881 5.25864 2.1241431 -4.181668 -3.632451 -0.57926583 -3.134602 2.7283492 -3.3187807 2.4276063 -4.6553946 0.50963825 -2.9138103 0.2408958 -0.5573424 -1.4320124 3.5380774 -5.9542866 1.1945366 1.0469148 -3.4893904 0.699958 0.8804554 3.8005419 2.4998965 -1.5219123 -2.8751307 -2.3190606 -5.099447 -1.9126854 -0.42795986 -0.29408526 2.6693223 2.5104656 1.3988893 1.3658785 -1.8406067 1.9364479 6.3827786 3.5447114 2.0646784 4.0336094 1.4640566 -0.9424497 2.4386175 1.4270924 0.6652124 -2.8489354 -0.7555391 -1.7473639 2.7833092 2.6474597 -0.4345206 -3.956874 -3.853858 0.08782791 -1.1302105 3.881784 -1.536302 0.07601915 0.042962015 -2.0922925
282 -0.6381899 0.5062097 -1.336304 1.780187 -0.51411754 -5.7003183 -0.08683106 -1.6943551 6.7267704 -1.9572874 -6.361478 4.630812 -5.8672466 3.8020604 -4.2451034 1.171655 0.8344177 -0.6752754 0.2846474 1.1965216 -1.2710061 -0.48475018 1.7419794 1.9085699 4.227311 7.876694 -0.74449116 3.3293574 -2.29338 1.5395025 1.4318362 2.253596 0.072069086 5.0896854 -1.4894271 0.47244346 -0.65676177 -2.1414611 -2.1262004 -0.7503542 -2.0734346 5.7489347 1.2045892 -0.34747785 2.1261137 -3.9865615 3.6073666 -0.25229144 -2.7281506 -1.2008226 -1.4130677 1.695466 2.1150026 1.1009953 2.0580103 -1.6515512 3.0747626 -0.38060868 -2.3450286 0.69223565 -0.5210803 2.2373405 -1.5744853 -1.4458951
244 -0.23789994 0.6800812 -0.7948788 2.436608 -0.011715279 -6.46965 0.7954187 -2.083427 4.8777304 -1.1173272 -3.8734353 2.9059534 -4.885867 2.0905123 -3.0894043 1.0640943 1.0086157 0.19140339 2.0246437 2.0042818 -1.1431663 0.9402842 1.8546077 0.92019296 2.1911573 5.7248235 -0.4298432 2.7746255 -1.7306074 0.6260169 0.42260736 0.5080446 0.19059977 3.6131582 -0.3187708 -1.1757354 1.0506897 -0.75586665 -1.3324777 -1.583248 -1.1749507 3.013051 2.4765606 0.08952427 3.1222444 -3.1441772 2.557998 0.3767229 -1.2057526 -1.8366846 -0.9014505 0.99784005 2.3435824 -0.6763043 0.8691565 -1.7460147 3.2761233 -0.3244016 -3.3943207 2.3089564 -0.441479 1.6943741 -0.7567956 -1.6830394
33 -1.8075342 1.9614464 0.9321744 3.0111334 0.28483915 -4.2911606 2.2711127 -1.078282 2.2187612 -1.6902435 0.47868583 1.6106462 -2.9201915 -0.20727704 -3.2888644 0.7183276 -0.5875099 1.0163774 3.8226233 3.463975 -1.0131409 1.801919 -1.5703863 1.0066551 -0.30994317 1.2787442 0.3269057 1.0512846 -1.9625953 0.6125887 -0.93809277 -4.189416 -0.065024786 2.11962 -0.6340386 -2.6663902 2.0460773 1.4523101 0.5014172 -1.1447356 -2.6377554 -1.4342009 0.2201109 2.4785626 1.4031391 -3.2539973 0.21187165 -0.2950678 4.5690737 -1.4938227 0.48700166 -1.311191 2.2110848 -3.0309315 -0.7628657 -1.7602146 1.2141317 1.0956954 -1.2883492 1.2002182 -0.28767 3.4326046 2.3154652 2.6394296
42 -2.9758756 2.625562 0.95407695 2.071975 -0.22197664 -2.1263943 2.5169172 -0.20225409 2.80553 -2.705226 0.65574145 2.1459515 -1.6724317 -0.8186918 -4.589444 0.42946756 -0.9263021 -0.2846266 3.2634513 4.198353 -0.9226121 1.0722781 -2.6696854 1.5044707 -0.5842423 0.8342973 0.5610594 1.1138372 -1.9896095 0.3600484 -0.4133351 -4.412599 -0.16559662 3.0650682 -1.6373101 -2.9687724 2.2047045 0.84017587 1.0997897 -0.0057811104 -4.328223 -1.7666894 -1.8599031 3.8685255 -0.75815165 -4.6277266 -0.08777502 -1.0678184 6.6150017 -1.1758488 1.6843691 -1.3585197 1.9581015 -2.555078 -0.43880555 -1.053653 0.9630787 1.792214 -0.026701754 -0.355498 0.14907822 4.385596 2.9218009 4.95662
331 -1.220641 -1.9596578 2.1369538 2.018201 -2.5566108 1.1717024 -0.43670624 -0.13252388 -3.8275082 -0.92287743 2.0202227 -2.295521 -5.681731 -0.55206454 -0.3364287 0.36583337 -0.986722 -2.945663 2.3196936 -0.89104384 3.2858508 3.6952689 -0.5125506 -1.8689188 0.6458041 -4.384093 -1.2889074 -2.8250606 1.5746455 0.8461017 -3.2541914 3.4623365 3.1991959 1.0158324 -3.6994617 2.523823 0.87711984 0.78280044 1.5771258 3.7187176 -0.11205768 -1.7262167 1.0238012 0.018683955 -3.281225 1.3285526 0.9743741 -2.0146263 -0.078423895 1.1645727 -1.3790847 2.2075202 2.9388072 -4.6754045 3.319594 0.49455112 -1.3975276 2.5108542 2.4624372 3.4534426 4.9504633 -3.6942575 0.574725 2.9291763
68 0.089864835 1.2591966 -3.300985 -0.90356636 1.599672 -0.40187284 1.5291859 -1.3125998 4.4792666 0.15903299 -0.8127601 -0.70288527 -1.5509797 0.48944932 -0.046379514 2.991915 2.3952942 3.2472742 3.780381 -1.7577637 1.1461031 2.735916 -2.7442346 2.5992064 1.7760628 2.8773227 1.1282958 1.4025733 -2.3585887 0.5169461 0.9247526 -6.3890038 -1.9974773 1.1764878 -0.90812576 0.27203754 -0.105748385 -2.3042815 -2.8298857 3.2243323 -2.5099773 3.450425 -1.5633779 -0.02110272 -0.5777448 0.43733087 2.2351623 0.4687143 1.2716308 -2.008425 0.44627354 1.2559255 0.99348515 -1.3336029 -0.83475655 0.64186025 -2.0595078 2.5143952 -0.05560659 -3.7599556 -3.273954 -0.016426027 2.0746155 -0.72786814
148 4.987288 -4.1069527 -1.1856792 -0.10025199 -1.2688941 -1.9377103 -4.143932 0.69390523 -7.591184 -1.0059305 3.5023215 -0.29744196 0.716555 -0.87312496 -0.56083345 2.1612642 -0.4238364 -0.19857672 -3.3782077 2.1252396 1.9346195 -0.9491358 -3.8924952 -1.0886488 -3.5635672 -3.5635974 0.27443254 1.3280269 -0.6331525 -0.5172787 1.3257413 2.991838 -0.3568444 -0.3946119 -1.7391748 0.88073343 0.7816196 -1.2485332 -3.1437411 0.8617383 3.8371644 -1.3290464 -1.368001 1.7753553 3.144111 4.854618 0.27837962 -0.8378187 0.8587018 -2.3468235 -1.5695572 5.2851286 -0.15296535 -0.26629937 1.4979317 1.9847958 -5.4457297 -0.73181707 4.2150073 2.2723155 3.4511616 1.0300087 3.90593 2.2463284
184 -1.0338397 2.9092016 -1.768857 -0.5728989 -0.43745607 4.27426 -3.783489 -0.14708851 1.9767079 -3.6855567 0.97085154 -0.7069879 -0.11889744 2.1097581 -2.1348965 -3.4617007 -4.186649 -2.0147743 -2.3820636 -0.01472551 0.21878277 -1.1840247 1.0988327 1.8450265 0.5470703 2.1500092 2.7335021 -1.1099036 4.1295104 -1.3335768 2.52953 -1.3947173 1.1697341 -2.1611748 2.4050298 -1.8610852 3.4058936 3.3320007 3.4670413 -5.0587893 3.7838757 0.9609384 -4.314353 -0.9326649 -3.4136746 0.39726004 -1.6655934 -0.34447202 3.2430499 -2.0992584 -5.786932 2.2810144 -2.509068 -1.2393103 -0.35219476 -0.0776572 -1.6131287 -3.9383428 -1.1387489 -0.10749244 -0.40906608 -2.2660031 2.5276475 -2.2699406
266 0.558871 -2.4128845 -0.19304934 3.7335334 -0.42443314 1.3434975 -0.32973891 -1.6929886 -0.0654947 -1.7284184 -0.124662474 -0.2724541 1.685252 3.8658552 1.3146819 0.38790062 0.97594917 -1.1872873 -1.805658 0.37218538 -2.415645 0.56757534 1.6485375 1.1642295 -0.5136916 1.3191887 3.2253454 -2.8716762 1.7286292 0.78603154 -1.506707 -4.8593984 4.377459 -0.96378595 -1.0504259 1.779431 -0.11945962 3.8917265 -0.79365253 -4.503903 -1.3805128 2.1410656 -0.1558336 0.17137592 1.8653041 -0.87267226 -0.866598 3.8199186 -0.47065505 0.98508215 -1.1722338 2.099842 -1.010789 -2.1874497 -1.361202 -2.444821 1.8592309 -1.1302764 -4.101932 -1.2657231 -0.2403421 -1.167597 2.712601 3.4750378
337 -2.9229143 0.3222662 0.41643235 -1.9479358 3.845862 -4.631807 1.0672926 1.4674748 1.4473132 0.3274632 -1.9696357 2.8142724 1.3512611 -4.6813426 5.2090287 -2.9899583 -0.16193071 4.7095876 0.7503963 -1.5210116 -1.3418229 -3.3062384 2.6141307 -0.32994276 3.2405205 -0.035055313 -3.3554423 5.42048 -0.82163244 1.4751325 -2.8354955 -1.8885069 2.5792656 1.7928344 0.86086154 0.15287349 2.6104205 1.4001999 0.76965874 -0.78986293 0.28942665 3.3094919 -1.8076895 1.960428 0.062777735 -2.6099315 0.3863816 -0.96426535 -2.650863 -2.3655367 2.559528 1.438372 1.9578094 1.6965798 1.3899572 -0.84169054 1.0773296 -0.87234306 -0.31264243 2.504463 0.24419296 0.09785076 -0.058308642 0.371381
306 -0.14139894 0.16001008 0.009526542 -0.25440755 0.851783 -0.45715618 -0.7059809 -0.80554324 0.35845703 -0.27405727 1.3175741 -2.0648139 0.4014743 -1.6988962 0.23803778 -0.0013053347 0.93120265 -1.0691829 0.32009706 -0.041099004 1.1627305 1.1392804 0.3066231 -0.26409024 0.21345887 -0.31359437 0.53194505 -0.26727736 0.2312796 -0.15510228 -1.1840171 0.18313788 0.18734835 2.0193012 0.6491236 -1.1072398 0.20471054 0.032161858 1.0032467 0.51243263 0.6391348 1.1472661 -0.8192518 1.2362305 0.75251365 1.0188681 0.31588566 0.9766383 0.11980772 0.27880722 0.6590836 -1.164744 0.26308528 -0.7652775 0.9314386 -0.4278698 1.6595775 1.1924322 -1.0559665 0.28314513 -1.8207209 -1.6734078 0.53503865 -0.09390017
195 -0.39465114 -0.033943746 -0.5966421 -0.45078886 -0.21788445 -0.32557067 -0.61096644 1.4967095 1.3004738 1.7423438 1.6582471 -0.062834665 1.7820784 -0.33460253 0.46753454 0.3937069 0.3050171 0.20733705 -0.04035675 0.31598708 0.13044639 1.8314371 -1.4742303 -0.08582724 -0.57189465 -0.63789344 -0.18646336 0.5034874 0.9151247 -0.054004528 -0.4607635 -0.0057797604 1.1574156 2.152099 1.35731 -0.20673904 0.43994677 -0.14153072 2.0962543 -0.1641739 -0.6473787 -0.32702795 -0.027700532 1.3062553 2.2827005 0.42538527 -0.04908935 0.7439805 0.45171604 -1.2143977 -0.035726897 0.77560204 0.62120146 -0.66428405 -1.0443197 -1.4236671 0.60776854 0.49382216 -0.46556246 0.63077325 0.30238166 -1.5895673 0.8391487 0.21326612
59 -1.617385 -3.2129767 4.6157174 2.1803577 -2.9979668 -1.5782832 0.23569551 0.95009124 -2.4802175 2.1876636 2.7162795 0.9016236 -2.9481804 -0.9677663 -2.5373833 0.7558941 -1.6371051 -4.080195 0.64340025 2.2616732 -0.3252995 0.24580571 -1.9772068 -0.045630243 -0.47813857 0.26881868 -2.7736642 -0.90863425 1.3379589 -0.468014 2.1305742 -0.59255815 -2.4444554 -0.23728105 -1.804054 1.7900795 -2.0113573 -3.209902 0.11719566 -1.2745465 1.2423238 -2.0190604 0.6775642 0.050071828 -2.7303872 -0.34359333 -0.021286936 -3.341144 -0.5561476 2.0971546 1.8031161 -0.049134765 -0.8866132 -4.7254977 1.443271 -1.0655596 -2.94013 -3.115695 3.8983757 2.3898423 2.4979563 -0.66166145 -0.41040865 2.1566832
219 1.2322605 -2.0200346 3.120367 1.2760601 -0.07453111 1.4596988 2.84959 3.5634613 0.81764627 1.3106043 -1.0969449 -1.4406841 -0.21965313 -2.6334105 -1.0859776 -0.47883397 -0.0063436097 3.5608056 1.7813809 -5.325831 -5.992805 -1.2259225 -0.4817466 -0.082568765 -0.7588735 1.6529542 0.6650647 5.8858976 3.669299 2.5837061 1.6224321 -0.7084797 1.6299852 -3.0198462 1.4816643 -0.22379014 3.2393537 1.6802921 1.6450105 3.5162601 -0.9238575 0.09492572 -2.6989207 -3.8697686 -2.0323403 -0.8910376 4.6372333 3.3855057 0.4548102 4.1647763 4.3605704 0.09644926 0.8798865 2.0097532 -1.5290182 1.5562055 -1.9022434 2.6997888 -2.9110763 -0.024184946 -0.21378963 -1.6211127 0.30101928 -1.7441634
328 -0.15602103 -0.4342431 -1.5951626 -0.7339528 0.4855463 -0.3677909 -1.6897804 -0.5739119 1.2002666 -0.016364167 0.99222344 0.030644948 -0.71935385 -1.0536082 -0.1716557 0.7485907 2.3650177 0.041259468 -0.3445537 1.4911618 -0.0046201833 0.9535875 -0.6795173 -0.32538664 -2.3560827 -1.44057 -1.2536421 0.67376447 0.89747965 -1.0116462 -0.8484891 0.2180575 0.18062328 0.87395084 -0.8167016 -0.3288474 0.5532814 0.21193163 0.7565007 -0.16552664 -1.1039057 0.7217034 0.12470541 0.62862235 -0.117858484 0.6048974 -0.8102936 0.13189417 0.012005731 -0.29713187 -0.14928894 -0.7052547 0.45422214 -0.7975099 -0.16740528 0.102880426 0.110665366 -0.93368363 -1.8793604 0.007297043 -0.5253582 -0.7195619 0.06347973 -0.47848764
78 2.3894594 0.46154618 -0.0010665256 -0.0527629 0.38000157 -0.4518369 0.49393657 -0.32220623 1.2120064 1.2843511 1.3773323 0.05565083 -0.019965148 -0.8329559 1.5628558 0.7206821 1.7965631 0.2714178 0.21393685 1.0510207 1.4404265 0.7216889 0.3518497 0.4482168 -0.28682485 -1.5151947 0.8243261 0.0008422486 0.40180355 -0.6738157 0.05116282 0.700737 0.65808207 0.77670074 1.1530881 -0.22473712 1.7501609 0.28689307 0.6092451 -0.69665724 -0.9455661 1.3258549 -0.62871087 1.510063 1.0310917 0.12027419 -0.5855589 -0.5538158 -0.3538985 -1.6579056 -0.1117175 0.33966327 -0.4080825 -0.9343277 0.416839 0.59470874 1.2106972 0.289248 -0.8801994 -0.22110195 -0.37311825 -0.6439994 -0.02026681 1.2070501
273 0.7016093 -0.7379139 -0.8749619 0.2104508 0.016824184 -1.2826401 -0.24875127 0.14485812 0.76922303 1.3873031 0.6404284 -0.23452604 -1.6490134 -0.47651002 0.929051 0.13517343 0.9698838 -0.110791124 0.32079092 0.3735879 0.24400316 2.3009195 0.5689197 0.26452014 -1.1105758 -0.82516986 1.009793 1.0463319 -0.05984192 -0.18157327 -1.5620832 0.8228415 0.054323647 -0.36859256 1.0491083 -0.4128292 0.09733278 -1.3627163 0.6579721 -1.1296358 0.21344271 1.3300357 0.7615469 0.28258374 0.359846 0.94887173 -0.45520332 0.84590614 0.022601997 0.17979565 0.8685302 -0.9561462 -0.82243973 0.44971523 -1.4569352 0.43797097 0.22454543 -0.003021313 -0.25183773 0.29324648 -1.5266184 -0.5950762 0.88005954 0.060493473
218 1.3639956 -1.0905982 -0.77288246 -0.72127914 -0.921987 -1.1697102 -1.2942332 -0.058195192 0.30571043 0.7166063 0.701733 0.6051213 -0.6958543 -1.5284435 1.1023891 0.28272712 1.7853105 0.6846994 -0.15967563 0.47378471 0.32864314 1.2152016 0.69906914 0.98978245 -0.3759903 0.17607088 -0.9057179 0.976838 0.1374109 -0.593589 -1.4176292 1.037308 -0.047631502 -0.63446504 0.51410663 -1.703 0.5986463 0.18618765 0.958137 -0.486834 -0.7238635 -0.03372622 -0.19972464 0.0841001 0.68694943 1.0293653 -0.21229376 1.7850626 0.062223043 -0.37542 0.65523857 0.0062737027 0.3654246 -1.6132538 0.35125497 -0.1375702 0.94618964 0.09281391 -0.519726 0.17836043 -0.046782788 -0.68043166 0.3303881 -0.29756674
134 0.25114363 -1.0157822 -0.18271631 -1.4568689 -2.4848557 -4.6864433 0.087557085 0.6438617 -1.092364 0.5424906 -0.8928132 -0.89253485 -2.737221 -1.5143605 -2.475356 -1.0258216 -2.360463 1.942165 1.8042868 1.1589168 0.008081598 -1.9013788 0.49918696 -2.0934105 -1.9192235 -3.241677 1.8896813 1.5688872 2.5153573 -2.0965178 4.1960444 2.3885543 -0.38297376 1.1445504 -1.5997839 -1.988256 -2.8943658 -1.7457842 3.5744195 -2.871808 0.100491 -2.8354545 4.803571 -1.0092974 -0.9925011 -0.20414723 -3.326789 -3.0447092 0.8334746 0.24763452 -1.5482066 2.1950686 0.83743775 -2.5478926 -0.85350204 -0.69786626 -0.12820975 0.10635688 0.68562776 -1.7281983 -2.216261 1.09785 -1.4282407 0.84770364
