333 20
56 0.5449835 1.8318745 0.22757053 -0.75797904 -1.7395331 -0.4902141 2.500514 -0.4238016 0.66624147 0.5075782 -2.4247212 -1.093076 -1.1381286 -0.7642236 1.0047206 -0.67703843 -2.0192072 0.3758499 -1.2849638 -0.5594709
322 0.20942935 2.7275636 -0.96048534 -0.14635384 -0.7516368 0.27954352 2.9376915 -0.21443672 -0.7895598 0.09600106 -1.4825183 -1.2386963 -2.3903394 1.638716 2.8396719 -0.9772264 -1.4338384 -1.0368944 0.88904333 -1.5024875
25 -0.020603683 2.719785 -0.89207464 -0.35178238 0.5445506 -0.14180207 2.9759917 -0.6268819 2.4471745 1.6829498 -1.3193735 -1.3380847 -0.40543592 -1.3871399 1.5957725 -0.18562436 -0.27671307 1.2588797 2.6992536 -0.9333186
67 -1.6239793 2.1147501 -0.06893602 0.03977716 -1.6752737 -0.53910285 1.9520118 -0.4410884 0.009164647 0.48754832 -2.2148268 -0.14041421 0.3431678 -1.0161068 1.6095732 -0.64522356 -1.708954 -0.37023157 -0.22384779 0.3948664
271 -0.08265219 1.8918182 0.26658395 0.42178726 -0.45734537 -0.5679625 2.250368 0.17104805 -0.38713863 1.3649248 -3.449121 -0.94416684 -0.27471066 -1.4355334 0.5597071 -0.22564746 -1.3670514 1.262069 -1.7030456 -1.8859416
119 -1.0171975 2.9668746 -1.1713406 -1.4120623 -0.91837513 -0.38795394 0.13166666 2.0089247 -1.1532254 1.6565868 -4.480595 0.24527669 3.2074587 -0.31538087 -0.11372004 -0.30483696 1.6957861 -0.72821885 -1.821001 -1.7152936
277 -1.2299446 1.8176938 0.38260603 -0.41695505 -1.9838004 -1.4816152 -0.37850818 -0.8631038 1.22737 1.0610354 -1.2629306 -0.33833915 1.3435956 -0.013608213 1.1648878 -0.29632097 -1.8457408 -2.4320486 0.86336184 0.87252754
26 -1.6135002 2.491159 1.5000329 0.79364264 -1.3287556 0.12054685 1.3943086 -0.7461825 0.718499 0.8235937 -3.2446022 -0.95995206 -0.49465862 -1.6062204 1.2929597 0.11529504 -0.9570786 -0.10849516 -0.42284894 -0.43860418
21 -3.1354628 1.8062954 1.0196285 -0.35596016 -2.072653 -2.45761 1.221571 -1.0984241 0.5427504 0.7031896 0.5205567 0.8429526 0.77812475 -0.6098295 1.0467494 0.602803 -2.0103927 0.014365978 -1.1215218 -2.6744199
122 -2.2038667 1.7302643 0.774216 0.37699634 -1.6170509 -1.2181615 1.8418312 -1.5068916 -0.7885081 0.3063093 -0.6650441 1.3817663 -0.33708915 -0.85672826 1.4790227 -0.4835435 -2.59498 -0.22209539 -0.20148477 -0.89612424
252 -1.7790855 1.5519718 0.6709716 0.47214857 -1.9583312 -0.6803488 2.8005166 0.6022044 1.5152112 0.8190542 -1.8495588 -0.8007163 0.2509144 -0.62806994 0.35305738 -1.1827991 -1.5347358 0.38106757 -1.5936972 -0.030779019
239 -1.2255423 0.59285027 1.535854 -0.2921853 -0.9149464 -1.3692313 1.6374687 -1.2486796 0.2625074 0.6158805 -2.3335016 -1.0734389 -0.9013162 -1.2701072 0.26254028 -1.2840366 -2.0757523 1.2826294 -0.5597987 0.32630217
203 -0.7229751 0.5258461 -0.99119484 -0.9733311 -1.7552954 -0.39519757 3.1401434 0.24784479 1.1147928 0.4445556 -2.4067583 -1.2053492 1.1895646 -1.5109547 0.25342494 0.0149486875 -1.679466 0.08671589 -0.5808534 -0.515301
312 2.3052921 -3.3684325 -2.7045784 1.1108004 1.4813436 -0.19927499 -1.3802135 -0.9659858 -0.18173921 -0.7357562 2.3965154 1.5889363 -1.477648 -1.2056146 -3.1005867 -1.901882 2.2190003 2.6700008 2.388616 0.9781324
315 -1.2796986 2.4619064 -0.7770287 -0.39717 1.0770416 -0.1904504 2.616876 -1.4634923 -0.48802054 -0.87841797 -1.5928266 -1.448935 1.67571 1.8970798 3.611087 -0.6713327 -0.49705046 -0.4143378 -0.6236043 -0.54905933
200 -1.5156024 2.6528625 0.7502058 -0.21919227 -2.0891447 0.36913434 1.6552207 0.46190897 0.18467824 1.9865984 -2.646141 -0.009031207 -0.84601456 -1.1292552 0.78291774 -0.29579598 -0.28404075 0.22018558 0.06152523 -0.081802174
9 -1.5698625 3.020291 0.6584292 -0.19737874 -1.2641892 0.9421266 1.1926519 0.114761144 -0.57286215 1.4880183 -1.5796655 -1.3067048 0.29211113 -1.9091505 2.05191 0.7210544 -1.9379392 0.80495703 -0.36496955 -1.5547444
304 -2.0607147 1.8347573 -0.058028795 0.17026985 -0.65468955 0.082274 1.312168 0.7584347 1.5681299 -0.46819124 -2.3206794 -1.5178865 0.08242776 -0.53417426 2.8719807 -0.3162793 -1.5455184 0.022424923 0.13991721 0.49862328
41 2.7036524 -2.0229032 -0.53874034 0.95230645 1.7848052 1.4006809 -3.5782177 -0.57719046 0.42605248 -0.023555292 2.9080772 1.672624 -2.459177 -0.43102401 -2.5883381 -0.47742483 1.3826011 2.9459894 1.0740147 0.7429141
115 1.3186381 -3.9448109 -0.6421086 1.5449892 2.0852807 1.4786266 -1.4968271 -1.3232232 -0.69591594 -1.2755582 2.8337553 0.96896124 -0.6602492 -1.643935 -2.3217657 -2.492077 2.9783807 2.488559 1.5392088 0.18518606
98 -0.78207153 0.8319977 0.6149152 0.13927826 -0.22779296 -1.3924621 2.2305224 0.23836629 0.6591003 1.184607 -3.1896613 -0.65008193 0.13199389 -0.86432534 0.7172675 -1.0150079 -1.6717871 1.0340719 -1.3520242 -1.0615262
188 -0.652973 3.2916143 0.75977266 0.45845246 -2.3934891 0.5033212 1.0260608 0.81478894 -1.2162939 2.2837903 -1.6263106 -0.18397355 -0.10805846 -1.8077621 1.450637 0.33388695 -1.4853405 0.4781668 0.18013446 -1.220615
170 1.6074442 0.7456058 0.8941387 0.5513631 -3.2635255 -1.1478052 2.3152301 1.5832466 -1.05291 1.9666731 -1.4901141 -1.6192341 -0.39148438 -0.36549306 1.3682183 -0.31209347 -1.7045865 0.32501173 0.7373834 -1.0680765
285 0.5949857 2.6928866 -1.9421985 -0.969359 -0.8900862 -1.318231 2.218463 -0.8644133 -0.12936524 2.1177602 -1.5301313 0.6230523 -0.6082674 1.0647843 1.6755247 -0.6615975 -2.2385108 0.173716 -0.61407274 1.6172805
199 -0.23183888 0.7923264 0.89135057 -0.3378351 -0.33682686 0.12443392 2.1490004 -0.670365 0.8819221 -0.5065938 -4.006473 -2.4838107 0.20709527 -0.34060493 0.6166081 0.48891848 -1.1472229 1.095115 -1.549433 -0.051260605
40 -0.340651 2.2933135 2.0449622 -2.3001869 -0.39003327 0.65527296 -1.082464 -1.6257832 0.62763625 -0.35176072 -1.6212782 -2.7781196 -1.6938231 -0.48505744 1.6387547 -0.28350613 -1.2798841 1.4009103 -1.4150667 0.5128483
272 -2.4682488 2.003783 0.19265756 -1.1874204 0.3806443 -1.0660769 0.39468387 -1.2790132 -0.6101794 1.893256 0.36719614 0.6561482 0.22663926 -0.797733 1.2144148 0.9889546 -3.8100562 -0.030151969 -0.50717026 -4.3560505
19 2.1919012 -1.3248171 0.8725914 1.397355 -2.2198539 0.33127993 -3.8185453 -2.0673394 -0.28398475 0.26004305 4.3554606 1.9570751 -0.42357856 0.10907579 -4.5497785 -1.2438941 3.8412924 1.0687497 3.0756803 4.241035
186 -0.92117256 1.2365584 0.3105343 -1.4096786 -2.2547433 -0.9747131 3.3234427 -1.1114789 -1.1015005 -0.037493143 -1.8248291 0.5143903 -2.0795875 -0.6032905 0.9923567 -1.7654055 -1.0212201 0.7584513 -0.16289291 -0.7929626
332 -0.66579336 1.7965869 0.2897617 -1.9457442 0.15090126 -0.07705584 0.85247386 -1.1032892 -0.36992303 2.8857865 -2.9404233 -1.7400762 0.089712024 0.9291753 0.9646364 -2.214868 -0.71796954 -2.007859 -0.9522639 -0.07746488
280 -2.917585 3.3646677 1.1501958 0.122305065 0.6002259 0.07961629 0.20369886 -0.6928648 0.09482527 3.7357936 -0.8519336 -2.1015718 -1.1656506 0.4060777 1.0990092 0.056717142 0.30868176 0.44991952 -0.3792833 -1.5564233
23 3.301354 -4.79827 1.3394544 0.94594437 -1.4523314 1.5581381 -3.0638692 3.0044913 3.861785 0.7352988 -0.59700763 0.9074932 -3.4324543 -3.2275891 0.84217703 0.09731007 1.947449 0.5572485 2.946389 0.8778782
142 -2.2143252 2.3697145 0.88893545 -0.28253478 -3.6830285 -0.23673931 2.2379498 -0.99897027 0.26158684 0.97820854 -1.1700908 -0.38920256 -0.7978242 -0.6479808 2.0750134 -0.4888062 -0.41413364 -0.9164035 0.14372596 0.75709635
175 0.11215744 -2.0296721 -0.050291978 0.32544962 -2.2198868 -0.40714696 -2.7338102 -0.35816288 1.0082148 -0.1163412 1.0420064 0.7804912 -0.34897155 -2.3467264 -0.89435446 0.3920522 -0.8954969 -0.303736 3.0513377 2.0970125
172 0.009746504 0.903822 0.79094195 -0.82516176 0.034850374 0.49328673 1.8574172 0.37061498 1.6015823 0.6082311 -3.0461113 -1.9275796 0.20982839 -0.9217321 -0.78205806 -0.9284509 -2.8948705 0.8684982 -3.6751978 -1.4746107
213 -0.6123078 1.6923696 -2.4093068 -1.1025125 0.7930017 1.948542 3.5240653 -1.8160253 -0.18835673 -1.1650156 -1.4318824 0.54236865 0.2647781 2.007273 4.245545 -0.81704146 -2.276187 -2.749078 -0.38761145 0.09245691
113 -1.8581265 2.4098952 0.18178977 -1.0631542 -2.2750204 -1.763833 1.311168 -1.2099572 1.2991625 0.9176177 -1.7465574 -1.6283506 1.1474174 -0.5791161 1.327638 0.7267308 0.06870612 1.0039467 -1.7528713 0.9500005
326 2.629835 -2.4275498 -1.7982934 0.052977417 1.3450472 2.5913715 -2.6819987 -0.13044973 0.091796674 -1.1364211 2.5111196 2.0453074 -1.6549958 -1.3263749 -3.2250898 -1.4663798 1.9703838 2.6877534 0.75498235 0.20681071
323 -0.5936498 2.6889236 0.16023059 0.4684867 -2.090573 1.440697 0.8636681 0.94959635 -1.8634874 2.9713857 -2.245981 0.14020789 -0.38813597 -1.142752 1.3403447 0.5288316 -1.2626692 -0.6288382 1.0916628 -0.10822635
261 -0.48747352 -1.3133093 -0.09748588 0.7080326 -1.1328653 -2.2021742 2.748305 0.47026247 0.11115965 1.5817503 -3.0583014 -0.65046734 -0.10063893 -2.155286 0.13698643 -1.6409212 -0.5188062 1.0709438 -2.6387758 -1.0829602
343 2.801702 -1.9313151 -2.1269777 0.45846614 0.7279551 0.7617738 -2.989139 -0.8819681 0.3121874 -1.6786379 1.9897897 1.4138768 -0.8045431 -1.6558824 -3.7507143 -1.6043254 1.569206 1.9826639 0.6132147 1.2801068
169 -1.0358027 4.741647 -0.358426 1.6390904 -0.7294877 0.34530753 1.3325251 -1.0853901 0.15735975 0.5810534 -0.6743 -0.7317976 0.22964007 -1.3241113 -0.019576633 -2.8550804 0.17924789 -0.77216697 -2.1167548 -0.22491665
325 -0.30829847 0.1668064 0.83535045 -0.06286945 -1.4447205 -2.149604 2.0330296 -0.7352208 1.2490727 -0.5818728 -3.242993 -1.5405486 0.24330707 -0.85175693 -0.49336898 -0.39946026 -1.2999718 0.9812896 -1.0924407 0.052871708
236 -2.879597 2.2425265 0.11614038 -0.5879436 0.8221331 -0.31663793 2.7428174 -1.8276551 -0.3811173 -0.011355654 -2.1090398 -0.74112874 -1.5767118 -1.0371215 3.0203624 -1.7428367 1.8858371 0.33987468 0.73425955 -3.0325155
109 -2.3435295 0.75059265 -0.8055477 -1.1533071 -1.4137137 -1.604918 0.68281204 0.11455911 -0.0012189717 0.7401823 -2.9830432 -0.3691835 -0.05534898 -1.6830982 0.9509077 -1.4425799 -0.50312775 -0.045305733 -0.23671283 0.7155583
214 1.9718635 -0.6885966 0.06987701 0.30211392 0.50103503 2.359307 -4.3402176 -1.695833 0.15652911 -1.1173459 3.111736 2.0405028 -2.0262764 -1.8811432 -3.666275 -0.40627667 3.0966403 3.196338 1.1400406 1.096843
227 0.34447497 -3.9456592 0.42063454 1.6124715 -1.8387371 0.3139802 -3.117809 -0.68287057 0.35548428 0.14706202 1.970988 1.9970393 0.08525271 -2.1802707 -1.0396073 0.8440526 0.32260987 0.6967494 3.8676465 2.6282182
291 -1.7888236 2.3728895 1.2801906 -0.4350398 0.712562 0.11282012 -0.24819937 0.34740585 1.3211536 2.3983116 -1.8084024 -1.829419 -0.27959403 1.6995462 4.1116033 -1.0462053 -1.9799702 -0.94428 -0.28859034 0.5575661
329 -1.6097819 2.6277115 0.55497277 -2.9796631 0.8879368 3.6937833 0.7633361 -0.3208515 -0.417993 1.5332953 -0.898881 -0.32410392 1.8415227 1.7657217 -0.7759806 1.3605479 -1.6705096 -2.0327413 -3.697909 -4.8857956
137 1.2817372 -1.1785431 -0.41707104 1.1377354 2.3227339 1.6642855 -2.9561682 -0.57111186 -0.7626114 -0.21181893 3.1155102 2.4926376 -1.8782123 0.9913353 -3.220534 -0.757573 1.6054556 4.0348644 2.3871531 1.2792201
53 2.750802 1.7334692 -2.2151947 -1.5378292 1.0054641 -0.7105914 1.1427958 -2.8531919 -1.6005051 -0.62884367 -2.2833354 -1.6098996 1.4359001 3.7510588 3.1401098 0.6673949 1.1600931 -2.3849833 1.2393323 -1.9322511
313 0.66106606 -0.21336013 0.23335998 0.7341302 -0.66460556 -2.097912 2.050862 1.0037402 1.1449904 0.032594398 -3.5684786 -1.7215999 0.09754161 -0.33084294 1.8524544 -1.105507 -0.028799005 0.39478514 -2.276481 -1.5845746
118 -1.2423825 -0.91311973 -0.5997543 -0.54650766 -0.92848086 -0.7728591 3.2103813 0.7115495 1.2382021 0.26912606 -3.2728794 -2.6211653 0.75853175 -0.6075294 -1.6929759 -0.099867955 -1.5792657 0.8076222 -0.48521012 -0.20911916
116 2.8770308 -3.2168968 -1.0247905 -0.67737436 0.34779355 1.6182894 -2.4957688 1.084341 1.052406 -0.6748082 1.9540942 1.4341534 -1.7572031 -1.9835942 -1.9608352 -1.6371571 2.1009145 2.0951722 2.4744327 -0.11521901
82 -0.6194085 -1.3409538 -0.05851416 -0.90307033 -0.03437855 -2.16922 2.5973704 0.4769753 0.9091117 0.68944716 -2.4767203 -3.6084342 0.41934177 -1.4949179 0.73268765 -2.6026566 0.20318605 1.8011329 -2.1161697 -1.24765
99 0.95337456 -4.4671397 1.0796322 1.1390231 -2.651765 0.7182302 -3.2175653 0.30871835 0.6975741 -0.1468153 0.9770407 2.5824163 0.25611657 -2.361352 0.2552083 0.41729444 -0.10355587 -0.4320458 3.9694433 1.6938757
144 2.4081633 -3.3151555 -1.5425719 0.5326378 0.4665489 1.6631771 -2.2002528 2.0514317 0.9972233 0.308071 2.3744073 1.9872967 -1.9177998 -1.8629146 -2.1027694 -2.1736665 1.6506548 1.4622772 2.6687303 -0.5048532
143 1.9608723 -1.8869746 -0.8206694 0.8303093 -3.2987635 0.32298294 -4.3522 0.93383557 1.1134856 -0.48151332 0.7550444 2.2388675 2.4948053 -1.4391941 -0.48996833 0.8319867 -1.0858175 -0.5993425 2.8270407 3.3856533
179 -2.7994123 -3.4065979 -1.3486676 3.114251 1.411488 4.265263 -0.82024544 -0.89913166 -0.76767194 -0.33250514 -0.36804074 3.0350251 0.07717517 2.150116 -1.4055119 3.089847 -0.83989817 3.2057953 -1.6241066 2.6859686
346 0.40286708 0.627226 -0.3968973 -1.7296772 1.7419404 -0.75650525 1.3566824 -4.4108186 -0.871162 -0.47012326 0.6243774 1.6393594 3.1807806 2.4617844 1.5020056 2.1049929 -1.3720969 -0.8989365 2.262909 -4.561267
324 -3.465618 1.151472 -2.0616066 -1.8201596 0.2661318 1.8431594 0.33275568 3.4326584 -0.34358326 -0.8635625 -5.05624 -0.7757854 0.90633756 1.2174078 -0.42519042 -1.2520602 -0.35670975 -1.5801139 -1.2247782 0.28772074
111 1.8657546 0.02378164 -2.2638516 0.4788377 2.4561734 1.0599049 -3.9554694 -0.4780836 -0.114393815 -1.1082748 2.1267345 2.9273472 -1.1479214 0.40839422 -3.6294332 -1.7077383 0.6313611 3.233447 1.2358001 2.2568786
20 2.8312294 -1.1761688 -2.6251628 -0.3913111 1.4857646 0.676751 -3.2600985 -0.9663891 -0.03736664 -2.1319873 1.7921048 1.8252174 -0.9600132 -1.0724007 -3.711705 -2.3006024 0.95863354 2.2954767 0.25242573 0.34586987
14 2.6506176 -2.3032432 -1.7974473 1.3092101 1.3399278 1.0131555 -3.133858 0.69584846 0.67362994 -0.29472202 2.8232017 1.8127259 -2.0426939 -0.37863752 -2.766558 -2.1985676 1.3188707 1.7157735 0.15666541 0.12247971
342 0.09333683 0.3107296 0.6246342 0.7713218 -2.46188 -2.5418434 2.0466874 0.47699028 -0.12355434 0.862689 -2.7120452 -1.4945971 0.28932053 -0.7161744 -0.43750367 -0.13177 -0.93510497 1.0313777 -2.1408155 -0.8986715
104 -1.8407707 2.6273127 0.9903599 -0.29010373 -1.6558027 -2.0232024 1.2646098 -1.5236425 -0.6227768 -0.220571 -1.8053038 0.65825254 -1.1241899 -1.0482528 -0.13125989 -2.8371463 -0.80143625 0.7191285 0.2247671 0.6322255
339 -0.43037927 2.8967898 -3.822286 2.3583877 -0.062367838 -1.8358425 0.14020637 3.3169413 2.998366 -0.19781612 -1.4892488 -0.9953386 -0.67884606 2.7138364 4.259473 -0.63730735 -1.3486011 -1.6290977 -1.7848837 0.92994213
230 2.563934 -1.0498549 1.857114 -1.052344 0.21618351 1.423608 -5.6998596 0.144808 2.287299 -1.2035316 1.0379024 1.0820429 -4.391517 -0.94388056 -0.5066393 0.11796943 2.5742168 2.83092 1.1672509 0.044037763
13 -0.9552722 0.00448383 -0.16662489 0.75901896 -0.6231668 -2.3348072 2.0875041 0.53178906 0.56691587 1.047516 -3.6712136 -0.76307863 0.62451226 -0.45107377 -0.2548156 0.20030998 -0.86818355 1.2038965 -2.0400956 -0.48502225
310 1.9033312 -2.1472006 -1.6667583 1.6445287 2.4749796 0.5374461 -2.6068301 0.88379407 0.0718069 1.1780947 3.453436 0.9601047 -2.7597575 0.9954054 -3.3133576 -1.1791697 -0.13710496 3.213263 2.1778421 -0.3163485
211 1.3873901 -0.5130003 0.208368 -0.16893901 -0.68383163 -0.56976426 3.0737383 0.8596447 0.9723937 0.049942173 -2.5656002 -1.4140298 0.18135403 -1.1374009 -0.5739514 -1.3195248 -2.3603334 1.9342369 -2.6993313 -0.89913
226 2.8413293 -2.4049942 -1.7346601 0.59147733 0.82013583 1.256875 -2.7306364 0.26393583 -0.017603643 -1.3993816 2.6094365 1.801988 -1.1881576 -1.6304841 -2.5349538 -2.4968464 1.2657293 1.8737823 -0.34517047 -0.7455035
149 3.0633683 -2.2688053 -2.3309739 0.6582975 0.86785346 1.0055125 -2.1808279 -0.3819509 0.15403633 -1.0919687 2.5390353 1.7114317 -1.4430808 -2.1419694 -2.8352993 -2.5090904 1.4916521 1.8603734 -0.18168883 -0.7825216
128 -0.29147133 1.9650743 0.918515 -0.45290685 -0.91674376 -0.46253726 1.9699051 0.6619681 -0.7629081 0.2915806 -3.0153487 -0.28678834 1.636337 0.60760075 0.75337154 -1.0972857 -0.582 0.62424415 -2.0288296 -0.7178025
80 0.44917604 -0.14775702 -1.7958691 -1.5220987 0.44348556 1.5917457 2.8199778 -4.7100205 -0.24867062 -0.83490974 0.75865966 0.26565766 3.4528313 1.7150841 0.2800933 2.3894808 -0.18014883 -2.643062 1.041161 -2.6050818
259 0.49634597 -5.7934756 0.7410638 1.1703004 -1.5144391 2.1919758 -1.7041441 1.1946893 0.6807607 0.0025990126 1.4204887 1.643434 -0.96266353 0.70590967 1.7134987 0.9490723 2.2614648 -0.51340866 0.11455126 -2.0149953
91 0.2224951 -6.0148053 0.46849114 1.3233474 -1.5104177 2.1062853 -1.7530979 1.3408468 0.5443169 0.27349302 1.7523148 1.8984946 -0.59501517 0.3515076 1.4800774 0.5834047 2.3331258 -0.8069522 0.7974472 -1.6500832
17 1.0286611 -2.369817 -1.5655715 1.9739137 0.58161235 2.1050828 -3.2785122 0.5760484 0.1700719 -0.7626402 3.164314 1.3875353 -1.887003 -0.40835577 -3.3303244 0.11802408 2.0926924 2.398488 1.5148896 1.7362341
224 -1.8292269 0.9603899 0.68123215 -0.5711282 1.4358553 1.2127059 1.4956349 -0.58738184 -0.68411183 0.9125043 -4.1567693 -0.09238094 -1.7576429 -0.6657856 3.8828921 -0.18229333 0.08434649 0.98978084 -0.14263636 -0.6585708
8 0.07139048 -5.719163 0.55199146 1.2042339 -1.8909035 2.2525012 -1.4372383 1.1985271 0.7386346 0.2754855 1.4576454 1.7444636 -0.34896445 0.40913144 1.9216768 0.89931613 2.2891493 -0.98047626 0.27442595 -1.7146202
89 1.0869474 -2.342196 -0.34984517 -0.36544046 -2.527579 0.17042087 -2.181634 -1.8546691 0.2986693 -0.44365424 3.422646 1.5040302 -0.8589722 0.8166912 -3.2817705 0.8210798 2.7037215 2.0805285 0.10070807 2.9866376
141 -2.2777495 1.9409727 1.9622989 1.2707152 1.3299767 0.1329189 0.081823066 -1.2261499 0.01389778 1.3647352 -2.385876 -1.4612359 -2.2551167 0.0068816273 1.6709696 0.53848165 -1.1703199 0.9544059 -0.9048484 -1.1512969
319 0.7978198 -2.7287056 -0.48091936 0.21199328 -2.3713007 0.16556574 -1.9072564 -1.8207195 0.19804008 -0.5818757 3.6575694 1.2804217 -0.6920283 0.70720613 -3.2050662 0.60151625 2.906039 1.9672214 0.16306792 2.7533855
334 -2.3734512 2.3567233 0.6458005 -0.94203436 -4.453463 -0.741758 0.33234802 1.2309515 0.28042272 -0.44495603 -1.178068 -1.5608785 1.4541456 -1.6167667 2.293992 -0.6871904 0.59697014 0.3614349 -1.2205144 1.0834886
249 0.66385686 0.3470679 -2.0612981 -1.3733006 1.2288793 1.4017452 1.8856068 -3.1305199 -1.0496694 -0.8044697 -1.1526667 0.4311344 4.1361403 2.8937013 1.8466258 1.6866709 0.1155348 -1.2822667 1.1218159 0.19553548
28 2.3646398 -3.0167332 -1.8996843 1.2144617 1.3079649 2.0879943 -2.764423 1.6490271 0.6033259 -0.37660038 2.8656147 1.3985478 -2.2623932 -0.805756 -2.5488944 -1.8958536 1.2771987 1.5680598 1.1011473 -0.9691981
242 1.5824002 0.74669695 -1.0570781 -1.7224042 -0.33493212 -0.33614767 2.61133 -4.231279 -0.36730906 -1.6074314 -0.23680156 -1.4040052 2.2022355 2.8426497 2.7966433 0.7321891 -0.23921517 -1.6472547 2.2117069 0.34417814
177 1.0380214 -2.4926455 -0.036771875 1.5916055 -2.6185312 0.96342057 -4.017321 0.11475403 1.4121568 -0.13550238 1.7440481 1.7441556 1.5833778 -1.0277691 -0.15732817 1.359767 -0.58613735 -0.79058605 2.577647 2.8450027
223 -0.054148644 0.2129737 0.6837181 0.038300484 -1.2809789 -1.2598616 3.1838598 0.7118796 0.10562791 0.2550069 -3.1519887 -0.12962013 -0.13789141 0.7731071 0.79500085 -0.042452324 -2.2492287 1.4106456 -1.4763556 -0.39074585
158 0.7720873 3.505277 -0.3205275 0.6114389 0.07954984 -0.9594112 0.5970913 -1.8527006 1.3419107 -1.7781793 -2.440926 -2.058244 0.21098165 1.7543087 3.686516 -1.4471656 -0.55043775 -0.77729374 -0.25752208 2.7414799
192 1.7463733 -3.9030678 1.0880407 3.497216 4.0206466 2.4821541 -1.9099007 -1.5430496 0.29379207 -1.6312457 2.260043 0.6767756 0.5944446 -1.718467 -3.6698327 -3.1939168 2.4843516 3.027363 0.44288683 -0.4701977
265 0.68546134 0.643313 1.780543 -0.29727718 -0.13856216 -1.568928 1.6375792 0.23065354 1.6266662 -0.34535605 -4.6344814 -1.1333549 0.3342382 -0.15985377 -0.7154453 -1.4465237 -1.1560216 0.95324606 -1.314985 -1.0072552
62 -0.6799387 0.28318846 1.4109194 1.7760006 -0.8554246 1.1134303 3.1262932 -0.93344736 -1.6261046 0.53179646 -3.7380025 0.16818328 -2.2405357 -0.7074746 2.4392214 0.06270223 -0.135759 -0.07885253 0.16503373 -0.856515
49 1.8197899 -4.251297 -0.073153 3.5090024 2.8087194 2.2027059 -2.4587543 0.4120523 -0.34602642 -1.4504383 1.0503969 0.86021674 2.4128277 -1.9798613 -1.9453495 -2.5912147 1.3573737 2.2376106 0.9994205 -0.7615303
185 -0.7183696 4.3006544 -0.9940896 0.5809912 -1.2258134 -1.6776896 0.32609445 1.6982117 -0.57629263 2.6792746 -1.3108898 0.24500996 -0.3964581 -0.3530237 0.75134844 -0.09388543 -1.8277545 1.9117994 0.7850338 0.0006359052
320 0.22285862 0.9745718 -0.7902946 -2.613271 0.13339324 -1.1565107 0.6122689 -2.7369044 0.3987058 0.46326998 1.8386376 2.4833665 2.2348156 1.9963135 0.0126249185 2.792724 -2.4846523 -1.5971595 0.8036116 -6.485133
94 1.0570766 0.42003518 -0.95123345 -0.67367715 1.7131474 -0.47328582 1.893687 -3.9403424 0.19457601 -0.9661899 0.4706882 0.16169286 2.7478328 1.7387686 2.3014774 1.929509 -0.13215803 -0.19476768 2.091777 -2.3520296
136 -1.3773472 2.861179 -3.747866 1.4727614 -0.17214489 0.8792682 1.9044292 1.5492909 -1.1040599 -0.10110224 0.011480938 -0.3111608 1.5476273 0.21931708 2.2093692 -3.3987193 -2.3875265 -1.6467665 -1.8940288 1.1520193
31 -2.0252962 0.562047 0.9997541 0.6387305 -0.56659573 -0.20113131 1.3373469 2.4475079 5.633374 0.87680286 -0.4027664 0.3264292 -1.0876551 -0.064549185 3.026027 -2.1597471 0.2221301 -0.5265975 2.4899666 0.6336606
204 0.567813 0.88757807 -1.3169074 -0.7647666 1.890353 0.6336323 0.74742943 -4.354595 -1.2900387 -1.9675409 -1.0189099 0.33721814 2.1581209 3.3504524 1.7753499 0.51445985 -2.2898867 -3.3013933 1.8452661 -0.99826515
308 -3.9620914 1.7619112 -0.8578335 -0.37683693 -2.9505796 0.9292437 1.6274848 2.1018744 2.02593 -0.5835861 -0.16697608 -0.95392776 0.0018947157 1.6159521 2.1205182 0.0064245234 -3.1184778 -2.2358024 -0.51753086 0.83207905
225 0.76813 -3.0307226 0.25310698 1.7313448 -2.497699 0.9294167 -3.5552802 0.036423642 1.2336061 -0.18829738 1.5989003 2.0105581 1.1491092 -1.1597161 0.16243786 1.1565248 -0.108708024 -0.31520942 2.8044205 3.1399317
161 -3.980514 0.24679844 -0.0549194 1.4023643 -1.7210599 -0.6298705 1.1207511 1.0908804 -0.6429128 -1.0886495 -1.7785298 -2.8520386 -0.9373847 0.16777165 2.1122828 -0.24916486 -1.478355 -1.0262371 0.3850116 -0.3236683
297 -3.7292776 1.2040062 -0.4928363 0.20456254 -1.0561923 -0.9525652 1.9022238 1.1478528 -1.2553555 2.3648612 -1.8544902 -0.46491498 0.3353418 -0.15569982 -0.30681062 0.15924081 -0.42307878 1.3158339 0.34566388 -0.10774576
92 0.67310685 0.081529185 -1.410009 -1.0333314 1.9184583 -0.04880465 1.3149152 -3.932106 -1.157092 -0.2813618 -0.08342054 0.18155892 3.1703613 3.6465385 2.4688418 1.3679885 0.75882137 -1.1093132 2.288531 -1.1585587
48 0.9917882 1.5111326 -1.6576155 -2.200467 1.3599906 -0.38460544 3.781384 -2.414657 -0.38476205 0.051245615 -2.6137397 0.40692878 1.6880349 3.0875711 0.027853891 2.0986404 0.29798064 -1.11066 0.64337003 -4.4145465
232 -0.9334765 2.1478822 2.7338061 0.06632487 0.75584066 1.0621823 1.0428466 -1.9394697 0.818144 1.6558517 -2.022542 -1.2126489 -1.1040043 -0.09702337 1.6546532 0.33681676 -0.9693046 1.8483218 -1.4531054 0.3576277
278 1.3381951 -2.914254 0.049119208 1.6337166 -2.217226 1.1626542 -3.9082105 0.61457556 1.6539586 -0.37959358 1.6239942 1.9327407 1.9012505 -1.0495889 0.071521975 1.4810282 -0.8023834 -0.6889249 2.9541373 2.5027235
72 -1.5662186 3.4898353 1.6940997 -0.8815311 -1.0176464 0.69962615 0.122723736 -1.1932092 0.97982293 0.8805064 -1.9187177 -1.5534838 -1.4670187 -0.33322433 -0.9412703 2.2417076 -1.6890365 2.112834 -1.6173557 -0.5711864
140 2.0034826 -2.813036 -1.0290893 2.236696 0.78667134 2.7131927 -2.94696 0.64608157 -0.35644123 -0.621361 3.5737045 2.2248635 -2.2205572 -0.89682466 -2.2982311 -0.8745545 2.3725805 2.7896917 1.4578087 0.8032121
88 1.3987162 3.3209078 -2.0253468 -1.2767832 -0.3377803 0.79792875 5.495069 -3.3502133 0.14924435 -0.13255425 0.022023272 -0.06963959 -1.6567463 3.2170925 -0.54909164 -0.60015994 1.8200096 -1.8681294 1.4437416 -3.1476734
299 2.0578368 0.3939404 -2.2697191 -1.0936414 1.5300564 -0.23972474 2.2217197 -3.5237982 -0.61281276 -0.7079326 -0.63930583 0.50998074 2.0611193 2.5564516 1.3353732 1.8965492 1.2883302 -0.8491891 2.9629707 -2.990725
238 -0.54753816 -1.0752734 1.0221173 -0.45291078 -1.4373556 -0.94619423 2.7642436 -0.39742047 0.9548504 0.26917365 -3.5651164 -3.0092502 0.6913099 -0.30148607 -1.823925 -0.623712 -1.1146984 0.5476137 -2.4823492 -0.12274012
275 -0.19441806 -2.2092628 -0.47051132 1.9172662 0.04900024 -1.9072962 -2.4284954 0.47690973 2.2708783 -0.8784443 0.75515276 -0.6317299 0.9488498 2.2299337 -0.08493284 -0.75344455 -0.43545508 -0.18724467 -2.6232245 0.18433022
302 1.5214356 -0.16111153 -1.7462298 -0.4868058 1.251723 -0.028522324 1.5676912 -3.3158786 -0.7675452 -0.4508328 -0.4392147 0.17326552 3.063443 3.5803053 1.7050347 2.0096948 0.331184 -1.7467289 1.6931131 -1.6702726
181 -0.15896909 -2.1470623 -0.8092952 2.1825523 -0.010651552 -2.0058653 -2.7551782 0.7865049 2.0353081 -0.8728944 0.9511923 -0.6197962 1.0988183 2.4194517 0.35233793 -0.94210386 -0.56231576 -0.2291689 -2.5691934 0.38015822
180 1.4585075 0.48812887 -2.219039 0.88284737 1.1269782 -0.26098293 1.6286052 -4.3733025 -1.6587903 -2.1874785 0.22374664 0.5164296 3.0263686 3.0933838 1.588068 0.96322644 -0.3598564 -2.177963 2.044641 -1.0838664
68 0.19622083 -3.1499233 1.3817563 1.4764999 -2.4857745 0.8440909 -3.7849817 -0.52177984 0.3867944 -0.48418477 1.4999845 2.1987398 1.4495814 -1.5607828 -0.4517433 -0.3329525 -0.542458 -0.84570396 3.2676978 2.629772
4 0.026213087 -2.1176784 -0.86228406 2.3575487 -0.24098945 -2.1346688 -2.9775672 0.66767645 1.9380766 -0.8161283 1.123664 -0.56469077 1.2004775 2.409319 0.38563272 -0.8648986 -0.40804717 -0.1793608 -2.5858185 0.46792752
219 0.35711113 -3.236082 -0.11989169 -0.4007458 -2.8463938 0.44332898 -1.0836798 -1.9738755 -0.38575968 -0.5224574 3.229985 1.4920695 -0.85970056 2.4287386 -2.6470351 0.7544544 2.9719753 2.1477551 -1.1674815 2.3781476
303 -0.9124483 2.9069996 -1.2275612 -2.2749212 -1.4105297 0.58380586 3.4950376 -2.6388593 -0.9976234 -1.4117054 -0.86968154 1.7148892 -2.8494873 0.50096005 1.3468698 -1.782916 -0.36771393 0.077525645 -0.8744427 -0.33183062
6 0.43302184 -2.5010107 -0.80730397 -0.61557966 -3.0194638 0.25212613 -1.3167676 -1.4702002 0.22552022 -0.39818397 3.3503292 1.6879411 -1.1453602 1.8717268 -2.6201365 0.4037917 2.9198518 1.7918097 -0.6249294 2.4817333
194 1.3499784 0.6040708 -1.7750819 -0.7766986 1.042972 0.07209904 1.2769672 -4.052921 -2.101202 -1.6160761 -0.10669555 0.3315653 3.453217 3.113369 2.2243533 1.415399 1.1228856 -0.9016889 1.8777925 -1.264004
95 0.17166215 -2.4681468 -0.1826532 -0.009482046 -3.752597 0.5039697 -1.5064825 -1.7908572 0.1256705 -0.123579994 3.4902651 2.1709728 -0.71097946 1.9964514 -2.3365407 0.74587584 2.889545 1.4771297 -0.096768774 3.139367
101 2.026509 0.30470988 -1.1790655 -1.159976 0.72138155 -0.57657677 0.0011190416 -4.305112 -1.2089975 -1.5316659 -0.5192674 -0.12848827 3.232013 2.9926677 2.395646 2.125976 0.8750856 -0.8215364 1.1666347 -0.5041725
231 -0.64909357 1.6448277 0.80338097 -1.6256275 1.1821437 2.2677364 0.6024365 -2.2485547 0.3550613 2.793274 -0.7618786 -3.0395195 -1.8145468 1.0331991 -0.12412819 -0.9523436 -0.93026143 -0.25113472 -3.5563297 0.14024612
306 0.33782417 -3.410218 -0.23143631 2.050518 0.06644736 -1.7053047 -3.4434915 -0.22283602 2.3418102 -1.3328468 1.6548189 -0.23235793 1.6350461 2.4461136 -0.66642934 -0.5940247 -0.38019946 -0.1395203 -2.3635879 0.57032126
42 2.6906374 -0.029249903 -0.09007259 4.2643123 -0.09606297 1.1049328 -4.1872087 1.5059805 0.12165174 -2.9300525 0.9320708 -1.946766 1.6196088 1.4794745 -1.0029107 0.29168355 -1.2240759 1.5818928 1.9817965 -2.9045315
33 3.213895 0.8406525 0.12379392 4.3739333 0.5545829 0.8740952 -4.007414 2.137789 0.021549858 -3.549478 0.97844684 -2.475235 1.6680857 1.2949115 -0.77322507 0.67857724 -1.5129778 1.1867996 2.2789 -3.5298436
233 -1.9451348 -2.296087 2.0961783 1.3471829 -1.8328309 1.3432568 -1.3555504 1.4387321 -3.2985554 1.4201101 1.3795937 0.0356278 2.4534204 4.5671325 -1.4066596 -2.28537 0.75111765 1.1253616 3.0278203 2.6018584
256 -1.8301069 -2.4882977 2.0631588 1.318231 -1.916523 1.2659699 -1.3395056 1.4606987 -3.3248088 1.3251817 1.4798597 -0.11518087 2.467111 4.567557 -1.41919 -2.2439299 0.6963207 1.2221264 3.0129073 2.6172397
282 0.100841954 -4.2208595 0.46970502 -1.9574475 -1.2199342 -1.4184128 -4.8032317 -0.5855228 -4.373175 -1.7848196 0.77292013 -0.48405594 -1.7193605 0.49811372 0.69462705 -1.4127829 -3.0027554 2.7898848 -0.048328683 0.28599083
244 0.14988056 -4.203935 0.2828792 -1.4441469 -1.4525458 -0.9510932 -5.019631 -0.6612813 -3.876327 -1.6239525 0.65518063 -0.34795254 -1.6048796 0.70720816 0.5265663 -1.5500906 -2.876098 3.1266382 0.0006720236 0.16326693
7 -1.2966534 2.720766 -2.945357 2.517481 1.1321661 1.331344 1.434143 2.9568741 3.0150778 -0.30843815 -1.2465979 -0.20184268 -1.214818 3.0560315 3.8463497 -1.5638555 -2.415345 -1.6010175 -0.287075 2.0285997
248 -0.13194408 3.6174223 2.279727 0.4067758 -0.7548548 -1.2510767 1.1027328 -1.6063809 0.74141085 1.2140508 -2.467176 -0.34458774 2.033317 2.320132 1.1258749 -1.6461444 0.47166038 -1.8371934 -0.5822876 0.059165914
254 1.9497739 -0.41379303 -1.851687 -0.43016443 1.2959888 -0.78215754 1.1286492 -3.5531924 -1.8374885 -0.750867 -0.40415585 0.7973943 3.4973707 3.0587807 1.7456731 1.5034314 -0.092976265 -0.9226418 1.9681869 -0.807499
184 -1.43771 0.9847314 0.77397007 -2.3033779 -0.09775294 -1.3318648 0.07027753 -2.0626109 0.39668936 0.47216716 1.7197196 2.6780515 2.1772738 2.2032032 0.4166279 1.7006179 -2.9175503 -0.88323015 -0.41315395 -4.8905053
328 0.13461134 -3.5469325 -0.0796074 1.9131857 -0.029104883 -1.4758518 -3.3000758 -0.3447005 2.1545424 -1.5091424 1.4242066 -0.41004172 1.9670771 2.187694 -0.9357281 -0.4968819 -0.4988258 -0.04558229 -2.2229743 0.3939537
218 0.120887645 -3.2344735 -0.2419506 1.9772075 0.33455327 -1.5328494 -3.3804245 -0.045299858 2.0704138 -1.243975 1.2038854 -0.59918875 1.7293782 2.407656 -0.76206684 -0.6746188 -0.32493132 -0.07844045 -2.2003143 0.3723959
273 0.30962408 -3.4305851 -0.12768048 1.8377719 -0.015277223 -1.4266607 -3.1486738 -0.19697332 2.1084797 -1.4230605 1.5570105 -0.21611042 1.9033645 2.1859152 -0.9026016 -0.39605388 -0.30638045 -0.07357913 -2.3397925 0.15422629
2 2.7515957 -1.9194897 -1.5785576 0.33337018 0.8785856 0.8419435 -1.8999438 -0.2724998 0.33906403 -1.5179354 1.9349428 2.6792626 -0.47490522 -1.6593583 -2.3696358 -2.717128 1.4901117 1.8948241 -0.60358626 -0.006737077
78 0.26048326 -3.597429 -0.008754786 2.0479133 0.1569714 -1.4308441 -3.3933568 -0.3242947 2.2706583 -1.3149216 1.7455183 -0.37581512 1.9027878 2.4560702 -0.93059444 -0.50580055 -0.41356868 -0.08879379 -2.3066497 0.46315283
148 -0.5456008 0.78684187 -2.5371153 -0.9708324 0.26472774 -3.3687754 -0.5456007 1.0214516 0.13885197 2.4708018 -2.955909 -0.25299612 0.5661327 -3.5736067 3.5515473 -0.74120957 -0.18038952 1.4419488 -1.15294 -1.6235495
331 0.098524116 0.5626285 -3.0259023 -3.473569 0.2565609 -0.3246472 2.7452035 0.34548506 0.5517796 1.9947611 -4.08759 -0.8450329 0.16813818 -0.73512745 -1.3626505 -0.92057294 -0.78218967 0.71334195 -1.9501061 -0.65011066
195 0.49211815 -3.4478595 -0.22414666 2.118943 0.100223914 -1.7628092 -3.394216 -0.14369324 2.1253257 -1.3107423 1.7858038 -0.36639044 1.846533 2.487696 -0.8464643 -0.4924392 -0.21057512 0.053148095 -2.3393834 0.11522426
133 -0.9079102 1.4506819 1.2903019 0.1922782 1.301466 2.5253127 1.6692902 -2.196031 -2.544284 0.815351 -3.62431 -1.6948866 -2.0027611 -0.37728277 4.1168 1.7675787 1.8350912 1.9590743 0.080119014 -0.943685
147 0.32192686 -2.5251446 -0.5213169 -0.3444944 -3.565502 0.38677096 -1.015386 -1.7655013 0.043207254 -0.22273365 3.270699 1.4666785 -0.7322187 1.837167 -2.4748948 0.8743897 2.8837245 1.567246 -0.5304092 2.8984618
266 1.5867678 -0.034287326 -1.5120757 -0.7334378 1.1874257 -0.08076858 0.35759994 -4.2001705 -1.623086 -1.3962079 0.03051577 0.4327033 3.5121553 3.0695999 2.175309 1.6342545 0.043148715 -1.3732367 1.8351392 -0.7147547
127 -1.2727277 0.165752 0.5868173 -1.0011876 -0.3664588 -2.2739058 0.7059122 -1.8076532 0.16503583 0.12502912 1.9817972 3.0221498 1.1449916 0.8195338 0.72790945 1.3165363 -2.9898202 0.29968268 0.29803142 -5.090669
284 -2.0372927 0.74378437 1.8247446 -1.7364945 -1.1782489 -0.7120171 0.15732339 -1.5540847 0.3134375 0.3559458 1.5334665 3.2948704 1.1469041 0.714362 0.014270113 1.1664431 -2.7912292 -0.5866074 -1.1725209 -5.10691
197 -2.4740632 0.65452725 1.2104596 -2.3257837 -0.79158986 -0.93598235 -0.25666705 -0.69074726 0.41463876 1.0387129 1.3277783 2.6913157 0.76322705 0.8650656 0.10551847 1.504481 -3.4586046 -0.25923413 -1.2901276 -5.279088
337 1.4120053 -1.1155369 -1.5171596 1.145125 3.437283 0.59876585 -3.227242 -0.24091487 -0.59917617 -0.7687247 2.1702197 1.0774333 -2.2587278 2.1686306 -3.8350263 -0.76878047 -0.3998134 4.377466 0.35886785 0.48075962
257 -3.1651971 4.620296 0.65133464 0.9270895 2.4415781 0.07545058 -0.7506231 -1.5691454 -0.24265675 -1.3844357 -1.3667146 -2.2190955 -1.3262216 -0.37130868 1.037864 -0.82433456 -0.6583372 1.0956478 1.7147763 -2.4250853
243 1.0298505 -2.896665 -1.5877576 0.19175753 2.5657077 -0.2348511 -2.4191656 0.2398977 -2.0204985 -0.9883553 3.175529 1.0582616 -2.8003483 3.150276 -3.0265303 -1.4809567 0.85127753 3.9377859 -1.0762905 -0.56475174
24 1.2404026 0.026183737 -1.2854478 -0.81407654 1.2960992 -0.36688274 1.4561017 -4.0549374 -0.27488005 -1.6023594 0.496853 0.64120734 3.1042194 3.9698327 1.9339857 1.5000114 0.33112702 -0.9943835 1.8068069 -1.4268847
1 1.6324573 2.2812371 -1.5437573 0.62206286 1.4260926 0.6272878 3.2030566 -2.423523 -1.5754269 1.1086978 -2.570044 -0.7558874 0.55465096 3.0411372 1.3195798 2.4659338 3.4814534 -1.398567 0.7280865 -3.986675
3 -1.372575 2.4123368 2.151352 -0.055082604 -2.3619564 2.057115 2.261233 0.10080065 -1.3620315 2.3430035 0.24028373 -2.0815177 0.02775336 -0.45085454 -0.7345085 1.4673535 -1.063636 2.7425072 2.8878849 0.48485968
130 0.8872416 1.8408402 -2.919859 -1.0139607 0.47172064 -0.8149842 0.5722472 -4.9967775 -0.8547516 0.019119518 -1.5716788 -2.3273795 -2.2000341 -0.1256981 0.7708718 1.5065136 -0.33175203 -3.9409919 2.7974787 -3.8901184
187 1.4145285 0.35634026 -1.5334357 1.0124664 1.6589258 0.26345387 1.6333677 -4.36918 -1.4273665 -2.7013867 0.31409007 0.6286119 3.3730373 2.5872707 1.5121449 1.003794 -0.61525244 -1.0201253 2.2004633 -0.7483132
134 -2.9674845 1.918588 1.7576749 -1.1493635 -3.5131574 -0.6142332 1.0660663 -0.1353282 0.6520264 -1.7745042 -2.3204124 -2.5492141 1.3905463 0.43880978 0.23809066 -0.60753983 -0.5503222 -1.0090088 -0.5346965 0.45649093
59 -0.12427539 -1.2896417 0.46511877 1.1169565 -1.892939 -1.8667862 2.6701162 0.87618256 -0.58015424 0.6720401 -2.2952647 -2.721763 -0.8628797 -0.42382926 -2.0390217 -1.4470754 -1.956369 1.7596385 -2.9676502 0.076364614
281 -2.3562353 0.17937852 2.118698 -0.5440531 -0.59177876 -1.6970081 0.7785251 -1.355621 0.2936072 1.1104519 1.5893794 3.315449 1.2251546 -0.2756741 -0.0989379 0.5272672 -3.5174773 0.6562687 -0.8420402 -4.8521123
30 -1.6572806 2.8568778 -1.9783419 -2.3693922 0.06640705 1.3860453 2.4668286 0.09121588 -1.0913985 -0.42348206 -2.7488818 -0.020968622 -3.093242 1.82304 0.08004298 0.40462366 -0.18400487 0.11275424 -0.12091569 -2.4658637
276 -1.320864 0.32062364 1.853908 0.86800796 0.9794682 -0.061885256 1.7059599 -1.1123688 -0.21587506 1.5256082 -3.7416325 -0.14683174 -2.717302 -0.7378345 3.0433347 -0.032573126 0.215442 1.5004567 0.7534157 -0.63242257
330 2.3330605 -0.6359704 -2.263186 -0.74787915 0.8059292 -0.14666583 1.5040544 -3.3999891 -1.3965049 -1.2130154 -1.4945756 0.65414906 3.1012998 3.1290233 1.2595993 1.4801294 0.20791706 -2.3572848 2.2731009 -1.1983153
93 1.1934458 -1.2924471 -0.94667476 1.1267669 2.9697423 0.6347925 -3.301979 0.44907588 -0.16178662 -0.7141306 2.1634474 1.4846467 -1.3899819 1.944206 -3.2907205 -0.744638 -0.6944965 3.5565598 1.2479578 0.8664356
57 -0.9129801 0.16921379 -1.6613148 -1.9632655 0.2684626 -1.2288736 1.0210011 -4.28667 0.33453596 -1.2728646 0.5650154 2.1456869 2.196461 2.8227756 1.6031816 2.13067 -1.6898546 -3.6686559 0.94120544 -3.1956248
110 -0.88825816 -5.0715365 0.6799915 1.8852689 -1.4254085 1.9341164 -0.5301669 0.7613737 -0.055406936 0.12684454 1.746834 1.3863724 -0.2854012 0.9762296 1.7743719 0.59715056 2.4848425 -0.57327515 0.30385292 -1.6485583
296 -0.7170341 -3.4763122 1.2199364 0.39090592 -2.0531192 0.3353225 -4.3845654 -0.6972496 -0.04581671 -0.399775 1.0116546 2.2708158 0.3040802 -2.3687036 -0.86135286 -1.2903024 0.27840462 -1.0768839 3.4026203 1.8478718
212 -2.1057928 2.54494 2.4568012 0.05688394 0.6298768 0.06259945 -0.041600253 -1.989379 0.692151 -1.078432 -2.4347067 -0.75989705 -1.3884866 -0.4706045 -1.346633 -0.3411305 -2.7437294 2.910005 -1.3681818 1.5567306
264 -0.72768503 -5.671502 0.58307046 1.8845481 -1.4392025 1.905658 -0.50971323 0.7214934 -0.29060456 -0.13941039 1.7733074 1.5965723 -0.2615751 1.3356067 1.6367567 0.46820068 2.3738918 -0.69098634 0.25134644 -1.7883196
150 -0.91654646 2.0253718 -0.21213847 -3.5712771 0.0077432003 3.108862 -0.08233238 1.9390612 -0.8953938 0.86511797 -4.1286583 1.953736 4.470279 1.2080123 -0.3021853 -0.5832709 1.5750146 -0.12083359 -1.9747192 -0.5349522
123 -1.9804155 0.23181228 1.3895603 0.91853684 -3.0577521 -2.1503356 2.270446 -1.1466074 -0.36519936 0.7739143 -1.7814169 1.5729867 0.02219636 -2.0507612 0.07932772 -2.1679845 0.75756687 0.10289355 -1.5595969 0.32687297
131 0.7899677 -2.9166198 1.1936883 1.8543383 -2.1727655 1.2547257 -4.2823725 0.24994895 1.1452513 -0.68448246 1.4945651 1.7748936 1.9986757 -0.8887969 -0.02725192 1.4985229 -0.66994655 -0.32470483 2.6572473 2.3218455
251 -1.7822807 0.4112975 2.22434 -0.6702463 -1.0863813 -0.87056565 0.39144644 -1.6010532 0.4766819 -0.09678742 1.8732953 3.680696 1.4203502 0.047451805 0.34233212 0.72914577 -2.507755 -0.10508572 -0.5408173 -4.9327507
193 0.92402637 -5.822752 -0.7158757 0.76568097 -1.6034268 2.2154598 -1.605141 2.3836503 1.1128975 0.6909363 1.3726239 2.3875825 -0.43531433 -0.0868995 1.8414325 1.1472266 2.4958196 -0.46892363 1.087889 -1.6765012
173 -0.16354696 1.2321888 -1.1695186 -2.0806603 0.0790284 5.4164853 1.1690712 -3.672507 1.051147 -0.46848804 -1.0404503 1.1114247 4.8446913 1.0591506 -1.7291883 2.9422925 2.5725641 -3.193166 0.0586417 -1.087603
55 -2.5617664 -0.006061963 1.4478539 0.41230094 -2.372135 -2.913163 1.8191334 -0.10966371 -1.0146185 1.8674985 -0.87575364 0.8695852 -0.245353 -0.19156556 -0.3854941 -2.2522619 -1.0253644 0.92624027 0.014714609 0.87975425
132 1.3108116 4.310617 0.3401694 -2.0715256 -3.2492712 -0.68819505 1.1745392 -3.5228822 1.3178841 -3.2376049 -1.6126866 -0.90898263 1.8489715 1.1763432 1.8026996 0.5430016 1.002411 -0.577507 -1.0619228 1.8766396
345 -2.0472 0.960016 0.14496797 -1.3627157 -2.0792065 -0.25157404 3.2021043 -1.69471 -1.2269456 -0.15864341 0.75337386 2.6145182 -1.9297051 1.5375596 1.8393683 -1.9539682 -1.5287488 -0.6664103 -2.288829 -0.5475447
263 -0.7258422 -3.8359983 1.286463 0.699281 -2.8239493 0.29950738 -3.8597345 -0.818881 0.13796674 -0.28348085 0.91375244 1.9649101 0.6622918 -2.3167622 -0.3778656 -0.9178009 0.5902551 -1.4875416 3.7426693 1.9649298
333 3.2387242 -1.9568025 -2.0018463 -1.6096361 1.2167801 0.39367288 -2.7734177 -1.7347921 0.2990403 -1.9198936 1.3522629 2.0933552 -0.328115 -1.4631549 -3.2708318 -2.7528517 1.667264 2.23422 -1.0344657 0.3450381
103 -1.397153 1.2304125 -1.9475287 0.6219356 -0.045905184 -1.1985456 1.8547235 2.1659358 -0.16094486 3.0287006 -0.98137295 -0.77207404 -0.47861022 0.7033592 0.83275974 -2.2147303 -2.0454853 1.2689213 -1.464665 1.7631537
145 -2.1264896 -2.5117013 -0.9551366 2.481385 1.0904586 3.0863514 -0.36809826 -0.7207241 -0.48093474 -0.17932531 -0.21929735 2.542723 0.034509946 1.4856035 -1.0199984 2.5539498 -0.5864383 2.4275558 -1.2007945 2.0418584
90 -2.0574028 -2.3089018 -1.033981 2.391126 0.92562264 2.9602985 -0.27656093 -0.77714056 -0.44208962 -0.118339315 -0.29400256 2.4663298 0.08507516 1.4528763 -0.87889874 2.4144714 -0.62891275 2.35409 -1.1193733 1.8561686
39 -3.8844934 3.5251505 -1.1338212 1.4353647 -0.3778513 -1.820753 -0.46611744 -0.834527 2.0522697 1.3143803 -0.2778758 -1.695304 -0.57204044 -1.505214 0.09906756 2.0239842 1.4686698 0.5671564 -0.6927404 -2.4928927
108 -2.10007 1.1505095 -0.17673913 -2.2473338 -0.30406043 -1.6233809 0.6455563 -2.323216 0.68563676 0.8486582 2.3740582 2.776398 1.768749 1.178023 0.9388456 1.372798 -3.0219212 0.10156233 0.25750658 -4.1984816
159 -2.3975484 0.42159873 0.9176335 -2.4730241 -1.0609515 -1.7183754 1.24823 -1.8538314 1.3633552 1.1509632 1.7547501 2.4725964 0.31020004 0.20310128 0.20496453 0.7334029 -4.5386753 0.07735174 -1.9417545 -3.6551611
258 -1.7628362 2.494081 0.5326547 1.8643954 0.32039487 0.34634197 -1.2787845 -1.3217181 -1.1641101 1.1026351 -0.7906744 -1.9234629 -1.4916282 -2.3740911 2.1113808 1.5045377 -5.7128553 0.37848368 0.93025917 -1.2595025
167 1.3467361 -2.1093714 -0.7616977 1.5232403 3.2090726 0.5514325 -2.2929604 0.07247583 -1.1127368 0.04572691 2.5691726 1.0910443 -1.5148296 2.2112873 -2.8417988 -1.0912042 -0.58728796 4.3567514 0.8031465 0.6121208
162 2.5564592 -1.7324821 -2.4215336 0.018639164 0.40677446 0.6596851 -2.1029084 -0.4450324 0.20993176 -1.4891757 1.6355422 3.0327084 -0.7668598 -1.7135506 -3.122633 -2.2186615 2.0639167 1.9169008 -0.39737725 0.33711004
245 0.49790016 -5.143279 1.4657588 0.24816062 -1.9620136 1.253524 -1.0124798 2.5821586 1.1864935 0.43215424 0.61610323 0.708326 -1.0355302 -0.60338557 1.5034688 0.44480887 2.1698108 -0.16197643 2.3560233 -1.085048
5 -1.843326 1.5674217 -0.90870315 2.5040424 0.730274 -0.1361196 2.5920331 -5.0578084 -3.125707 -2.4345844 2.1998682 -2.612605 3.1499789 0.76047695 4.1567187 -2.467587 -2.2961192 -2.2976093 0.21425068 0.5280387
171 -0.5284469 1.6726724 -0.7498342 -0.86061597 0.12804495 0.7785535 -2.3341138 2.8456745 -1.0295835 2.838491 -2.5645995 1.7092701 3.244944 1.020138 -1.0404297 0.42202434 2.031919 1.0894079 -1.3533987 -0.14570902
85 -0.6944666 1.7089367 0.46728507 0.5099784 -1.6235976 0.46302694 0.5513204 1.3688904 -3.7756577 2.0850608 -0.25684524 -1.4635675 -0.0433694 -1.1070849 1.3898772 1.4800979 -3.9597669 2.0423136 1.905489 -2.0251844
84 0.6264113 -0.82399327 1.4221965 0.5918788 1.0506816 0.42439163 3.3169808 0.5911035 5.8603687 1.0156585 -3.0067418 0.9834615 -1.7213123 -2.0667658 3.271434 -0.83280593 2.0412738 1.7850758 1.5041065 -1.0401497
246 -1.7959771 1.3650373 -3.5109196 1.6081694 0.01702824 1.1063416 3.2918887 2.168268 0.6364145 -0.16887327 -0.49413544 -0.25386682 0.11431017 1.639568 4.074734 -1.7822993 -2.4991002 -2.0649743 -0.109234504 0.36401606
105 -3.6185882 3.5581148 -1.2726189 0.80697536 0.49542 -1.2739792 -1.016355 -0.32972717 0.5264291 1.3188546 -0.8207854 -0.9525605 0.19028708 -1.8552512 1.3040644 0.7090635 0.9029913 0.34803072 -0.06596353 -2.8895812
151 1.1964595 -2.345226 -2.6304696 1.8245128 0.819696 0.6095395 -3.2431788 2.0226367 -0.2614626 -0.586681 3.6079032 0.014213916 -2.6187873 0.37483868 -2.8578808 -1.6287507 0.6239369 1.3596225 1.2199143 -0.8056448
100 -0.48498505 1.8999028 0.1230395 -0.9354843 -1.667087 2.88997 -0.24136984 1.7595884 -2.3609748 2.30711 -3.4713984 2.689499 3.8974137 0.04667446 -1.1898658 1.167444 1.2271584 -0.46461618 -0.8771207 -0.4283093
178 -1.6434422 2.6952589 -1.6344249 -4.1095557 0.82334477 1.1859859 1.827271 -1.4535154 -1.2012239 0.26045045 1.3975402 0.4381355 -3.7259204 3.3487828 2.1364412 -1.9948714 -1.4585193 0.17135133 -3.025241 -2.689676
66 -2.4920983 2.023342 2.0630832 0.6569983 -4.073678 0.36171877 1.8006039 0.38060454 1.1648647 -0.48054495 -0.8953654 -0.8357073 0.84960407 -0.7109049 0.78424037 0.2736286 -1.0714004 -0.46685785 -0.41686594 0.58496064
196 1.5796473 -0.008585309 -1.2110059 0.18141809 0.69237846 -1.0570428 1.5426726 -3.875949 -2.3128543 0.46400675 -1.0239542 1.2145574 2.974711 2.1909232 1.7478749 0.7181041 -0.5246633 -1.15359 1.1427608 0.69878834
87 -1.998569 2.2664526 -3.2100856 2.6358933 -0.21147366 1.1579106 1.3092176 0.78618014 0.896353 -1.6013705 -0.2876012 -0.59576005 -0.4084944 1.8054339 3.2788973 -0.44441915 -3.451561 -3.0740561 -0.7219059 1.2064974
176 0.64316297 2.2600977 0.8282794 0.64985234 -1.1337225 -1.1362792 0.43304372 1.5988126 -1.9623795 2.270789 -1.8537934 -1.008878 0.8724244 -1.9520712 1.6107538 -0.8091319 -1.4413357 1.792291 0.7402224 -2.0581384
102 -0.3336284 -3.1306021 1.4613569 0.4131883 -2.3761394 0.361475 -3.622666 -1.0713745 0.14715795 -0.38958168 0.5598729 1.6265929 0.8137154 -1.9140528 -0.4727705 -0.9997188 0.19137815 -1.3753474 3.3763156 1.568749
32 1.1946307 -1.7911388 -0.39391816 0.91008294 2.5970728 1.0580051 -2.3089738 0.47375435 -0.7819562 0.46299013 2.426269 1.3732628 -1.5741202 2.088755 -2.533582 -0.3440685 -0.51700896 3.9510133 1.2994356 0.4808414
274 0.3336476 1.3433977 1.1392953 0.4720433 -3.2504585 1.6769787 1.1738843 0.971483 -3.0945783 3.0897264 -0.48778132 -0.5601735 -0.73891044 -2.5574677 2.9393864 0.6710399 -1.8656955 0.98839104 1.8327167 -0.68890756
314 -1.1879154 -1.3750577 -3.2528265 1.4226556 -0.9031425 -1.3200424 2.3742204 -0.39223203 0.6297922 0.4565636 -3.861971 -0.5653628 -0.7946264 -2.845208 1.5246072 2.6984727 0.67670536 1.903063 -1.9877967 1.3235052
290 0.0030853434 2.2586923 0.20015669 1.0443629 -2.094429 -1.4183439 0.5925412 1.6634133 -1.3162293 2.51003 -1.7953986 -0.99400216 -0.2571412 -0.17183967 0.70284826 -0.08344699 -1.3340816 0.6846623 1.4828131 -0.42485866
36 -1.4807371 -0.34006575 0.91331935 -0.97756284 -0.3996649 -1.1483421 -0.732172 -1.7426494 0.28175297 0.04899889 2.2888997 3.4591417 1.8859338 0.87380093 -0.34801465 1.7331084 -2.2518015 0.40871397 -0.18217406 -4.5730147
86 0.6454176 -2.4271805 0.82731736 2.0042896 -2.3454795 0.5092896 -3.2862144 0.2589349 0.81051 0.35203746 1.3312923 1.4739565 1.6854328 -0.6405112 -0.26538047 1.2208334 -0.80150723 -0.24587998 2.9612103 2.9400392
29 -1.24708 -0.48433778 0.13613623 -2.74041 -0.37776023 0.9359062 1.6280712 0.46227035 2.3280034 1.7890725 0.59546214 -3.8899689 -0.089045286 -1.0881139 -2.0685968 -3.4232538 -2.6843095 0.8346946 -3.815607 -0.08636991
75 -1.2998048 1.880233 1.4680542 -0.45720148 -2.049812 0.3964299 0.53304833 1.5555722 -3.2026613 1.7306355 -0.39037788 -0.7084856 -0.3206047 0.7601132 1.6299473 1.087029 -3.2526097 2.2526016 1.770677 -0.2018226
269 -0.10959543 1.896284 -0.9063471 -1.0502988 -0.4119591 2.3988917 -2.8433664 1.5496843 -3.2461438 2.2467036 -2.8990567 1.8976904 1.3960491 0.8630629 -2.568892 1.9520553 -0.6469766 -1.7219849 -3.2734892 -2.3366475
327 -0.031758398 -2.2235937 -0.53523153 -0.08554118 -3.3289483 0.43783054 -0.8238589 -1.349606 -0.019237546 -0.16771732 3.0073323 1.8409501 -0.7318675 1.6405532 -2.0421169 0.42985037 2.2092125 1.1924171 -0.1836206 2.6905043
166 -1.367423 -0.30324757 -0.17327914 -0.82286876 -0.016617393 5.33668 -0.37682688 -2.254274 0.9001317 -0.18204086 0.46848157 -0.27311566 3.2210507 1.6896893 -2.471892 2.3033946 0.6331568 -2.1889005 -0.32787132 -0.76553595
121 -2.948774 3.475884 -0.88447917 1.3899826 -0.3965211 -0.87711906 1.4719193 -0.704552 1.0262145 0.21586232 1.7899765 -2.0676532 -0.7977801 -0.5643863 0.5456788 -0.59898674 2.9014714 2.1053994 -3.698218 -2.5071867
217 -1.6866823 0.9947193 -1.2927895 -2.5744836 -0.057783045 0.38412276 -0.47979987 2.91711 -0.31330273 1.4111751 -4.0181475 1.1621592 3.4830415 1.5624673 -0.3337208 -0.89632803 2.555522 0.7274656 -1.0754646 0.3791176
201 -0.66700464 -5.0679045 0.49063876 1.4115732 -1.1678971 1.8045524 -0.33633786 1.1808805 -0.20458344 0.3822836 1.3939763 1.2179241 -0.52957666 1.3462783 1.6722039 0.824126 2.1382046 -0.26203817 0.28067508 -1.6699
222 1.9878505 -3.2646801 1.3462259 -0.74921024 -2.1355505 -0.15370646 1.9558815 0.91869605 2.2660458 -1.607536 -2.8738697 -2.1771672 -1.6136024 -1.0587821 -1.5190458 -1.0055426 0.22642708 1.0543061 -1.2518106 0.015515994
156 -2.3664336 2.6511405 -0.15735474 2.2523003 0.62569934 0.1145099 0.23367037 -1.1644962 -3.7197495 -1.124392 1.3282745 -0.03801352 1.2690026 -1.361298 1.8722408 -1.714964 -5.366962 1.2416791 0.6066946 -0.5216465
182 0.77410084 -2.104016 1.5485309 0.4596388 1.1335545 2.164409 -6.1033845 -0.40094575 1.2729412 -1.3265859 0.3679371 1.6956805 -1.6479523 1.2774678 -0.583288 2.3964405 2.4701076 1.5713059 0.64460826 -0.9740782
135 -1.2362027 -0.26088482 1.2106005 -0.7097879 -0.33846778 -1.0392367 -0.39265445 -1.9621443 0.45818266 -0.09396425 2.8581135 3.1051946 1.7045349 1.0672295 -0.72107136 1.4640898 -1.9569521 0.5849505 -0.3606796 -4.7524467
309 -1.0816263 -0.3391207 1.1601971 -1.2349839 -0.71546173 -0.8064897 -0.3026711 -1.9849267 -0.168712 0.38585997 2.6822898 3.079193 1.2083348 1.0641874 -0.6731382 1.568442 -1.7095748 0.47036776 -1.3582804 -4.8855524
22 -3.6551929 1.3870668 -1.9800588 0.60822344 -0.20651405 -0.7700111 -0.76907897 2.9299967 1.4099479 0.5458449 -1.2805631 -2.4596226 1.2025949 1.761948 3.8554606 -2.8512607 -1.4722384 -2.2870576 1.1185466 2.4733188
341 -1.7505617 0.40531912 0.74489635 -0.8565846 -3.1192465 -0.59707737 1.1263365 1.407824 -2.5832639 0.9019511 -1.9690729 -1.1958439 -2.013688 0.6007447 1.9631178 1.024471 -0.92428863 1.6713614 1.4669383 0.42490757
44 1.5570277 -0.14520584 -2.765941 0.7134206 1.3761135 -0.035052676 -3.4286299 -0.62106305 0.040588107 -2.890296 1.4579594 2.0454993 -0.4094411 0.06898301 -3.7883728 -2.0327208 0.6038834 1.7541891 -0.6486191 1.3156482
45 -1.3791268 3.3552034 0.31369263 -2.3942473 -3.0436087 -0.90670806 2.897574 -2.3254318 -1.0416168 -1.3806736 -0.79075766 2.1378632 -1.9821169 0.91604215 0.78733355 -2.2613766 -0.493614 1.2560828 0.8476513 1.6014847
46 1.1412754 -2.0388806 0.80385584 2.012685 -2.4506845 0.9428421 -2.9628403 0.22016801 0.92405987 -0.39082897 1.3708291 2.0558708 2.1421165 -0.2871023 -0.15607242 1.2503954 -1.0498877 -0.43560368 2.3245356 2.9924643
50 -0.78643036 0.572928 -3.6692884 -1.8610547 -2.576434 -2.0631795 -0.14723657 1.2373396 0.3561174 -0.0484514 -3.6231625 -1.6201926 0.8001528 -2.9527233 1.4827576 0.030953486 0.62243396 -1.0268244 -2.0134454 -0.9058624
168 -1.9619124 2.1972194 -0.31014645 1.2885382 0.03359828 -0.65490097 -0.8253429 1.9784682 4.067151 0.38071582 -1.1577501 -1.8077273 0.22585405 2.7070363 4.2173414 -1.5215651 -0.6542086 -0.94860876 1.0875093 3.2292662
189 -0.5795313 1.7290785 0.07934386 -1.1967065 -0.6238679 1.0794014 -1.1650448 2.1258893 -0.9263242 2.0901186 -3.5479565 1.7408284 3.0643537 0.7442826 -1.1612508 0.08390329 2.8419275 1.5120351 -1.3999038 0.5848986
65 -3.214335 -2.7708347 -2.2384272 1.4033004 0.18986614 -2.1778994 2.6971614 1.7440989 1.6366936 1.7209998 -1.9925257 -2.2184784 -0.31549835 -0.69747007 1.700319 -1.6264242 0.36615762 0.050463766 -0.8006472 0.5010559
165 -2.5840228 3.737679 0.7677687 1.3622605 -2.9152143 -1.0666649 0.59679157 0.51709205 0.8830236 0.657187 0.9547814 -1.3746967 0.4135017 -1.0151653 0.54228115 1.0868877 1.2307528 2.2811315 -2.9832509 -1.2168231
64 -0.8047935 1.2541997 -0.545626 -1.6535695 -0.46165258 0.26176548 -1.2078683 2.068854 -0.117945544 2.1179774 -2.8060155 1.9471252 3.2523086 0.9059124 -0.9465418 0.053322285 2.4521492 1.4403387 -1.4884027 0.38351643
253 0.89814043 -1.2151189 1.2695342 0.62782663 1.2627906 2.051694 -5.123871 -0.5361995 1.540377 -1.3454587 0.87133384 1.0646161 -1.5291595 0.2883721 -0.21302363 1.6078266 2.6721103 1.3598199 0.10292536 -0.88043493
174 1.6629182 -1.4721133 -0.5409475 2.275691 -1.4831516 -1.6516246 -3.7145963 -2.2486725 -0.809361 0.673326 3.1448839 -1.8832237 0.6308391 -0.4156732 -5.69992 -0.84148735 2.0928783 1.6352048 1.8043139 2.9473784
260 2.6902475 2.0000074 -2.2007754 0.40310794 -0.7217129 -1.834369 2.3954847 1.5331308 -1.815712 0.02230968 0.37550604 -2.6741052 -1.7320032 5.654972 3.599804 -1.3575468 1.9236703 0.38550943 0.18019386 -1.2107042
79 -2.4084232 2.7477689 -0.09178633 -0.20646691 -0.72943854 -1.1650354 0.6376668 1.0833274 -1.3222374 2.3308263 -1.6820291 -0.52479565 0.85371834 -0.031246385 -0.3898847 0.28593242 -0.8543096 2.1505268 0.7221897 -0.3322973
73 1.3628929 2.0254014 -3.4641807 -2.136461 1.9580654 1.3964204 4.22308 -0.77215934 -0.20713271 -0.27431992 -2.2720022 -0.57983077 -0.533097 1.2304183 -0.613848 -0.17584722 1.3638719 -0.33884463 2.9251204 -4.694179
318 -1.4357744 0.09365541 -0.28063455 1.6252744 -1.6275513 -1.4472729 2.2399962 -0.50997114 -1.3777748 0.93928427 -2.429723 0.44742662 -0.10894795 -2.545295 0.90761524 -2.1302018 2.8458624 0.761843 -2.636293 0.09326425
146 2.607411 2.0211418 -5.263487 -0.33414093 -0.7106667 -3.0301292 -0.20575403 -0.35881516 0.063289024 0.22806522 -2.558179 -0.6123978 2.220679 0.25738367 3.75008 0.19910516 0.5507027 -0.8144837 -2.6633677 1.5983238
139 -2.1408272 -0.63305014 1.5289513 -1.4540635 -1.1745512 -0.89339143 0.17252952 -2.698005 0.6070535 0.12484832 2.6625655 2.4527247 0.9096474 0.6256298 -0.6044974 1.1992056 -2.8342607 0.04219514 -1.0530001 -3.897583
97 0.6320523 -1.0261054 1.7861434 0.51247203 0.63168806 1.7852079 -5.3878264 -0.23472877 1.4679416 -1.2511405 0.5968848 0.9127579 -1.6535323 0.14844662 -0.13727449 1.8327571 2.177661 1.0398164 0.33874235 -0.8567177
83 0.2739414 -1.5916204 1.0706618 -0.09500264 0.11942391 -0.2306694 0.31279302 2.1807828 5.784958 1.0946126 -0.38019612 0.8787919 -1.7902534 -1.9031335 2.3718977 -1.5274986 1.4161037 0.9120108 4.0975566 -0.4745795
268 0.62301606 -2.296696 0.2926741 -0.07640227 -1.09609 -1.150099 2.6464708 0.8066185 -0.20630024 1.1178002 -1.8833988 -2.4683387 -0.2207729 -0.6373294 -0.87755996 -0.6129092 -1.8789188 2.610235 -2.6210997 0.09305282
237 -0.23610155 -1.709381 0.93491256 -0.01850602 -0.11549919 -0.11061272 0.40001464 1.767188 6.009739 1.233433 0.13944472 0.7243466 -2.0074842 -2.12229 2.214736 -1.4925493 1.2918818 1.1767796 4.4290595 0.1970934
298 -0.3747971 2.0840144 2.2631087 -0.27075467 0.20028459 0.42659613 0.85041773 -1.4869912 0.8616788 -0.057469424 -2.9530272 -1.5555849 -1.4806834 0.31322336 0.11215549 0.99405843 -2.0462098 3.5328116 -2.6767578 1.6344463
307 1.4349197 1.78803 2.7802296 -2.0634484 -0.9431586 0.9090442 -3.2493222 -1.2920103 1.1533173 -0.94812083 0.03771144 -1.2736657 -3.9589884 -1.3978871 1.0943153 -0.03669764 -0.6250501 2.69262 -1.8329874 -0.1250081
51 0.060502198 -1.562629 1.1458594 -0.10012896 -0.09783598 -0.11637824 0.46013707 1.4973207 5.2320366 1.4046464 0.08662561 0.4715831 -1.8914804 -2.00091 2.094289 -1.203155 1.512774 1.0707017 3.852297 -0.5289719
295 -3.6133318 2.8974743 0.68327457 1.2619092 0.4751269 -0.6982143 -1.3104041 -1.943815 -1.8805689 -1.0420126 -1.9066651 -0.8912304 -1.3296959 -2.8106232 0.03024044 -1.2947576 -3.5454826 1.6500047 0.37102887 0.5996317
96 -0.8588451 -1.868538 -0.083090164 -0.30913454 -1.5560356 2.4714687 -0.43463358 0.43704656 -2.4518187 1.4697433 -3.2261536 -0.7033878 -3.1452332 -2.5820572 5.6036496 1.9948922 1.2382216 -0.06760271 1.0643922 0.20333779
38 -1.5319762 1.8692309 -0.52268434 -0.2818921 1.5975986 0.09770863 -0.074696764 -0.33698964 -0.23842555 2.6185868 -1.071434 -0.8414657 -2.854251 4.571127 2.5725377 -3.0307455 -0.18723276 -2.3149295 -2.456817 0.73244214
69 -4.505299 2.8896472 0.67682195 0.94083196 0.646974 -0.6143263 0.689405 -0.10027706 0.43856564 -0.07328219 -0.31982774 -1.9381034 -0.1097632 -0.83837783 1.5801343 -0.23846607 1.685548 2.5999732 0.6882816 -1.7886266
163 -0.6164148 1.5200868 -1.2809548 -1.2982333 0.4586167 3.366101 0.3349138 -0.70237905 -0.5902891 0.97361875 -2.8054693 1.4120191 6.4950123 0.60654986 -0.9191898 2.4819384 3.203147 -1.7088035 0.004112213 0.092419036
81 0.8757468 0.07884594 -0.49470425 1.000782 -1.3084823 2.6108177 -2.7609925 1.1219177 -4.0082054 0.29916492 -2.9948206 1.9810092 0.22187635 -0.13253029 -2.4328513 0.4141775 -1.0153874 -1.2381806 -2.579222 -0.7853321
10 -1.1249415 3.0288677 0.59759355 0.57618517 -1.7275267 0.08072125 0.56536293 -0.68936735 0.14840211 3.8440385 -0.71128607 0.13647121 -0.52242774 0.44128993 1.3185613 -1.4152426 -1.0619357 -1.5046148 -0.13705955 2.0611749
202 -1.8191739 0.94617766 -0.24979536 -2.0005596 -0.04967667 4.807391 -0.7184845 -0.8718687 1.0153968 0.69193625 -0.4127521 -0.7945222 1.3282174 0.8375289 -2.6601818 2.0479188 -1.0272176 -3.024616 -1.7941734 -2.043329
152 -1.2037729 0.24439259 -1.5474125 1.7528944 0.05711039 -2.2946067 -0.6636084 2.0194707 1.9319386 0.41269094 -0.027958717 -1.118398 0.3130353 1.764143 2.0669627 -1.3953073 -0.5513078 -1.150793 -2.0917752 0.8771312
54 0.7316816 1.7512928 -2.0047696 -2.4409652 -0.26543516 -0.25545624 0.17730118 -0.28019467 -1.8508991 0.51283836 -3.5680187 -1.6035062 1.9540759 2.9042444 -0.67250556 1.5434952 2.2793052 -2.6900527 -2.0143442 -4.6798034
241 0.7059684 -2.9294837 0.41916022 2.9753685 2.1397464 2.0015976 -1.3686957 -0.03686317 -0.10499918 -0.8177738 -0.40285876 0.16185445 2.720388 -1.8703412 -0.5388312 -1.8064793 0.5174042 0.8435556 0.661994 -0.9979152
16 -0.8799149 -1.0666829 -1.1207212 -1.9989696 0.2527247 0.7630319 1.4903451 0.7807952 1.0131642 1.727596 -2.3716555 -1.8564781 -0.18293789 -0.6823957 -2.6687124 -1.6984936 -2.2255173 -0.33600447 -3.7775345 -1.3274804
255 0.5509292 -2.9313388 0.506127 2.9840555 1.9328849 1.7844006 -1.3123647 0.15878242 -0.28730613 -0.8845691 0.09160845 0.13363364 2.253657 -1.15763 -0.48309332 -1.4245611 0.59729385 0.93057156 0.7089859 -0.6555263
220 0.3922609 -2.9813805 -1.8823091 2.5258663 0.10603353 -0.35464454 0.55173784 -0.7488702 -0.95424837 -2.7386875 3.0966535 1.2519931 -0.7157987 -0.5757973 -2.4269512 -2.8352323 3.2749255 2.2871451 1.3873489 0.2110198
289 0.5266596 -1.6009674 0.90130913 0.7649164 0.21047191 0.47145084 -3.537603 -2.1849318 -0.9513771 -0.42145935 2.1148078 0.63375044 -0.056690916 0.14629322 -3.283519 0.868312 1.6446131 2.9101844 1.1294647 3.3697498
71 2.2164528 -0.28943664 1.7817401 -0.892864 -0.5616414 0.8283525 -3.9569664 -1.1223285 0.9546251 -1.5686407 1.119256 -0.3411459 -3.040686 -1.0335838 -0.11094579 -0.6982518 1.05772 2.9606364 -0.7031441 -0.24724126
300 0.4197969 0.0717295 -0.1871823 -0.7266636 2.212812 0.8836272 0.7303305 -3.307732 0.76990825 -1.4093158 0.9556647 1.0033662 1.9596848 1.7256823 0.015776793 2.2693703 -0.31180274 -1.0237261 3.0761323 -5.1355915
344 -1.1216724 3.876022 1.3896501 1.1456954 -0.07882446 -2.374132 -0.81063205 -2.685731 -0.12882936 -0.9535857 -2.1815317 0.7175196 -0.9689075 -1.308917 -1.4416814 -2.5182486 -1.9191597 0.31817523 0.5704018 0.21372178
106 0.12835844 1.2455207 0.123235516 -3.3295743 0.346237 2.405669 1.5455804 -1.6739107 0.17456323 1.6497607 0.50737727 -4.0224895 0.28761625 0.3746521 -1.5165073 -3.6616068 -0.68787324 -1.9627229 -2.2062495 -2.1360002
124 3.4108815 -2.5103061 2.106204 -0.7246702 -2.4607096 -0.6449757 -0.49366173 4.0083685 0.086114325 1.4354135 -2.0687928 0.23004074 -1.2614442 0.2923293 0.58007705 0.51011604 -1.1483485 1.8104817 3.1242068 -0.84020007
58 0.18409579 0.18519646 -0.035573706 0.8335228 -0.58872765 1.7406744 -3.615548 2.5570486 -3.1486516 2.254139 -0.96268946 2.1667666 1.7015694 1.3608292 -2.2225475 1.178124 0.7792624 0.7448592 -2.56035 -1.663038
262 0.11042156 -2.8059967 -1.6769692 2.7538226 0.6741991 -0.53076565 0.4197987 -0.76163816 -0.8682146 -2.5981874 3.1368349 0.7895804 -1.1202327 0.1802709 -1.9860567 -2.8230906 3.5450354 2.3670516 0.91285765 0.11832101
126 1.274303 1.9342469 -2.7596128 -1.1268945 -0.52859527 -0.47387704 3.3955986 -0.5427143 -1.2907567 0.0016962643 -0.34970823 -1.9978205 -2.202654 3.8454347 0.4952612 0.023863735 2.3246973 -0.3397073 2.2603967 -3.6886747
60 1.7585338 1.6487015 0.31352344 1.8955448 -1.0590854 -1.3604414 1.3044639 -1.2799726 1.4933205 1.4939189 -2.1852615 -1.7764521 -1.5094737 1.4517828 1.4045508 -0.43817702 -1.2429994 -1.0762136 -1.391008 1.8217001
112 1.1012304 -0.87546664 -0.106329225 1.8265316 -1.0548944 -0.9704737 -3.4723234 -2.1184504 -0.64299214 0.42780033 2.4982824 -1.361414 0.4402234 -0.32675496 -4.5598035 -0.4242947 1.7047354 1.3137835 1.1270711 2.6301785
221 0.38001806 2.2529497 -1.442822 -1.5719588 -1.9748045 -0.13435972 3.367989 -1.6691743 -0.61477816 -0.18218566 -0.6650485 1.3808185 -3.0770466 0.6904773 0.28328052 -1.1655365 -0.3851239 0.7979331 0.7526862 0.69543266
61 1.9818449 -4.675759 -0.6770687 -1.4429073 -2.2105558 1.364436 -1.5907038 2.749521 2.28004 0.68155646 0.33316043 1.7432594 -1.5197479 -1.1816703 1.3548418 1.1139486 1.7567418 -0.13539582 1.4645786 -0.74019784
347 -1.5448176 1.6013367 -1.1663861 1.6173024 0.4682229 -0.04395952 -1.1162375 3.4752266 2.7102656 -0.24539894 -0.7944373 -1.3381218 -0.21899515 2.921385 4.0411043 -1.5023067 -1.2994181 -0.006348464 0.71682125 3.000529
157 3.2740157 -3.560674 1.6077706 -0.33712697 -1.7758627 0.36695397 -1.8679409 3.526197 0.9097923 1.2403772 -1.9441817 0.46484736 -0.9048318 0.7386307 -0.48515552 1.376214 -1.0066541 1.7832667 3.067115 -0.7543588
129 -1.2906622 1.082959 -0.5543362 1.8740022 0.78597045 -0.22910361 -0.31468457 2.667657 3.9150114 1.5499154 -0.9914149 -1.2519428 -0.70063573 2.2273943 3.941871 -1.4111949 -0.45379478 -0.32117206 0.9481432 2.5951684
317 3.3782206 2.5970488 -0.86567456 -3.1344664 -0.47813648 -1.2659178 -1.0509427 -3.577 0.7221967 -2.2778008 -2.1176245 -1.9461038 1.2836719 1.5693109 3.9583023 -0.2702227 1.482082 -0.48724234 -1.1412365 1.3727758
155 3.0206358 -4.432604 1.1231216 -1.0206472 -1.6979237 0.378205 -2.117805 3.711753 1.5079331 1.1862842 -1.4063901 0.44715938 -1.1466963 -0.2562592 -0.6879011 0.7100733 0.068286985 1.5208077 3.228559 -0.65707856
52 -0.02687403 -2.5083067 1.4932365 2.4228349 1.9832217 1.7864182 -1.1619896 -1.5695544 -0.06481129 -1.520023 1.0497453 0.12278766 0.9157255 -0.62714875 -1.4034986 -2.0035286 1.2609676 1.9005644 -0.2332456 -0.11406385
77 -0.26680735 0.9650721 1.0808599 -2.6465392 1.0476716 1.4134549 -1.7371907 -3.1164742 0.16851784 4.445645 -0.19329154 -2.55368 -1.2153035 0.69614494 0.9657708 -1.984424 -0.25269267 -0.6278484 -2.6712632 1.8921461
293 1.052511 -0.8728824 -0.26188326 1.7146624 -1.1550001 -1.1261249 -3.0089486 -2.3359911 -0.9437168 0.6300881 2.336082 -1.286592 0.8320587 -0.21423915 -4.654886 -0.6031668 1.8326112 1.1899683 1.1463394 2.6763198
338 -2.7709193 -0.3690912 0.58929884 -0.6030419 -1.5449746 0.3689056 1.6282631 1.8252306 4.8521304 0.70983243 -0.08011618 -1.5433607 -1.4881109 -1.2142491 -0.2928399 -1.8348007 -2.310795 -0.2334691 -0.42321554 0.15564255
208 0.30289745 2.7942693 -0.5465411 -0.34968016 -1.0457541 -0.36931542 -0.81684417 -0.5237451 0.2423138 4.160166 -2.0342133 0.73618793 0.362137 0.524658 0.7261577 0.28857774 -0.7879828 -1.8576716 -0.63561517 1.3506564
229 0.3299569 0.80693203 -2.2746708 -0.68487644 -3.072914 -0.27133605 -2.6857865 2.214879 0.43172842 0.6193727 -2.5435085 0.6046604 -0.3965687 -4.0942907 3.507032 1.3946564 2.2007954 -0.027584186 -1.1565228 0.0037050128
205 -0.038679782 -2.3898296 1.1362579 2.232357 1.8312874 1.7430913 -0.676721 -1.5845231 -0.09694486 -1.3183783 0.9489421 0.29790404 0.9998222 -0.7350198 -1.4251165 -1.9250259 1.2378963 1.804648 -0.011883522 0.11602874
340 -3.2294054 -0.4519587 -3.635203 -0.08991961 0.81229895 1.5455383 1.1184007 2.4289482 0.17113045 -0.82104915 -1.2463539 -0.42033964 -0.31629017 2.2849376 3.6376224 -1.7843167 -1.1535466 -1.902084 -0.87819207 1.3223113
117 -0.7623564 2.406899 1.011956 -0.035488427 1.5883378 0.9689004 -0.8924614 -2.3300498 0.06798472 4.4925714 0.6627498 -1.6958971 -1.1890873 1.8948112 1.1634977 -2.3898168 0.15013722 -0.48510286 -3.1859016 1.5984051
311 0.6940509 3.0821671 2.322331 -1.5689304 -1.9504293 -3.3124163 -1.1847694 -1.9058259 1.3977938 -2.063024 -3.2923186 -0.3195763 1.366656 0.34080026 -0.857913 -2.0178633 -1.7502801 -0.2204773 -0.0012703029 0.4798455
301 -3.267847 -1.0456427 -2.0967166 -0.78681165 0.5327192 1.9015384 -0.8840862 2.7428937 -2.452645 -1.4333504 -3.9718933 -2.9985607 0.47507668 0.82128286 -1.0538256 -1.6525557 1.1236919 -0.033484843 -0.18175629 1.7331283
27 -1.6873977 0.93215936 -1.6826763 -2.6073246 0.2641923 1.0181779 -1.5832682 1.4791648 -1.6909449 0.18321493 -3.738159 -0.98250675 2.0314543 1.5841872 -0.99373305 0.22384095 0.6896834 -2.5631275 -2.7537794 -3.3516557
321 1.0685499 -1.4943984 0.743941 1.2484648 -2.1592908 0.62180436 -2.790603 0.23839115 0.7234526 -0.41166446 0.28883347 1.3212703 1.8097821 -0.7974825 -0.22321275 0.2609232 -1.0304376 -0.87070984 2.0562382 2.5193975
286 1.3268232 -0.4325244 -0.4525476 1.4672202 -0.8374328 2.1429505 -2.7788541 0.9235017 -3.3474636 0.5895414 -2.04557 1.7777541 -0.044666633 0.15716441 -1.8864206 0.25804156 -0.67974466 -0.40035117 -1.8485057 -0.5107707
190 1.2369083 -2.198497 -1.4173578 -1.7792463 -2.0854793 1.2115325 -2.2127786 2.254024 -0.04521683 1.1185713 -2.9751945 1.4406625 -2.5520923 -4.386702 4.4440074 1.4830215 2.0704474 1.4468675 1.760107 0.42864525
283 -0.9617095 0.07231342 0.3705323 0.8546526 -1.9122643 2.2747905 3.072385 0.47550988 0.4538909 1.8105438 -0.550246 -2.762917 -0.30185136 -2.2402594 -3.696634 0.86305785 -0.6081303 1.8506179 3.2342033 -0.024411686
107 -0.07400806 -0.26517057 -0.044355784 0.024192087 -0.036418855 1.290782 -2.890522 2.2277036 -1.9791028 2.2849116 -0.63548946 1.9493912 2.6491427 1.485986 -1.7485074 0.7911304 2.094885 1.7046027 -1.7578382 -0.76972204
235 -1.9523346 1.6571534 0.29855803 3.576355 -0.18837003 -0.1196716 1.4452659 -2.7038307 -2.3082066 -1.9862801 2.2750401 0.35033125 1.6603439 -1.085197 1.2815701 -2.0856874 -3.3120766 -0.32230926 0.05850646 -0.3633792
154 -0.065539375 -1.5500551 0.21198343 -0.28037438 -2.396136 0.21619576 0.12630898 -1.4771463 -0.424312 -0.19606033 1.9402845 0.38782606 -0.52881294 1.6940548 -1.105816 0.687153 1.9257169 1.210567 -0.6703215 1.5579062
120 -1.1124457 1.1852416 -2.9217951 -0.94267327 -0.84807444 -0.26914448 -1.0469148 0.8495664 0.58973604 0.5387033 1.013604 -1.3939043 2.2594445 -1.2905029 -0.94437546 -3.9692476 -3.8199832 -1.144587 -0.91495353 2.7965586
63 0.74490577 -0.6679198 -0.6021863 1.5024452 -1.4390781 -1.8240132 1.7136003 0.48449796 0.48014936 0.6396584 -2.2500231 -0.4821892 -0.6320168 -0.32048792 -0.2388413 0.7794453 -0.5503589 1.3813094 -2.359375 0.34378096
198 -0.7024448 -1.4391974 -0.02030815 -0.256073 -0.23320428 3.9608364 -0.6399522 -1.5150969 1.1165187 -0.29495803 0.8630454 -0.28695157 1.9839195 0.9259428 -2.2296758 1.2886986 0.5812198 -1.200309 0.16666022 0.16506441
270 -1.301865 -0.6471673 -1.5899513 -1.566744 0.47867993 -0.419853 3.3805876 -0.2470401 1.7174273 1.6377089 0.5052989 -2.1499553 1.2972164 -1.6647192 -0.14341922 -0.5200235 -0.27026042 2.8219638 3.4183939 -0.40570328
206 -1.2085149 1.6417719 -1.6008224 -0.32900897 -0.38508895 -0.8678059 1.1271143 -0.00012819239 -1.2726465 -0.14364666 3.0627372 -2.7981238 -2.6313224 3.1567347 1.8849905 -1.3853514 1.9957592 1.6357377 -2.4338553 -2.7438536
240 2.6910038 -4.747687 1.2717978 -2.0768716 -3.1114283 0.0830726 0.25280443 1.2685062 2.8238716 -1.6731085 -2.3021202 -1.069005 -2.1985264 -2.2252588 0.046940945 -0.08178448 0.37204352 0.7953335 0.8730871 -0.2799197
250 0.41188306 -0.52163374 0.42572823 1.2758912 -2.238819 -1.0267837 2.5150793 1.6324376 -1.1588249 0.35028312 -0.6185311 -2.1586812 -0.81328577 1.0995183 -0.926307 -1.0766428 -0.90720576 1.1327758 -0.42424738 -0.25158018
70 1.6247407 -0.46361494 2.027756 -0.1330915 -0.043963566 1.2264826 -4.7340198 -0.4520955 1.4824992 -0.9976301 0.888851 0.2276763 -1.8104593 -0.031640794 0.12263772 0.9612514 0.9166404 1.693353 0.21281812 0.36047465
34 -0.16325055 -0.9678082 -0.4453962 -0.19937778 -0.24425626 3.6464064 -0.56922626 -1.583693 1.0436139 0.048119817 0.62873906 0.09530779 2.3242106 0.853334 -2.0020924 1.3056111 1.3026744 -1.2282174 0.28078306 0.07734894
125 -0.8143932 3.2286978 -2.4363673 1.4672674 -0.16890435 -0.3620696 -0.32895148 1.4205552 -0.9921512 0.74039185 -0.24087657 -0.09608682 3.0770702 -0.47761124 0.44431323 -2.5169256 0.48645955 -0.36008504 -2.1252527 0.5740655
138 0.3262983 -1.0985827 -0.11016999 1.1015242 -1.329301 -0.64151525 -2.3281088 -1.8236732 -0.7111446 0.04035266 1.8845506 -0.52263165 0.17905231 -0.7159468 -3.1777127 0.21105927 1.3289324 1.0508691 1.0950619 2.3200285
47 -1.9915568 -1.5911676 -1.9867557 0.293633 0.500647 1.7817938 -1.5500419 2.0612383 -2.0776753 -1.3411708 -2.6485705 -2.1734383 0.17739186 0.6313361 -1.1795809 -1.5448811 0.8674157 0.35476854 -0.29691768 1.6391312
247 -0.58426243 0.37575114 -1.890162 -1.382591 -0.33542362 0.79918057 -1.1108024 0.41448933 1.9468647 1.1034256 1.3467541 -2.0659084 1.6167339 -1.4568683 -1.7776043 -4.207548 -3.2967873 -0.4355407 -1.6276873 2.5790055
288 -0.18534414 0.8543721 0.20760986 0.4110196 0.75053173 0.22143488 1.2983123 -0.6177257 1.2265652 0.09794933 -1.1726388 -1.5054661 -0.21827467 -0.12513061 0.25974873 -0.081939675 -0.08819332 1.2426219 0.04731174 -0.12604797
35 0.9417279 -0.9225135 -0.049523648 1.3352082 -1.9187739 0.64893633 -2.3907888 0.5700097 0.36859596 -0.3234189 0.39731637 1.0181527 2.2552245 -0.34209487 0.23928005 1.1299522 -1.2671258 -0.58123267 1.211075 2.1665897
267 1.7289774 -3.1948574 0.63741326 -1.5182272 -1.3911932 0.9606925 -1.8519093 1.7383332 2.2971096 0.21915925 -0.28513634 0.656696 -1.5497847 -1.3666409 0.44817546 0.3604997 0.8921421 0.77495635 2.5817962 -0.16466884
76 -0.6862459 0.13276885 -1.1784613 -0.5041427 0.6152468 0.62758183 3.0488467 -0.32004485 2.1099195 2.0629284 0.48186088 -1.491828 1.3181603 -1.9044192 -0.31024688 -0.34583527 -0.18528306 2.5456364 3.4608006 -0.3620306
216 0.52102536 -1.4607298 -0.7491398 0.5782255 1.4872054 -0.8715161 -1.3674834 -0.31713757 -1.3233067 0.33698928 1.360183 -0.24152665 -1.7031116 2.3952324 -1.5540882 -0.30181482 -0.20321472 2.9482071 -0.6969735 0.10266136
228 -0.21068539 0.7417657 0.6078349 1.4507618 -1.5312077 2.4428594 1.919022 0.14146096 -0.23635547 2.0459826 0.41283906 -1.9376884 -0.46251816 -1.55141 -2.5754669 0.91347134 -1.1908742 2.109952 3.5493288 0.7063594
191 2.407179 0.9318192 -1.2589903 -0.10385961 0.87143964 0.75368404 0.17559925 -2.6769936 -0.21983856 -0.759591 -0.903659 -1.3522922 -0.83302563 1.809359 0.6610267 -0.20085968 0.68478554 -2.5428004 1.6899284 -1.7548561
279 0.3512293 0.74794424 -1.7095164 0.8457953 1.5854256 0.26634827 -1.8040388 -0.5594537 0.1576599 -0.91328585 0.7162865 0.97291905 -0.35341898 0.48281798 -2.787964 -0.7312742 -0.59497255 1.4942852 0.23106016 1.0552303
305 0.45634598 -1.3719392 -2.3827386 0.81475955 0.16422424 -0.3314215 -0.5282582 0.59445804 -0.49834308 -1.5175304 1.425083 1.0684512 -0.830035 -0.1973418 -1.6216925 -1.9636544 1.3378705 0.99627787 0.17267103 -0.4074932
207 0.6518772 1.1957629 -0.0024739222 0.95089203 -1.7681103 0.10110077 1.083779 0.2649288 -0.54133034 -0.15089554 -0.7425598 -0.7166393 -1.9606857 1.4934915 -0.09773649 0.02872315 -0.7799904 -0.21172066 -0.060123798 0.46255225
164 2.080194 1.3141795 -2.1441276 -1.1544689 -0.7316972 0.61767954 2.7093034 -2.3888855 -0.75551087 1.707637 0.7752828 -0.4626771 -0.9777681 0.52846384 -0.1262767 -0.97777206 0.064623415 -0.88175 0.26674077 -0.4472599
336 0.4249305 1.2486382 -2.0074742 -1.0412699 -0.056286704 0.043837234 2.4499073 -1.2700521 0.5302432 0.96440846 0.77751416 -1.4659903 -0.83854824 -0.174373 -0.5348649 -1.073107 1.222813 0.09410637 2.2893703 -1.7372953
294 -0.65521604 0.340558 0.8496353 -1.7770971 -0.22427037 0.2613488 -2.0027833 -2.0147886 0.26363018 2.8362582 -0.5873531 -1.8555094 -0.54699564 0.2027521 -0.64208114 -1.6473088 -0.40772563 -1.1001734 -1.1258606 2.13386
160 2.0153167 -0.18313873 -1.306551 0.7357036 -1.0162692 -1.7489347 0.25354332 1.0606402 -0.7567813 -0.3412853 0.5876603 -2.5533829 -1.2604574 3.2127976 1.7677404 -1.0377417 1.3867332 0.99670076 0.16322994 -0.97022045
183 -0.14194824 0.4269345 1.9329749 1.6045122 0.7173283 2.4932775 0.28262815 -1.212412 -1.5334127 0.72283995 -1.7486718 -0.7319476 -1.8770181 -0.28644308 2.8632467 1.3250751 1.5235094 1.5329226 -0.117500015 -0.6731574
234 -0.5146054 -0.027080186 1.2885966 1.0316395 -1.2203057 -0.60697573 0.5750283 -0.48907378 0.0015759579 0.60997045 -1.4839268 -0.39487183 -1.1131954 -0.80401427 -1.1567954 -0.83137923 -0.81837016 0.4423484 -0.2046642 0.61287564
153 -1.1826663 1.6889504 0.94398624 1.1164846 0.59424794 0.8308596 -0.44088462 -0.55148953 0.2582386 2.3387694 0.4120119 -0.87123066 -0.3757263 0.3116414 0.17319357 -0.12515357 0.88806194 -0.10953331 0.2776855 -0.555278
316 -0.26908866 0.52249223 -0.90768695 3.0987635 0.29040194 0.52577937 0.010091437 -2.5931406 -1.6154528 -2.347235 1.3711834 -0.10053764 1.1793289 0.06607167 1.1486857 -1.5165945 -1.1068157 -0.98389626 0.28886944 1.1049951
