4039 20
3437 -10.402723 0.60680467 6.783116 4.141523 -2.1176753 2.7129042 -0.9442061 -0.13290145 -3.9167619 -5.394656 -8.06385 -3.564392 1.7692702 8.403626 1.8194945 -2.085643 2.1591277 -5.2240906 -5.306768 12.599265
107 -0.31554338 4.1016965 1.5897348 4.141069 -1.6661698 9.194711 8.624573 -0.07622427 3.7019758 -2.7530084 2.7804656 1.9801817 -1.1055226 2.107899 1.3636451 -0.58713746 3.8947742 8.181063 7.4026947 -5.370725
1684 11.243725 1.5093031 -1.2563597 -0.3196182 -1.6652602 -6.345314 -3.880484 -1.3286427 7.569979 4.652145 1.042153 0.96435076 -1.5504208 13.680126 -2.909364 -1.597322 -0.9615712 0.2318023 1.5384555 3.6003618
0 5.4100385 -3.5857234 7.5095544 -6.351002 0.62148595 6.5364337 4.410918 -1.8351418 -7.0079703 -2.2317495 2.4360538 2.5548272 4.14482 1.2640061 3.191353 3.749271 -11.776446 7.910795 2.387849 4.522171
1912 2.8079247 0.27186525 -6.1269355 -5.3622828 3.8261874 -3.412216 -5.6898685 -0.69323987 -11.484404 1.6496489 -6.607694 -1.0506614 -10.257044 -7.47165 2.8587239 -0.93516123 -0.6031741 -5.157745 -5.080863 -10.371279
686 -7.6088433 -1.2410392 -2.9235103 10.010579 -2.625935 -3.4297447 3.4058902 2.792669 -1.6066035 10.610005 8.522264 1.507943 -0.84928316 -0.7704746 -5.1793156 2.7126777 -3.4553485 0.7670023 -4.1887965 -4.565514
348 -3.6154294 5.21109 1.9285182 0.42941055 -2.2322495 -9.145776 4.9439864 1.0023518 -6.075686 -6.58036 1.7934027 -1.6360519 0.4125787 1.2947896 -0.5154589 8.114351 -5.374115 -0.7449066 7.8868885 -4.6627326
3980 -2.3985057 -4.4116507 4.4956827 -2.9277432 3.825535 -6.2921824 4.2504187 0.36774358 1.6494837 -1.7280579 -3.957097 6.2015605 1.6826869 1.0475348 -3.3551893 6.4708443 6.567029 5.742799 -2.683016 1.6349126
414 -0.09601239 5.0635653 1.1799847 -1.7061929 2.3938582 -5.1032667 9.147921 1.1030164 -2.6646786 -1.7855536 -5.170133 -0.9335703 6.7884645 -3.4544587 -6.7948556 8.335122 -0.824966 2.9073405 4.228637 -8.143457
483 2.4355762 8.03269 4.427032 1.5188404 2.033238 0.45474178 11.515897 -0.20508626 -5.441346 -6.9695544 1.0894811 -1.5468979 0.9092102 5.1408787 -2.94169 -0.21225266 1.0560259 -2.4105353 5.861355 -6.262077
3830 -3.4991794 1.7011355 4.8420835 4.710108 -4.7363205 6.327402 0.81747115 -4.041817 -4.6998773 -0.21681985 -10.015159 0.8945308 -0.6815618 -0.9091426 -1.7117517 -0.9539344 0.2014845 -5.0483584 -4.495117 8.577484
698 -9.968107 -3.050844 -4.9104724 8.257738 1.917887 1.7589304 1.163058 -1.1177747 -9.3169985 6.3450217 4.587876 -2.5294137 5.3844066 1.0294487 -3.1787498 1.0820786 3.3751156 -3.881482 -0.30704546 6.532946
376 0.5672186 6.177484 -0.82047045 1.4421306 1.967658 -3.7151372 7.213584 -2.089456 -2.2014344 -5.1530194 -1.9707023 1.1548164 1.7608981 3.9320166 0.8245185 4.5905704 -3.1042075 1.3513242 2.0365088 -5.339859
56 3.3119807 -1.485693 0.8839623 -5.8779225 -1.5733368 4.2182837 -1.763921 -2.5684679 -2.598236 -4.1555047 -1.1884054 -1.5179366 0.5425803 -0.50994134 4.054294 4.1839743 -4.2676077 2.4135556 -1.3743707 1.5025578
67 4.2408934 -0.55109507 2.8663592 -6.9825277 -1.531055 4.3895144 -1.2663642 -1.0418319 -1.5184529 -1.2557592 -1.2263404 -0.9431476 2.5347917 -2.2176702 3.0990422 3.5179005 -2.4152684 2.0564306 -0.812999 2.0633414
25 3.4077272 -0.6909833 3.0459056 -2.9107316 -0.9385962 5.661966 -0.9361861 -3.1239614 -6.5791817 -1.9520904 3.2435942 1.6792462 0.41219586 -1.5980762 3.4844751 5.7932096 -0.8265417 3.0334158 1.0325834 6.828852
475 0.9763957 4.1459618 -2.080936 1.9476842 1.9908048 -2.7445467 7.209562 1.6500626 -4.2934713 -5.6005173 -1.7433361 0.86675924 0.9803753 4.3453774 -0.89901525 3.1588068 -3.057396 1.323085 2.8326442 -5.1341934
828 -4.983378 0.6437188 -0.89113164 6.751286 -1.8946198 -2.2717838 0.52100855 1.2520111 -2.5803082 7.5817933 2.0313308 -0.048800785 0.92238224 0.3026841 -1.1073515 1.7006637 3.2608502 -1.3694897 -1.8932403 -2.1747015
322 3.1926274 0.41981062 1.4633148 -3.8409996 -1.4804878 4.8776145 -1.2713072 -3.920716 -2.7493937 -1.4869325 0.27289292 -1.9458368 1.9906698 -2.9391072 4.5571027 4.2322655 -3.3279073 6.620279 -2.6255252 2.3737473
3596 -4.201896 2.1056418 -1.1413764 3.6634343 -1.317819 2.763285 -0.31708238 -2.337863 -0.4639084 -2.5798867 -6.58941 -1.5830919 -2.3774688 1.4826857 -1.1402737 0.3617231 0.60332036 -0.8413162 -7.6315002 4.702313
2047 1.0210818 -5.7105203 -0.28639656 -5.087089 3.5478947 1.2588212 -3.9923027 -1.0321215 -5.5594873 -0.13859427 -1.0744648 -7.4937544 -7.9907813 -4.9126267 -3.5843372 -1.6772195 1.509997 -1.5408534 -1.6655754 -5.1370263
271 4.210368 -1.6990124 2.466541 -4.167608 -2.7488656 3.0099907 -1.1461657 -2.55989 -2.713016 -3.1522288 -1.1741228 0.8936906 1.37189 0.5927585 3.8083873 5.6037416 -3.0020447 1.6399435 1.6032056 2.8556688
3938 -3.7121015 2.0170982 -0.45844603 3.9256248 -1.4018302 4.2652526 -1.0674394 -2.397537 -1.6995531 -1.2326887 -4.747786 -1.5512351 -1.9166741 0.97817487 -0.5581254 2.6562064 0.410641 -3.3907273 -6.557729 4.573326
428 0.5949633 4.9448776 2.187798 0.70404977 -0.21989354 -4.5300474 6.0912523 0.36739188 -4.4021645 -4.9011493 -2.8382604 3.0917256 -1.0883732 1.1250198 -0.45627144 4.133194 -0.19212155 5.2184105 1.3625978 -6.172859
3545 -3.754491 3.2285502 -0.63759094 2.4683912 -1.5315541 3.5146666 -1.2500426 -1.5464691 -0.50698185 -1.615134 -5.7339764 -0.5969038 -1.8036605 2.2643108 0.45455432 1.470356 0.8413316 -3.079235 -7.6446695 5.124019
1888 -1.9801148 0.9202624 -0.86399883 -0.73658514 -2.9149997 4.5783463 2.440297 3.83151 5.312897 -1.097963 0.8174668 1.2059042 0.23995426 -0.25241855 1.7826426 0.95445096 2.0024776 -0.94245875 1.8469448 -1.8889002
713 -4.494706 -1.6661624 -0.9133276 5.3163643 -0.19148777 -1.8869386 1.5542352 3.7842717 -1.9538958 6.6103897 4.7142153 0.19460468 2.3186514 2.655811 -0.31106183 2.0216663 0.38773507 -3.2894888 -4.298728 -3.5203495
1800 -1.4326451 1.024916 -1.8820039 -0.6357268 -3.669031 3.1139557 2.026478 3.2753527 4.7503576 -2.4022737 -0.71996164 0.5553944 0.51979816 0.6282747 -0.18877627 2.7332795 3.115801 -0.056929935 1.6253204 -3.0703986
277 2.5832098 2.1347547 1.7558328 -8.284209 -0.36378068 5.7667513 -0.34420547 -1.112117 -3.122517 0.53950006 -0.48320755 0.38876033 2.0912015 -0.93612236 0.7970255 4.07043 -4.257239 1.944407 1.7648183 4.828583
119 8.806093 0.9963102 1.3907807 -7.799126 -4.022781 2.6561787 -1.4005271 -0.99524635 -2.4146557 1.0024902 -0.9643069 4.3186193 -2.6370788 -0.2461358 2.6945615 2.988828 -4.8264136 6.698778 5.130588 -0.19225185
3604 -5.9434037 -1.2235354 1.2277226 2.532118 -0.32601133 5.735894 -0.0017819384 -3.6137693 0.14473991 -1.0381621 -5.82543 -0.19285552 -0.6700104 4.012089 1.8576353 -3.2133403 4.5704865 -4.3602147 -10.216891 2.4267292
26 3.7968874 -0.9678471 2.678461 -5.7786326 -1.2481346 3.5860362 -0.5321476 -2.3787506 -1.9789726 -2.561287 -1.7975456 0.3226213 2.1101933 -1.3242909 1.8848333 5.055036 -1.7379297 2.062944 1.3612386 3.9310658
705 -4.9266343 -0.3893924 0.046429038 5.1326966 -1.8399684 -3.4666946 1.0100635 -0.583844 -2.7082891 7.327631 3.9829235 1.364275 1.3691746 1.2576714 1.3037585 1.2805214 1.8612975 -2.1438296 -1.0635396 -3.5020387
1352 -1.3135786 1.0100443 -2.359653 -1.6779958 -3.4519367 4.484065 1.746522 2.5948718 5.5993633 -1.3353442 0.181182 0.59002745 0.029602064 -1.0571773 -0.21421425 1.5754707 2.1336584 0.1443699 0.8648856 -1.8296283
917 0.015828736 5.0586495 4.296883 1.7459276 5.200671 4.4488745 3.8002884 -3.7972667 -1.2097005 -0.088411324 3.3065991 -3.4908593 -0.7431441 2.5330126 6.9914594 -0.98852974 6.766352 2.032319 5.168415 -4.84814
21 1.914226 -1.8953632 4.778572 -8.237031 0.3114097 3.7206717 -1.653433 -0.08565367 -3.8179216 0.5027222 0.17550169 -3.0192168 3.001189 -1.9612956 3.003673 2.382224 -2.6046193 1.3353558 3.3200054 2.6624212
252 5.014564 -0.80008 2.5146658 -5.635363 -1.5630357 4.69904 -0.9058061 -0.35871664 -1.9772189 -1.5301833 -1.6619879 -1.9860381 2.2040246 -0.37760833 1.3482249 4.723866 -3.5652707 1.2978863 1.1352369 2.009276
1663 -2.8544438 1.0138208 -1.4394913 -2.0653715 -3.763714 3.776551 1.4217051 2.7184086 5.8693376 -0.97455597 0.5528425 0.66496164 -0.30324036 -1.8242844 0.99590915 1.4439448 0.8265237 -0.71732295 1.0955982 -2.0886097
3101 3.2565436 -0.8709441 -2.6999938 -1.5263897 -3.9256768 -1.6232543 -0.6963336 -3.7051246 2.394442 4.3116713 2.9122233 -1.6927978 2.8190978 4.5686164 -5.6589303 -1.3324838 0.39494103 0.95209163 -0.075493254 1.4778438
1730 -1.1107575 2.487438 -3.9185808 -0.6621178 -4.520422 3.0991762 2.4516313 2.8814552 4.847672 -2.4828079 0.079272605 0.4572249 0.031582084 -0.50426996 0.05117019 0.97935057 1.5066326 0.6278874 2.7746334 -2.1962996
1086 1.1564342 4.2627187 2.5470939 0.45762494 -2.1999817 4.9917173 6.3597608 5.5440426 1.2700411 -1.779219 1.7544053 -1.0671633 3.7622516 0.1981482 1.4550658 -0.45810598 5.0271015 -0.4424221 3.9878273 -5.6043444
805 -5.5676904 -0.22527555 -0.34496877 5.0134 -1.1581943 -2.818127 0.9960064 0.47697282 -2.932349 6.3388023 2.8950477 0.14440642 1.932857 1.4014505 -1.3716767 1.5125946 3.7623866 -2.3266833 -2.7396612 -1.7896167
3082 3.7309957 -0.5435403 -3.4247537 0.13371442 -4.126791 -4.7133055 -0.80050826 -4.0892463 0.8665663 3.7153497 0.54881877 -1.961318 2.447605 3.33015 -5.882255 -2.1404965 0.70913815 -0.44541088 -1.7229801 1.0654875
563 -2.6819534 4.280636 -1.1393099 1.6019706 1.9545953 -4.3104258 3.3862734 -1.8501135 -2.3055515 -2.5437207 1.1117795 2.101606 -3.4695354 -1.0578458 -1.0816474 8.930519 1.1919873 5.559381 5.73848 -5.530221
3291 4.385527 0.9592803 -4.6262236 -1.6662132 -3.224251 -4.346846 -2.222724 -5.2055984 0.028391259 3.610612 -0.2110527 -1.0390514 1.3867651 3.5828035 -5.4842563 -0.99447036 1.5503887 0.15798916 -1.1406715 2.6533983
2543 0.95145816 -3.8403306 -2.3558724 -3.720968 1.3317153 -1.8011891 -2.2772756 2.7579412 -2.970547 -1.4631306 -2.6002126 -5.29374 -2.0304387 -3.8059468 2.7602558 -5.098208 -3.0962117 0.643815 -3.5274074 -4.189968
122 2.781961 -1.837193 4.114337 -7.978669 0.07410453 3.466445 -1.5222936 -0.3420198 -1.9676695 -0.53740156 0.77200854 -2.598203 3.0024898 -1.6412468 3.86653 2.5328984 -1.9024422 2.6699111 0.5921631 1.5441239
1431 -2.1988757 -1.6849961 -2.8365984 -0.43809614 -3.559347 5.5568132 3.6715362 3.2805479 5.397786 1.1288105 1.4130977 2.667711 3.349389 -1.2881129 0.52186114 -0.23500443 0.87649834 1.668711 0.06358628 -2.2743535
719 -4.4071226 -1.1132357 -0.120510906 3.9468434 -0.883771 -2.2571235 1.2913449 1.3466494 -2.5828264 7.1547236 4.120893 0.9872725 3.01205 0.9259711 0.095673636 2.0586634 1.587098 -2.1529858 -1.4504712 -2.375436
3397 5.4610357 0.3186987 -3.8160822 -1.6052277 -4.3409476 -2.5660713 -1.0956115 -3.4711847 0.29745778 2.7942839 2.1889524 -2.3489003 2.135033 5.5293627 -3.836447 -3.7587762 0.7201738 0.8643649 -0.57182586 1.0069005
412 0.06777667 5.354345 -1.1853601 0.94101477 0.32729113 -5.6909223 5.9004197 0.5936297 -2.3674796 -3.6126158 -1.5586734 0.44764483 1.3298897 0.23577814 -3.7228878 4.0867653 -1.233891 -1.6064788 3.4565985 -2.506348
637 2.363634 5.216418 2.0382202 2.7382152 1.9190235 -0.32516432 10.964859 2.7745936 -3.1909688 -4.0946465 -1.2526506 -1.6635586 4.8089514 2.5354397 -2.5900466 -1.2975907 2.8517675 0.66235864 4.8574657 -7.4312778
2951 7.2704606 -0.22793265 -3.4747639 -2.3355205 -0.22985013 -2.985804 1.006981 -2.5543678 0.7441913 2.159131 -0.031994436 0.31648627 2.4531112 5.114308 -5.5037966 -6.1566887 4.6518426 -2.3120406 -3.3426845 2.873433
2347 0.77391005 -4.127211 -2.329619 -3.2471595 1.1136674 -1.1212363 -2.5851572 1.6744771 -1.872178 -1.6772738 -3.0484807 -5.4015646 -3.1174672 -4.3021593 2.5281136 -5.2889676 -3.1026711 1.1834127 -3.3316047 -3.355134
239 4.237867 -1.9836574 1.1590475 -5.437708 -0.6264604 3.7870703 -0.9515162 -1.5362281 -1.870631 -3.2656476 -1.1013906 -0.99296373 2.7124102 0.42095423 3.1257498 5.2453737 -2.9210517 1.7276069 0.5675377 2.53007
3521 -5.8389792 3.1853397 1.42868 3.1683419 -4.876981 4.431984 0.060462873 3.4790537 -1.5568976 -1.641291 -0.52138776 -4.9049883 0.48052877 3.04907 -2.4941695 -2.5494058 -2.0939019 -3.8638453 -6.848357 8.524174
3320 3.738877 1.1480129 -3.941441 -0.68018055 -3.4356325 -3.6276252 -1.3270206 -5.0907025 2.9306273 3.143573 3.544487 -1.4210833 1.8116089 4.438203 -2.2557757 -2.1364346 0.8991105 2.633236 -2.9885907 1.3499612
1584 -1.18165 2.7005773 -2.636164 1.1874282 2.4373255 4.700007 4.8431506 4.761512 3.996178 -3.0723736 2.1107411 1.2501127 -0.61439 1.1979777 3.0393019 -0.11084512 3.2609801 -0.5063924 2.211526 -2.5502555
517 -0.06964352 3.5871303 0.5481148 0.9891462 -1.3485248 -4.1789055 6.8623686 0.055845752 -1.3232579 -5.3710394 -4.249407 2.0768468 -0.2801875 4.024587 -2.711126 0.8313479 0.14183284 -0.94123 2.68145 -5.6598043
1768 -1.2259856 1.7014487 -2.1627753 -2.0194902 -3.8057692 2.76375 3.4237838 2.5669155 5.987637 -2.0957737 -0.2910649 1.666726 0.96840376 -0.9829721 0.2410339 -0.07798296 1.194135 0.22171196 2.8478622 -1.432761
1199 -1.3643892 1.5333347 -1.9699548 0.31919906 -2.5722446 3.6887975 2.0454905 4.758137 4.966365 -0.9037984 1.278681 1.7262448 -0.7475108 -1.1387597 1.6373991 1.2047836 2.5772922 -0.47771123 0.18724202 -1.9807936
373 0.80559593 4.5591807 1.0153172 1.3756071 1.4223047 -5.428476 5.6425657 -1.1511911 -4.3632083 -2.777759 -2.7291746 1.2377676 2.738078 1.5930394 -0.97743326 4.3690934 -3.0603778 -1.1134838 2.552883 -2.0151823
2742 4.788177 0.6322374 -3.7477822 -1.0589558 -4.21831 -1.6832567 -1.0122983 -3.00065 1.4471892 3.9342282 3.338982 -3.1922746 3.777804 3.5807037 -3.522875 -1.7369455 -1.338896 1.3748833 -1.7664258 1.2450879
9 2.883904 -1.2007976 3.7444656 -5.624424 -1.9587113 2.2665498 -1.1710505 -2.847651 -1.8172013 -2.0469549 -0.86833 0.38095966 1.0864589 -2.2666013 2.7987056 4.3557534 -1.8872397 3.4016142 1.6345752 3.2824905
1783 1.8638098 7.001805 0.0004743319 2.5465703 2.7182922 2.9666119 4.9282365 -2.7291422 -3.6304991 -1.892603 4.386141 -0.96333015 -1.7763755 1.3716431 4.644187 -4.177239 6.928156 1.579889 4.233778 -0.9753034
353 -0.7331577 3.158076 -0.11463173 1.3345426 -1.0780286 -1.9723684 7.806537 1.8871429 -3.5461185 -7.1910586 -3.9216907 1.5522197 0.19766814 3.920889 -2.636049 -0.30439532 1.4587122 0.23715468 3.7786987 -4.1520247
2839 5.764819 2.4948702 0.5990505 -0.49656013 1.8642019 -2.6883204 -2.3000023 1.4376649 4.041975 0.7543061 0.6349093 -2.8914568 -2.2025604 3.4703102 -0.8129079 1.8424511 0.18913683 -0.22639723 -0.46072224 3.1031923
484 -2.5762696 5.176455 -0.8133888 2.6563034 -2.6687949 -2.6272361 6.519903 1.1390475 2.6739745 -6.749707 -4.8418136 1.7712375 -1.5476167 3.161665 -0.86194116 1.5262705 0.8985861 -1.5850078 3.5217817 -6.561341
200 3.9461837 -1.5948194 3.2695806 -5.4818845 -1.2837126 4.6537046 -1.0445486 -2.4746392 -1.7040306 -1.2891207 -1.4471792 0.1134238 1.1439694 -1.4638149 1.560349 4.044204 -1.1112145 2.966356 0.7691909 3.4922054
3684 -5.211915 4.5259275 1.2206211 3.6076512 -2.884095 5.877656 -0.14451098 -2.3729796 -2.3705096 -0.52637845 -0.54424924 -4.3436785 -1.2421404 1.3299528 -0.38719708 0.10241108 0.22107439 -1.0828416 -5.179373 5.324585
136 3.532327 1.6135132 4.59711 -10.839736 -0.9331811 1.8882761 -5.051364 0.68544316 -3.9625201 -1.0807165 0.91811013 -4.4433184 -1.6596556 -6.5796456 4.6304727 5.63156 -9.132939 3.3994586 -5.6667604 -2.9129252
1827 -1.8882592 1.2401522 -4.17509 -0.47900224 -4.024351 3.1827266 1.8625941 3.0753753 3.8430274 -2.36294 2.2873433 0.16942842 -0.4732613 -0.3300339 -0.024605872 1.3141286 2.632543 0.6741752 1.3810619 -2.4966862
2313 2.7571483 1.4423659 -6.7521224 -4.0820966 -2.0662973 -0.4251381 -4.789646 -0.4138049 -7.043679 2.229673 -2.7769034 -4.621628 -5.3798175 -12.17763 -2.1832056 -0.34840912 0.838308 -2.2212884 -1.0562354 -2.5586176
315 3.5694783 2.6438622 1.5137495 -5.134853 -2.8161216 2.7644866 -1.4279015 -0.6419754 -2.3379593 -1.7544783 0.58832294 -0.54251707 2.0626829 -2.8021455 4.353143 3.5462024 -4.139579 3.4941533 -1.5182374 4.1095552
2863 6.0469756 -3.3784075 -0.40027642 0.21561898 -2.8731787 -4.892279 -2.6650143 -4.441281 -0.8278531 1.8951024 2.5705884 -3.4112194 0.43800226 7.163535 -6.1375456 -0.029074458 -1.6970272 -0.008842215 -1.1630636 2.8662114
203 5.0641384 -0.8837171 0.56941456 -4.565153 -2.070295 4.641294 -1.7681912 -0.8886976 -3.2515073 -1.1568996 -1.4866816 -0.86595905 1.3198692 0.08242407 2.9203134 5.060705 -3.924356 1.129435 1.2241244 1.7276584
3280 2.7796347 -0.4882056 -1.7845483 -2.1479535 -5.6423144 -5.543569 -1.7938447 -3.717889 3.3359737 3.6005743 -0.07735996 -1.0408226 3.0864708 2.8266182 -5.070027 -0.19403139 -3.4816713 1.9187181 -0.71965 3.3115788
3363 4.4568057 1.0142745 1.0264028 -0.6188813 2.0915344 -3.3953648 -2.565837 1.771621 4.997226 0.11200003 2.2147698 -3.0711005 -2.1747904 3.7803056 -0.23970816 1.8228905 0.50843185 0.56720173 -0.060385346 3.4288177
1589 -1.3250935 1.1800203 -2.6650338 -1.2703232 -3.2445998 4.5887666 1.0950623 3.2227023 5.002586 -0.57363445 1.3056004 1.1604632 -0.4157218 -0.5848852 1.0708797 1.4673 1.2576631 -0.8070582 1.4804476 -0.9460686
3633 -4.1799006 1.1147583 -0.08885101 5.4599643 -2.0495477 4.5633035 -1.1250838 -3.3742473 -0.39793685 -0.51542646 -2.8614562 -2.4739163 -2.3432603 1.3182037 0.02803169 0.7100305 1.136262 -2.694321 -5.195555 4.6963515
1746 -1.5972097 0.9429379 -1.0947148 -0.065844685 -3.7940817 3.7028065 2.9075391 2.927537 2.7146068 -2.4795861 1.3193312 0.5526757 1.3162761 0.4506668 0.7692589 2.0224004 2.6098766 -1.0105442 2.8347964 -2.2816234
1126 -2.077237 0.52287376 -1.7965418 -1.3376155 -2.1862445 4.766292 1.4401873 1.8893318 4.6083407 0.4121517 1.1949757 1.6317751 0.19427444 -2.929321 0.913754 2.1700716 2.934507 -0.629169 1.5525779 -1.3307657
747 -4.238275 -0.7273359 -1.9594994 6.444994 -1.6100756 -2.8631892 1.0141296 1.7329704 -3.0959995 7.3903494 2.8550923 1.0697922 0.37727514 -0.15329148 -0.20111865 -0.36706606 1.9556702 -3.254436 0.89901394 -1.824222
2730 5.680262 -2.1666646 -3.223549 -3.2164457 0.11439259 -4.988077 1.3378931 -0.8018378 0.015368649 1.0861813 0.4245008 2.915505 1.1520966 6.3354564 -6.0765214 -4.6339993 -0.099817574 0.437615 -0.10189461 4.4801774
304 4.3496842 1.2486483 2.5665736 -5.9706793 -1.1000316 2.9175813 -0.3357902 -0.772396 -3.1694236 -1.9653374 0.8600494 -1.7627791 2.360626 -3.55429 0.6055698 5.010043 -2.7593741 0.7313396 -1.0152564 2.8917134
3434 4.4390936 0.14969417 -2.8777676 -1.256331 -4.369252 -3.2421708 -0.7585606 -3.7021856 1.1786953 2.8068812 1.9399635 -2.5199761 4.1282363 2.6467474 -3.974752 -1.8355707 0.34115756 1.4394408 -2.200804 1.6605622
363 -0.30393186 2.6745348 -0.8734878 1.0983208 1.0167221 -1.8544343 7.3132997 2.3556886 -4.4003773 -5.0014277 -3.439634 1.575671 0.88518345 4.9083014 -2.819575 1.2423828 -0.88130605 -0.41542724 3.9182749 -4.2680073
513 0.008055451 4.992508 0.14417528 3.4289901 1.2335724 -3.5495107 6.0325036 -2.651732 -3.323508 -2.8438537 -2.3235095 1.446183 0.60852605 1.6791182 -2.9636176 4.8064904 -0.15367815 -0.87824434 2.3771706 -1.9016533
366 1.2509209 3.393845 0.45876768 2.9944315 0.5633908 -2.638202 7.136791 3.1168005 -2.302214 -6.7195106 -3.73021 0.45776555 -0.724214 4.409843 -2.2504752 1.2149723 -1.4221045 0.2842061 2.6178882 -4.3281736
2384 -1.3965139 -0.10772371 0.1463812 -3.403426 1.6352665 -3.186664 -1.5101118 0.47342995 -2.6451776 0.09755267 -0.8547339 -4.1839013 -4.250043 -2.9111788 1.3964084 -3.799962 -2.1937299 -0.17578131 -3.3010917 -3.4391568
3756 -5.6959667 0.7169198 -2.3867128 3.9188545 -4.481073 1.9021205 -1.732757 -2.1566074 -0.6993116 -3.206008 -3.7262793 -0.17499349 -3.3662126 1.1128192 0.09376058 1.9256976 -1.2942054 -2.5520077 -5.5442605 5.064705
3051 5.6447935 1.0557396 -4.731875 -0.29678833 -5.5885825 -2.7973282 -1.0458876 -4.842075 0.82572913 2.1765952 0.5341754 1.1180527 1.6338466 3.4181833 -3.9564898 -1.0852019 1.0215966 1.1417383 -2.0598595 2.4434414
3116 3.5816052 -0.524012 -1.8760552 -0.82985395 -5.0778265 -4.135626 -1.1601758 -2.941182 2.2075708 3.50862 0.20976694 -2.2307305 4.0003676 2.9393594 -5.075966 -1.0569586 -2.1725435 1.4001555 -0.09718075 2.8895783
824 -4.056354 0.7243767 -1.1733344 6.695701 -1.2986861 -3.4515338 0.51503444 1.2896031 -1.3368425 6.4849277 1.6542455 -0.3500188 1.0803702 -0.09300674 0.3410048 0.72875947 3.2395473 -1.7287849 -2.2702467 -2.3093839
553 -0.3484159 4.912197 -1.3970573 -0.754776 2.6355913 -4.442958 5.6715555 0.748693 -3.4878953 -3.4287953 -3.236143 1.7963185 2.0629325 0.4242969 -2.9616458 4.345545 -0.37882861 -1.0920795 4.117671 -0.50430244
896 1.9641505 2.7049594 2.7625878 2.3023152 1.6550859 2.3051472 6.658909 -0.528085 -1.3509592 -1.5342423 4.878478 -2.6492348 1.0275902 -0.13145153 0.41769934 -3.456431 2.5944705 1.0511494 1.8263994 -1.9667865
1277 1.7204579 2.1647573 2.9494555 2.04372 0.85011804 2.4627311 6.7460623 -1.2979753 -1.0727315 -2.0821173 4.7398825 -2.39569 0.8172694 -0.8291406 -0.6592198 -3.3572466 3.0581563 0.50308347 2.770272 -1.1641363
745 -4.339213 -0.92438966 -0.40219858 3.3837233 -1.3210844 -1.2911215 0.7197741 -0.36422452 -3.351436 6.9397774 4.9522753 1.0323473 2.999337 1.1302316 1.6269262 2.9869611 1.1012756 -1.5557469 -0.7880536 -2.7472146
3838 -4.1351643 3.2045572 -0.20729193 1.2130134 -0.84091854 2.8601449 -1.2152354 -1.7273753 -0.067833334 -1.389352 -4.339436 0.12191169 -1.1832771 2.4668179 0.53631335 2.584014 1.445046 -1.4375615 -7.194614 5.664627
2719 3.3428092 0.088099286 -3.073669 -0.64394224 -4.50702 -4.3394957 -1.5196263 -4.224801 2.8060136 2.3351557 3.1707435 -1.172414 2.159468 3.779346 -2.7399642 -1.2838447 1.2756611 1.9672165 -3.0361028 1.4234313
1804 -2.1966963 0.8861253 -0.53527904 -1.5707167 -3.686067 3.694144 2.068355 3.3809474 5.0691447 -0.3972648 0.90119725 2.134133 0.75728303 -0.38671532 1.4158618 1.3659483 1.8258518 -1.4002527 1.9480535 -1.5274334
2754 5.2814264 1.3490472 0.7395729 0.8340944 0.8589959 -4.3653665 -3.349816 1.422573 2.884051 0.6750199 0.946317 -2.99366 -1.062095 4.2995234 0.57524335 1.6735926 0.7465511 -0.82891023 -1.255787 3.3168118
1377 -2.037217 2.7811432 -3.201815 -1.0373625 -2.6841803 2.1717107 2.6861413 2.676188 4.4926243 -0.9661263 -0.941272 2.023427 -0.40938902 0.30249956 1.485952 -0.4204414 2.4149134 -0.9475363 2.1009262 -3.1975753
1390 -2.3234406 -0.48186895 -1.2099108 -0.22393638 -3.340542 3.484562 2.340053 3.780447 3.7299004 -2.3111312 0.78394026 0.6961501 0.81978583 -0.25208622 0.5443371 1.9527453 2.9445794 0.1582588 1.7314652 -2.3596737
1833 -1.856256 0.85492307 -1.3959491 -0.43081045 -2.7021542 4.505641 2.7380111 4.344055 3.385791 -0.77089536 0.119970925 1.7686199 0.5235999 -0.033835866 0.5234029 1.7686405 1.6496526 -1.8715163 1.5923 -2.26052
2111 -1.6525636 -0.69008195 -1.1694901 -3.7731864 1.1478789 -2.004739 -1.688207 0.8234149 -1.7792126 -1.0171806 0.46363005 -4.8855247 -4.022458 -3.133502 0.63725805 -1.8078657 -2.2458575 0.9253693 -1.7070414 -2.7650893
1085 -9.889642 2.3197236 0.8458792 8.7717285 -2.4857767 9.049755 2.3918316 -2.125233 6.041531 -0.17668937 -2.0348709 -2.21541 -6.5206523 1.5811641 -5.58273 -1.7255802 2.3585577 2.497502 1.1102413 6.5560203
823 -5.152806 -0.075489156 -1.4611193 5.2701006 -1.3517665 -3.2951658 0.30225828 1.5637927 -2.4485152 6.3589363 1.4853982 -0.97593355 1.0060296 0.49546722 -0.7878053 -0.49883035 3.7901273 -2.4506438 -0.28083333 -2.1027758
3154 8.863524 0.7714281 -3.377996 -2.0029864 -3.0688329 -2.0749133 1.4067397 -2.6342099 0.32815042 0.6600085 0.022121819 1.1648692 2.5653977 5.5797596 -5.6851954 -3.6331782 0.50620455 -1.4654354 -4.0135336 2.4543839
830 -3.26623 0.6591903 -1.6502576 6.641425 -1.239101 -1.7827481 0.68293273 1.3742303 -2.128465 6.559182 1.5354378 -0.0836726 1.7780685 0.010661266 -0.34946996 1.2994965 3.036983 -2.4087744 -1.9256244 -1.4261211
1472 -0.68810517 3.9047368 0.71842164 2.4094543 4.4767766 2.8232806 4.43657 0.9178215 -0.6021715 -1.4312541 0.0438574 1.7118775 -2.2695155 0.77871615 5.4013543 -1.3937835 7.5742993 3.8293183 4.161588 -1.6752816
2199 -1.944859 -0.16533442 -1.72887 -3.117628 0.72633153 -1.7047061 -2.2629225 0.46065965 -1.6342434 -0.05365291 0.24598972 -5.192461 -4.441246 -4.399412 0.28474775 -1.8894159 -1.9256738 -0.90617627 -1.4590547 -2.6049862
1621 -2.7317371 1.4556235 -2.0192783 -1.4581741 -2.3103096 3.7014723 2.775441 3.936534 3.983235 -0.8814639 0.8712902 0.35054293 0.31574926 -1.4319198 0.032810584 1.1189185 0.7676671 -1.3473828 1.3394737 -2.817611
500 1.0472293 5.664816 -2.6064343 1.6893249 1.420816 -5.3464847 5.2473707 1.0276955 -2.8972409 -3.4900608 -1.4210633 0.40799072 1.2696532 2.2634282 -1.5583885 3.4807956 -1.2418189 -2.515705 2.118702 -3.6017716
2716 3.699952 2.4085896 -5.528823 -1.1588482 -1.6307056 -1.1189461 -0.5624093 -2.7605748 0.17722051 4.810395 4.0897417 -1.435763 1.180235 4.863554 -5.234491 -3.6448019 1.3123633 0.17328829 -3.0783188 2.8921227
3948 -2.7043161 1.556662 -0.944202 5.2464232 -0.6916266 5.12277 0.24811146 -2.6775186 -1.74858 -1.6571447 -2.4594688 -4.0351667 -2.2057586 -0.1198299 -0.9123003 -0.86256695 -0.29357842 -2.5696378 -5.1177735 5.512549
4030 -1.7936827 -4.9672856 3.2921863 2.044573 1.2100215 -1.9656799 1.5657281 2.72675 -0.66899866 3.0578446 -1.1393238 6.3268723 -1.0111384 -2.5943923 -0.87821954 2.2560115 4.589209 0.61271983 -2.5030527 3.3422265
1714 -1.5877016 0.006273759 -1.2499778 -1.3316625 -2.6255696 4.8384576 1.78687 3.236596 4.1031055 -0.44725448 1.6637585 2.0725377 0.46620646 -0.9158777 2.114176 1.4977975 1.3773497 -1.0374846 2.0641832 -0.8410436
1612 -0.9916356 -0.40507707 -2.7392616 -3.4866066 -2.205653 4.312478 1.9947878 2.759005 4.692576 -1.1728824 1.2759752 1.4399861 0.970188 -0.52134496 -0.11625517 0.92915064 2.1667721 -1.7050974 1.4729071 -1.2558565
1835 -0.40410483 -0.17128153 -3.6600094 -3.5562015 -3.2006145 3.2287314 1.2673869 1.8347328 5.944054 -1.1984038 -0.1034347 0.8531159 -0.2517171 -0.56159574 -0.1856836 -0.6928879 1.4510684 -0.1572805 2.8924484 -1.4494185
2133 -0.2683909 -2.1125398 -1.7246109 -4.0800686 1.9338738 -0.07001539 -2.1042845 2.6086042 -3.5745838 0.95895505 -0.13326302 -4.4187117 -4.514349 -5.8616695 -3.1200325 -1.2346345 0.57139206 0.2465417 -3.5355184 -3.1270337
2661 4.305393 -1.026003 -1.8560638 -1.2449034 -4.402342 -2.8925047 -1.1325902 -2.8274434 2.2718005 3.2600832 1.3031373 -2.6934316 3.8817818 3.0536354 -5.229685 -0.6248153 -0.84533936 0.80609864 -2.2253928 1.7611802
694 -4.403923 0.9241863 -0.9498932 4.775373 -0.96227396 -1.917033 0.056883726 0.40278575 -2.3877332 7.351924 2.9587493 -0.678313 2.2346103 0.056455504 0.48844638 3.0650375 1.9647685 0.3494204 -2.7157338 -2.442212
3851 -4.478578 3.492813 0.17576475 4.9040303 -1.5556873 4.4489493 -0.58031535 -3.1670954 0.7996457 0.27723965 -2.121441 -3.1665158 -1.8541386 1.2849681 0.15998141 0.6333961 1.6810381 -2.0581944 -5.0400267 4.187379
1559 -1.377042 1.5853165 -2.3376503 -1.2192956 -3.4987774 3.70383 1.6047564 2.2640169 5.523902 -0.46134624 -0.13891347 2.4435058 -0.08473542 -0.0482349 1.2943726 0.8978572 1.3949411 -1.5618631 1.797516 -0.6436611
781 -4.1275043 -0.76518726 -0.44609886 3.4699779 -1.3965065 -2.1445522 1.2913387 -0.61182976 -2.4647245 7.0518355 3.6915023 1.5196421 2.760067 0.969023 2.2403648 1.2006646 0.8304498 -3.741843 -0.3967718 -3.7994623
3584 -7.5570645 -0.7330756 5.836079 -2.2297926 -0.60524845 0.34617707 -0.12372362 -2.2984953 0.4019561 -0.66991603 -3.276367 -3.7189636 1.2968779 3.5591712 -1.3222837 0.8600382 0.9984002 -5.667212 -1.3818692 3.160009
2793 4.3269506 -0.33813852 -2.7439094 -0.88151497 -3.7639527 -1.2535876 -0.8459078 -3.5758898 0.12216286 4.1728616 2.2019696 -2.1793103 3.222587 3.9299324 -4.6982937 -2.0667312 1.1525185 0.73534167 -1.6894621 1.4110185
497 -0.71631163 4.1304927 -3.1982615 0.9527399 1.6561153 -5.4856286 4.766045 0.52897704 -2.9215243 -4.2483864 -1.6943305 1.2619244 0.32906377 1.594233 -1.9389205 3.8156946 0.2667449 -2.1257927 3.733431 -1.6494187
1613 -3.3376691 0.68375677 -1.6925079 -1.2903478 -2.8834739 3.7474546 2.1708941 3.2047296 4.6283774 -0.7494664 1.0456331 1.3957142 0.15435243 -0.74163026 1.105782 1.5386864 0.7952997 -0.82197386 2.1279805 -1.7104654
1707 -1.3114958 0.73478633 -0.780119 -0.03037558 -3.995885 3.6297967 1.6724603 4.42778 4.0181584 -1.8125917 1.5442126 1.8623677 -1.0969639 -1.48128 1.7780893 2.0626857 0.81620306 -0.52062726 1.267898 -1.351664
1941 1.0528672 -3.3437493 -2.3032277 -3.4392238 1.4093823 -1.4063783 -2.5449371 1.195025 -2.289522 -2.0225708 -2.3140109 -5.5160904 -2.848641 -3.9316826 2.980797 -5.146914 -2.5013885 -0.5077662 -2.9009268 -3.3644903
2289 -0.43378586 -2.537728 -1.6164551 -3.7242572 2.160433 -0.22815016 -1.9721087 3.0837252 -2.767813 0.39765796 -0.18066968 -4.1966505 -4.8185797 -5.585553 -3.1932588 -0.77926874 -0.6850261 -1.007854 -3.2348967 -2.8290927
2778 2.8624907 -1.0935247 -1.9546967 -0.917977 -3.9675698 -5.503405 -0.57703966 -5.2875934 3.0084612 2.1976933 2.8058224 -1.4285269 2.5005896 2.6970727 -3.8059652 -2.2954032 -1.1105946 0.7865679 -1.1288115 2.4575295
566 -0.44603157 2.9396524 -2.0345147 1.851685 1.859786 -1.3711253 6.813578 0.9573276 -1.7028189 -6.342309 -2.5316434 0.61904573 0.32933497 2.693051 -2.5400817 2.6939807 2.3903916 0.6280496 3.0253859 -4.170239
3495 -4.3989024 0.10880459 0.63227564 5.501445 0.13247219 4.261469 -0.09949578 -3.3682315 -4.569236 -1.5772883 -1.5346448 -3.1543994 -1.8906568 0.8972297 -2.3256521 2.6424913 -0.19182114 -3.0884612 -3.9673905 6.7673965
3442 -5.677772 0.091674104 1.1302475 -1.0998129 -1.6026815 1.9070276 0.8194167 5.772667 -2.2468972 -1.668781 -2.714795 -2.425676 2.195147 3.5615697 -0.27380425 -3.137737 -3.8486733 -4.974069 -4.9343553 6.7851667
1399 -1.2131919 1.051217 -1.3013684 0.09568551 -2.7843714 4.6282425 1.8753825 4.433765 3.4706004 -0.84369475 1.619174 1.9623901 -1.3610468 -1.8312849 0.8234425 1.6392103 1.9000572 -0.7841149 1.0409125 -1.2623163
4023 -2.2997942 -4.944006 2.9458914 0.9998441 -1.4218614 -2.5417552 1.583486 1.1051453 -1.8184391 1.8570802 -0.993856 6.4387617 -0.7968914 -0.19315459 -1.2149647 3.7374573 4.0245967 1.0657347 -0.8209523 0.33027524
3793 -5.480494 -2.304523 4.3981237 -0.2700685 -0.4692516 0.0912378 0.61217797 -1.548666 2.1676607 -0.7812001 -3.0570757 -3.1911104 1.7744828 3.0524027 -0.7307116 -1.1739131 0.9337376 -8.134343 -2.5651784 2.6216967
1376 -0.6751406 0.2890796 -3.7301705 -3.250447 -2.4615626 3.608546 2.250775 2.8745472 4.2755227 -2.2242286 1.1956388 1.0910485 0.14085272 -0.81571954 -0.6958481 0.15290093 1.7554188 -0.9478556 1.65937 -0.9170764
606 0.5735711 4.5687046 1.9520856 3.1645408 1.8979366 -0.7904244 6.1935225 -0.9377239 0.17827868 -4.2196474 -5.488637 0.5728963 0.736138 5.2710056 1.3814293 3.3425474 3.8967671 0.45496517 3.4085376 -8.109315
3426 4.518879 1.9695169 -0.26466176 1.1969678 1.3775802 -2.68736 -2.7837536 0.60582155 5.034877 0.43775 1.6637355 -3.370788 -2.7820494 2.6345868 1.5023407 0.5376674 -0.39177725 -1.476647 1.5181371 4.226827
538 -0.24240662 4.1365724 0.5851786 1.7193272 -1.9140633 -4.391974 5.4652452 1.2153462 -1.6042271 -5.10555 -4.670652 0.4805666 -2.8370337 4.700202 -3.9258034 -0.43697047 2.222218 -1.8462882 3.1560469 -5.689824
1718 -3.8673193 -1.4324524 -2.9498296 -6.018851 -0.7257509 4.6670957 1.6125157 2.268094 7.925696 -4.2408834 -1.3404133 -0.9665993 -5.5971475 -7.417299 -1.6944643 -2.1734018 2.1773014 2.6316442 -2.258298 -6.691585
697 -4.4952135 -0.5276366 -2.5855815 6.4398575 -0.009737506 -1.0013112 0.822088 2.9148846 -0.9340899 6.9823823 0.9876573 -1.5115225 1.8247666 0.29975656 -1.1410094 0.66524345 1.2417414 -3.4130957 -1.7765855 -2.0007482
1610 -1.4542269 1.4146278 -0.36771187 -0.6696566 -3.7207377 3.8752477 2.1855757 3.0397182 4.8550797 -0.30666625 1.270373 1.9043809 1.5653082 -1.2899148 1.2165067 2.526723 1.8492883 -1.7451373 1.4205527 -0.9056193
559 -0.52934116 2.5383146 -0.15230297 1.2229301 1.4138567 -5.336436 5.924945 0.04651961 -1.5564067 -4.7224607 -3.0027924 1.0805769 0.90340143 1.5119048 -3.1568217 2.7555735 1.3617127 -2.1693735 2.5847337 -2.0396492
3506 -6.040483 -0.7419175 5.127334 -1.7077105 -0.84618014 -0.3740227 0.031073745 -2.4389567 1.5975922 -1.1334062 -2.452174 -4.4289227 2.7461312 1.6957654 -0.20707542 -0.7850223 3.4954515 -6.1940813 -2.792617 3.1548991
272 1.7966317 -1.8662477 3.3204136 -7.332879 0.41946775 1.6742749 -1.3882991 -0.40271485 -4.245463 -0.43812314 2.8848166 -1.1933662 3.6857648 -1.3917388 4.695073 3.3698342 -1.2122469 2.2224824 4.503796 3.3371081
1577 -1.6182462 -1.9044456 -0.9557066 -2.8832068 -1.8514231 0.45336914 -0.010323625 2.714952 4.38713 0.35266107 -0.4372441 -1.0200464 -4.3513703 -3.4952726 -0.19333692 -4.7715125 -0.30689386 3.3375862 0.24016789 -4.1544914
1078 -1.6535189 1.5404865 -1.3661752 0.1419806 -3.8216014 2.9379292 1.9141654 4.107221 3.7413864 -1.0805087 0.80748254 2.0251684 -0.4457076 -1.3742173 0.9901845 1.9988128 1.7806177 -1.621977 1.5178183 -1.4792994
465 0.05202972 4.6280994 0.55540454 -0.37794575 0.6399023 -4.2308674 5.9705033 -0.7452257 -3.2114327 -5.5450134 -1.1331729 1.0128044 1.4235023 1.5096948 -1.958369 3.6836674 0.97045493 -2.0824594 1.4369533 -2.1492257
3330 3.7764246 -2.6632164 -4.25663 -3.0010471 -3.3107333 -3.9217818 -1.8173544 -3.1809068 0.4752769 1.0871902 1.5122906 -2.7244334 4.1011553 3.00881 -4.7084346 -1.1442477 1.0241879 0.36264238 1.260688 3.5676773
561 -0.66413623 4.2952905 -0.16871524 1.1245773 0.71822727 -4.890213 5.0617294 -0.7837809 -2.2023242 -3.6384742 -2.7517433 1.1853613 -0.15107454 1.5765079 -3.4287233 3.740975 1.9832363 -2.109992 3.0396142 -2.2627656
2081 -1.0597926 -0.83573216 -0.9356109 -3.5043063 1.5889595 -2.3246446 -2.3751707 0.21643674 -1.7102801 -1.1242181 0.046345282 -6.1353326 -3.683478 -2.8999026 1.4274442 -2.6052577 -1.784164 0.08824116 -1.4107252 -2.3448706
3090 4.437904 -0.87928873 -1.3068042 2.9814756 3.2957585 -2.402179 -1.8087802 -0.9007174 5.2240424 1.3747938 3.019569 -2.9145565 -2.0125408 3.9150178 1.2472676 -0.06685814 -1.1839838 -2.9506576 0.56912804 3.028922
3611 -2.7945573 4.2058516 1.4732364 1.1580539 -1.0393666 3.7776287 -0.81080484 -2.2971413 -0.2942217 -0.8332396 -4.760051 -0.5918317 -1.3640796 0.94016033 0.30660674 1.6203476 0.8476032 -0.99800843 -6.806513 5.65377
188 2.1449938 -2.321359 4.1728687 -5.9607153 -1.7971138 3.192819 -1.3899527 -2.3944838 -1.2011913 -1.4764106 -0.3584652 0.73025644 1.1951637 -1.3178942 2.813883 4.3852844 -0.8544324 3.8047204 0.36646077 2.6194398
3038 4.5215397 0.87712663 -4.8217344 -0.6084764 -2.1895547 -2.1907804 -1.8495178 -3.039751 -0.17053077 4.1319237 -0.8000539 -2.49594 1.7776209 4.6520166 -5.496506 -2.2462614 2.2530441 1.3151246 -2.8567548 2.0118864
285 3.4165287 0.786784 0.7266787 -6.159876 -1.6060008 3.7016993 -2.439804 -0.36103725 -2.4315493 -1.8516294 -0.091156 -1.6314917 0.70516413 -0.789609 4.2422395 3.0122566 -3.451495 4.5395904 -2.1046317 2.1388175
40 1.8259765 -0.11636482 0.20574208 -5.012391 0.8530434 1.202156 -1.2988701 -2.3075616 -2.0183187 -5.38777 0.01246823 -1.2420322 0.5877826 -0.65182394 2.9966657 5.1334305 -4.1586976 2.9590013 1.7640837 6.4733477
1391 -1.4465798 0.5581537 -2.346422 -0.036325697 -2.5520816 4.0563793 2.5402045 3.394293 5.4022703 -1.1353022 0.068968855 1.7890133 0.35678226 -1.0142257 1.7714303 0.97670263 1.5862204 -0.8677075 1.5998373 -1.745463
3877 -3.3382947 2.5751674 2.0538716 3.9723988 -1.9680147 3.9341676 -0.28898057 -3.9088964 0.40544972 -1.499707 -2.1968987 -1.2780495 -3.0211208 1.4491559 -0.43565434 1.2705833 0.04951044 -1.1972069 -5.9150505 5.4066896
98 4.9400926 -1.2469823 1.3137088 -4.500115 -1.6275135 2.9079678 -1.2604905 -0.20599428 -3.0711782 -2.4916706 -0.6153406 -0.022795627 1.4470817 0.72908694 2.2094336 5.059212 -2.2118356 0.6603535 1.6536804 2.2704225
1622 -1.3705516 0.14623827 -2.7032144 -1.5543026 -3.4658976 2.2061386 1.688449 2.9336314 5.655693 -1.7805752 0.67949957 1.4535607 0.5027285 0.72870404 0.803815 1.8597736 1.5464716 -0.3357427 2.046857 -2.423807
3035 3.9623642 -1.1822321 -2.1834648 -1.427129 -4.8766675 -3.2016978 -1.1406084 -3.6201081 2.0453718 2.5336375 0.28859976 -2.5739782 2.5779262 2.6889925 -5.6159234 -0.9260336 -1.4958539 -0.44234946 -0.012243654 1.7518699
2283 -0.8005025 -0.16691434 -1.6869866 -3.6671638 0.101377234 -0.44677982 -2.366801 0.015783325 -2.066031 0.39304525 -1.2542089 -4.2447085 -5.025281 -5.6355443 -0.14179005 -2.0250778 -2.261951 0.47078606 -0.8792542 -2.3878512
170 3.603419 -3.2528212 2.7179196 -3.77383 -1.8926715 4.803172 -1.6650332 -1.7579757 -2.99627 -1.3334569 0.12024011 0.08379382 1.0408344 -0.78572625 2.7526743 4.5213194 -1.1502765 4.2123213 -0.87104833 1.8656037
2598 -1.0789057 -1.9247285 -0.82712436 -4.177081 1.1427376 -1.4352106 -1.1534917 0.7714757 -1.6650162 -0.8714565 0.70551306 -3.8504674 -3.2713215 -4.2043633 0.4157863 -2.341424 -3.2060673 0.63151133 -3.1148043 -1.9822234
3150 3.9099815 -1.6899151 -0.47487113 -1.5791469 -2.8598425 -1.4865097 0.30837724 -4.492941 2.46851 3.2521677 0.59240526 -2.1250436 3.4941187 4.485573 -6.4933176 -2.0588624 1.2589358 0.7483781 -1.2733991 1.8674448
199 5.2430725 -0.4769909 0.060843807 -3.147447 -2.3392782 2.5638652 -0.9191474 -1.3744932 -2.7185502 -3.8527172 -0.84984 -0.17530061 1.1828576 -0.31845766 3.608047 5.08135 -4.182098 -0.08638206 1.5115035 2.552776
1471 -1.6043823 0.36244482 0.26066557 -0.4685688 -2.4438818 5.338316 2.8990777 2.5984426 4.670697 -0.8736898 1.617197 2.4431782 -0.2504257 -1.254188 1.7451905 1.2225943 2.610447 -1.5273447 1.6176007 -1.6153902
1211 -0.69453716 0.49006274 -1.4501525 -0.31865588 -3.4009671 4.5730724 1.3264159 3.4210415 4.333612 -1.1649945 0.72580403 2.1584194 -2.3337004 -1.6422974 0.73053193 1.7661967 2.1182945 -1.6191496 0.70066607 -1.8551799
1551 -1.5638176 2.7828116 -2.2782621 -0.49109274 -4.225002 3.0159914 1.4948273 2.8624084 5.435717 -0.8959406 1.3017492 1.3393623 -0.9499738 -1.4333224 1.7575346 0.84105164 0.7653874 -0.49110225 0.99749297 -1.2170818
2328 -2.9945755 -0.6521132 -2.1097481 -2.2715864 2.2887611 -3.4737148 -2.066028 1.7752562 -0.95946413 0.74211603 -0.78121895 -4.367181 -3.6006641 -3.4370553 0.8294627 -2.3231535 -0.302669 0.22666411 -2.9898427 -3.559759
395 -0.12139695 5.6744356 1.5331513 -0.84183663 1.7225549 -7.041218 5.902129 0.1788939 -2.2776465 -2.6250222 -2.1010413 1.05481 2.6053104 0.45690975 -2.6819108 2.2996736 1.9439006 -2.9491224 3.1314049 -1.7706189
1104 1.600875 2.3133078 1.9561366 3.1437118 2.012651 3.579122 7.273795 -0.3270817 -1.0241894 -1.0542519 3.1959717 -1.8952179 1.7181238 -0.58718944 1.1803751 -3.581207 2.933979 0.28007042 0.7348346 -3.3382301
3593 -5.7784405 -1.9584697 4.7209387 -0.86882263 0.6720579 0.0920828 -0.52524316 -1.5610955 2.654934 -0.28358522 -0.7851533 -3.290138 1.3634925 2.5524695 0.55447555 -0.17672417 2.8364408 -7.3862076 -3.3648071 3.276682
3201 4.062478 -1.9459692 -1.10853 -0.8057357 -4.560557 -1.8058561 -0.6772624 -4.1663156 3.241657 3.52458 1.6238369 -2.7504067 2.7064927 2.0369554 -4.9610877 -1.5791128 0.89783937 1.0865442 -0.22769165 0.18456793
580 -1.3700064 2.6580036 1.994037 2.18636 0.38639095 -0.82364595 8.074787 2.1725886 -2.909882 -3.876459 -4.585697 0.6288254 0.9572935 3.8712373 -3.5332322 1.442666 -2.2159395 -0.16034807 2.3876648 -5.5844264
1235 1.5357714 2.8756638 3.0039368 2.6262426 0.6678933 2.926426 6.7255654 0.13678238 -1.5652359 -0.5636643 3.298564 -0.94277894 2.202278 -1.7591637 1.1556321 -2.6419473 3.7815497 1.5068316 1.1502181 -2.6412928
925 -2.6032825 0.8629864 -2.5394378 -3.6863647 -3.4581554 3.481375 1.8613989 2.0951543 3.5306385 -2.1301568 1.7567316 0.40127733 0.79446125 -0.7912495 -0.18290165 1.6455504 2.7764738 -0.10676149 1.0502981 -2.2492461
3198 3.4747262 -1.5944179 -4.909577 -2.9504766 -0.9468147 -3.2957695 -0.9862129 -4.2657294 2.1200955 1.1751523 0.9155812 -2.5965443 5.0433707 4.1549654 -3.3493211 -2.479973 2.509594 -0.25422376 0.26214412 4.277987
1536 1.6411216 5.0657034 1.0425864 5.1665235 4.5843334 1.0036768 5.215132 -0.76114196 -0.68492067 -3.9526892 -2.809074 1.216695 -0.61440814 6.3370023 5.390347 3.8755522 4.2950845 4.554379 4.032572 -4.878719
1059 -2.6125343 -0.15748447 -3.3090215 -0.91822 -3.1069353 3.0645275 2.5430808 2.767923 2.8953767 -2.1909826 2.106065 0.86373526 0.40736634 -0.3382168 0.069257826 1.2320577 2.8607266 -0.36001167 2.1395583 -2.4842026
856 -6.2402773 1.1753182 -7.1154575 6.588187 -1.06718 -1.0027754 1.904003 4.0154777 -4.5929055 8.785105 2.1532829 -1.6828262 2.197481 -3.0871172 -1.695325 -3.1058297 1.3988205 -2.3921397 1.9033262 -1.1925712
3076 2.1009114 -1.0562878 -3.2078726 -1.864187 -2.6490004 -4.8950796 -1.4066696 -3.592023 3.268673 2.494646 2.5956757 -0.42148653 2.9052322 3.8097234 -2.4153728 -1.5596671 -0.11725108 3.686079 -3.1291611 2.98472
3152 2.4775984 -0.6561116 -1.91964 -2.8098927 -4.6366606 -3.079486 -1.1321228 -2.5510538 1.46978 3.12454 2.015189 -0.18718556 4.373153 3.9279542 -5.37492 1.0690799 -1.1828524 1.3436668 -1.5475374 3.4368649
2054 -2.6170113 -0.18732554 -1.3766533 -3.1682668 1.5903971 -3.0130184 -1.7922437 1.1590034 -0.99984455 0.23282644 0.19982654 -4.632354 -3.811034 -2.489741 0.5015278 -2.398581 -1.972916 0.6473747 -1.9022404 -2.529768
1367 -2.1702297 0.22969052 -2.7211723 -0.68364555 -3.6126828 3.2854567 1.8191724 2.9570892 3.4029722 -2.0570939 2.034931 0.19458616 0.3939422 -1.4002247 -0.34727526 2.3022494 3.29232 0.13281852 1.6281924 -2.0798268
1839 -0.68141514 0.8701324 -0.6866493 0.37836567 -3.1005507 4.6694374 1.8090347 3.5984247 4.2253227 -1.2889304 0.6201107 2.4328325 -1.3513334 -2.3380303 2.0429316 1.756498 1.8179978 -1.2927563 1.2407564 -0.73258823
3677 -8.318647 2.2267783 -4.337266 4.3215027 -3.1153038 2.7285452 -1.4529375 -2.8481874 -1.75841 -1.2470553 -4.196614 -3.111894 -1.4665956 2.9188094 -0.41100395 0.1826316 1.7206873 -1.3989805 -3.6512568 4.0509152
724 -3.0573423 0.077980734 -1.3828809 4.4986153 -0.28924012 -2.1965957 0.6310693 2.4738474 -0.26971516 5.911182 3.3010366 -0.7336218 2.65037 0.83458436 1.1885077 1.7676766 0.9654914 -2.51909 -3.662297 -3.0325863
2007 -0.19013323 -3.7488534 -4.272928 -3.2999775 0.41459456 -0.49511775 -1.1082438 0.34868723 -3.1478236 -2.2272959 0.04179759 -2.4665318 -2.014308 -4.7292376 1.4676602 -2.5344253 -1.9245234 1.5218331 -5.1220117 -3.7612696
422 0.29299292 9.909097 -2.422899 -2.9836116 1.2640924 -7.301526 5.259133 4.1814976 -5.6430855 0.7541115 0.33513594 -0.23222865 5.020669 -0.94435346 -3.3939993 4.7579813 -1.1711152 -0.2274971 5.519793 -2.8476167
2944 5.102984 1.4484975 1.5968857 0.7663238 2.5146487 -2.5633054 -1.6252487 2.0986142 4.446632 0.06851624 1.6590416 -2.332471 -2.379647 3.3097537 1.2628739 0.75813454 0.4030353 -1.3984592 -0.33177638 3.0950017
1813 -2.7229147 3.5749352 -2.5673165 -0.71488905 -3.759108 1.3593673 1.8237917 1.8093524 5.355585 -1.1853937 -0.8453504 2.288579 -2.5503075 -0.3519192 0.48083964 0.5871697 3.0321834 -0.22095835 0.7407187 -3.8079724
2333 -1.7882603 -0.277945 -1.4177145 -2.7869558 1.447735 -3.086587 -2.0240393 -0.091632456 -1.2011733 -1.1467669 -0.94734794 -5.313434 -4.289949 -2.6558433 1.5843436 -3.5775645 -0.64458734 -0.30472562 -2.1607919 -2.7448454
3918 -8.488148 1.9804254 2.7589695 -0.10066339 0.9327385 0.17812769 -2.1585052 4.256764 -2.0065022 -0.18623066 -6.5168004 2.7579978 -4.3429103 4.1000566 4.0043836 0.330846 -3.358208 -5.2081704 0.30565733 8.813974
3577 -4.3121953 0.85265553 -1.2226391 6.1539054 -2.0127459 3.5609338 0.0011821678 -2.9691746 -0.37504095 -0.03734379 -2.3649323 -1.7861681 -1.9611017 0.86871934 -0.6590202 0.10726242 0.32607818 -2.4381673 -4.6200395 3.5621572
1204 2.3443685 3.1362536 3.2358027 2.6031985 1.9980814 2.1409903 6.01183 -1.4308985 -1.3468114 -0.14526959 3.5575688 -2.6516588 1.6293308 -0.20364083 1.4364816 -3.9055765 2.701531 1.0117228 1.9391731 -1.9648625
2966 5.56048 0.82845384 -0.871669 1.9289194 2.176057 -1.5167079 -1.9449898 0.54418015 3.8036153 0.35447437 0.10061952 -2.4624581 -2.7721927 2.4147525 -0.52669203 2.3793395 -0.08413042 -0.66615117 -0.6049573 2.564247
2117 -0.041914675 -1.1559688 -0.517322 -3.2846625 1.3554367 -0.18079874 -2.3500547 0.8057292 -2.1364582 -0.3273055 -1.3974917 -4.825147 -6.018338 -4.9646654 -2.5320973 -1.8329431 -0.15619352 -0.70925635 -1.5820557 -2.01179
946 -0.662044 -1.0222813 -1.8893907 -2.259465 -1.6929768 4.9305873 2.1733098 2.6317368 4.406761 -0.8770579 0.8324714 2.2652955 0.47271198 0.017700234 0.4148101 1.4874507 1.8135954 -1.3899956 0.84060323 -1.7252712
3501 -4.462049 0.92031485 -0.9798796 5.7572603 -1.0717645 3.629961 -0.6871053 -3.2484217 0.10316114 0.09903246 -1.508648 -2.5903225 -2.2303877 0.81231564 -0.39814636 -0.36381215 2.1446717 -3.2155635 -4.4923944 4.720916
506 0.3113948 4.640817 0.2049113 2.069359 1.6676743 -4.005345 5.2601237 -1.3992075 -3.5471945 -3.4204826 -1.7888563 1.5527815 0.619649 1.5523072 -2.3051186 5.295594 -0.2795157 -1.3628851 2.0059855 -1.2401371
3456 -4.097261 0.47144696 -1.4024383 5.1376424 -0.5315684 3.6493015 -0.29649568 -2.5726182 -1.8853945 -0.98444074 -1.7340086 -0.8608477 -2.0590873 0.7936666 -1.1214045 1.6071187 1.4346255 -3.7121034 -4.7210097 4.9955983
3252 4.630143 -0.7374644 -2.5146744 -0.3264653 -3.9856832 -2.9519224 -0.9436296 -3.2365654 0.5138154 2.3652813 1.238645 -2.8890204 2.9601412 3.191869 -5.205432 -1.339508 1.590408 -1.6286035 -1.7070857 0.7668434
2087 -0.46137172 -2.2086825 -0.84537417 -3.2374048 -0.04043945 -0.4599452 -1.5675634 0.3906895 -0.77726364 -0.8963798 -0.8358181 -3.7906523 -4.888092 -3.905818 0.35719034 -3.540958 -2.3685591 1.6226289 -2.550834 -2.548196
1516 -2.0845494 0.27310985 -2.3512383 -0.86817557 -2.0880466 4.3755484 1.6436782 3.9352522 4.1838694 -0.3911879 1.8621821 1.7727911 -0.5560371 -0.7123351 1.2909504 1.9431661 1.9291129 -1.8353091 1.5313413 -1.2055396
2786 4.6356673 -0.12764807 0.43476117 1.8042521 3.3621223 -2.1294389 -1.5325915 -0.0301747 4.4253936 1.3328588 1.6099106 -2.546033 -1.5824187 2.7584314 -0.37400693 2.4873345 0.48112813 -1.2881434 -1.4481089 1.9846041
3680 -4.9284153 -1.9286546 4.957273 -2.0225036 -1.0869651 2.282124 0.8567535 -2.747577 1.4748192 -0.7066872 -4.5293474 -3.027356 2.6807365 0.5087943 -1.4966313 -2.656436 3.1487854 -6.305511 -3.6818345 3.6747217
332 3.1452682 2.2788985 0.53987443 -4.678608 -1.5585473 2.8347397 -1.2319546 -2.3902678 -1.3919764 -2.2852776 -1.3101553 -1.0974797 -0.075631805 -1.0823019 2.5062845 4.144792 -5.162041 3.2782347 2.6781666 4.8648415
1459 2.0250814 2.5054114 2.4410374 3.1143663 1.6415926 2.4830272 6.2357197 -0.47577533 -1.1608725 -1.3747058 3.7548933 -2.6022124 1.3474579 -0.8759413 0.92254907 -3.8086197 2.6984522 1.1908937 1.3548169 -0.73048186
3758 -6.4518895 -3.2424588 5.4768553 -1.1603448 0.9089402 0.57061636 0.47786027 -1.9832653 2.571893 -0.7784469 -1.0722116 -2.876851 -0.27377027 3.1119533 -1.0330409 -1.4067304 0.56905776 -6.1868906 -2.8605528 3.1290877
142 2.947756 -0.8734565 2.3887722 -5.907826 0.05054163 4.931024 -1.4631329 -1.9112391 -0.40637723 -0.6831287 -0.8125463 -2.4313002 2.5181592 -1.3266506 1.625928 3.9739552 -1.605394 2.962624 0.12838799 3.6362464
1070 1.3833126 5.547714 1.0032216 -0.6699013 4.15138 1.8658587 4.435998 0.8392312 -2.114779 -2.653387 1.1192664 0.06617586 -1.3175114 4.0610943 3.1861942 0.23894998 5.250593 6.6337886 2.0866826 -4.3799257
2724 8.0339985 0.33116254 -3.127188 -2.1221812 -1.7162454 -1.9249136 1.8804593 0.14448832 3.0464103 1.3042912 1.0420785 3.8314233 0.10305236 2.7071202 -3.7972739 -6.168213 0.90788674 0.72000414 -3.2003238 3.985884
280 1.8489795 -0.27435976 3.9722393 -4.8969584 -0.73788977 1.8572958 -1.8681904 -2.4244127 -1.8746048 -1.58466 0.736022 -0.2760172 -0.6643975 -2.0716548 1.9247838 4.6566105 -2.2493536 3.5075133 2.6163068 5.7696834
1604 -2.3682132 2.939474 0.07605966 1.6564722 -2.64125 1.9640867 3.4963248 3.0685823 5.573996 -1.5645194 -1.0855083 2.13659 -0.24684593 0.1534207 3.7540443 1.5311946 0.34606487 -1.9778558 0.89059025 -4.8113475
2282 -2.217976 -0.5717362 -1.6077162 -2.884693 1.000648 -2.4692552 -2.5774689 0.45316094 -1.0384765 -0.3997006 0.077809215 -5.375288 -4.726816 -4.2381945 0.40570992 -2.3653603 -1.1165347 -0.035697326 -1.0016358 -1.8997769
2877 5.3561177 2.2623098 -0.49762946 0.9859103 2.497636 -2.206536 -1.7832639 0.25301602 3.8033602 0.16340798 0.113962576 -2.6603415 -2.2152698 1.4495906 0.5652532 1.6499658 -0.19493894 -1.8153877 0.13371827 3.6507416
3351 3.8433118 -1.3567 -2.0949645 -0.5536046 -4.4613905 -3.2387314 -1.2531068 -3.831592 1.9434499 3.0567505 0.23412351 -2.534265 3.468341 2.5565774 -4.538184 -0.45343828 -1.5571315 0.8135011 -0.84245914 1.6476619
3350 4.5535808 -0.8194543 -2.4674227 -1.1445197 -4.4539404 -3.4394336 -1.47606 -3.4623098 3.133674 2.4166353 0.7733075 -0.19164862 2.4321942 3.6469433 -2.6791162 -1.1380343 -0.59326094 4.479715 -3.1880891 1.5647529
370 -1.1709474 3.4812346 0.84820807 -0.56480646 3.260959 -4.2211576 5.618197 -0.96035814 -4.2010775 -4.1870475 -2.6096036 1.4583393 2.2100723 2.0345576 -1.9051411 4.090212 0.34234732 -1.0939969 2.8570898 -0.04124299
1554 -2.3614044 1.6338041 -3.6345131 -1.4861957 -3.478852 3.497247 1.5797881 2.7716198 4.6314473 -1.9055972 1.6843199 0.20408984 -0.86978287 -1.3023884 -0.26905093 1.2784843 1.6416893 0.10866804 1.7064989 -0.8681283
1591 1.4852673 3.363649 0.9795377 2.2712 3.1269948 3.948853 5.7770605 0.41281623 -0.39645547 -1.3013313 4.037966 -2.524146 1.2643853 0.21024537 3.7222478 -5.0221553 4.52092 2.6364267 1.9469326 -1.4167529
3906 -5.494723 -1.7501544 3.5766594 -0.5741439 0.2466715 0.21877263 -0.41281426 -0.626485 1.3651555 -0.5691863 -1.0356257 -3.5326443 1.7618905 3.726956 0.28720376 -0.6648799 2.6421633 -8.87188 -2.932646 2.842912
3185 2.456585 -3.0460832 -0.9629906 -1.4209459 -3.070383 -3.4212594 -1.7486528 -4.6405168 4.4414134 3.9218495 2.6415772 -0.7334343 2.7316728 3.4864843 -3.2810924 -0.40393496 0.9467385 3.4747062 -1.0607489 1.8536704
1420 -2.2494028 1.2034081 -2.9838016 -0.6297861 -3.1697426 5.541694 2.5178764 2.3811762 3.5390308 -2.960728 -1.9469273 0.7415803 -0.51151717 1.8875271 -0.18539356 1.0152775 0.33559465 -1.6639065 1.9522977 -1.1524252
2833 3.9894226 -0.2941572 -1.9112492 -1.5667742 -4.0672116 -2.8604019 -0.7433141 -2.5138319 1.6912373 2.881192 1.534376 -2.852831 4.3392158 2.7047184 -4.065028 -1.1353605 -0.39940494 2.7892497 -1.7151444 1.7702264
438 1.1366153 4.152865 1.194416 1.6964486 2.302655 -4.840706 6.0408664 -0.64637345 -2.9196007 -3.26002 -0.8826853 0.78218144 1.9613279 1.2392485 -1.855146 4.234239 -0.15151817 -0.6457906 2.0873346 -2.1816041
1964 1.6916312 -1.1893624 -3.159959 -4.549925 2.654753 -0.18833697 -2.4677944 2.6430871 -5.6945896 -0.3966675 1.7054185 -4.3662124 -5.6609936 -8.487501 -3.6142712 -1.0542446 1.8565192 -3.9158945 -3.85353 -1.1886414
186 3.5501628 -1.739786 0.39664027 -3.9412155 -0.45055026 5.379651 -2.078896 -1.6807029 -1.8174354 -1.1072489 -0.41193336 -2.1990607 2.558494 0.5613816 4.5038686 4.1056066 -1.5287206 3.9407449 -0.03257962 2.1252344
1184 -2.7307165 0.15123498 -1.6448963 -1.2196429 -3.4276829 3.1529882 1.8614787 3.7893472 2.3178272 -2.4038918 1.4792621 0.32570472 0.63596153 -0.22260025 0.5922942 2.5775898 2.6944792 -0.5829106 1.6634091 -2.813664
3232 5.3243065 1.7139211 -0.1840465 1.3570421 1.4390807 -2.3852227 -2.1196682 0.25387463 3.76545 0.34917128 0.5395823 -3.145649 -2.036771 1.6600842 -0.35345694 2.3362463 -0.116518684 -0.9518168 -1.0051845 2.4381237
3132 4.6747503 -0.7843335 -1.5125293 -1.7130203 -4.6076694 -2.5190525 -0.53706485 -2.9137096 1.2747613 1.6300548 2.2023604 -3.133209 3.812337 2.6331742 -4.593688 -0.6928384 -1.0387278 0.35281506 -1.2176545 1.5227087
827 -4.441142 -0.8568493 -0.23068775 3.6424346 -1.1103388 -1.9394644 1.1181915 -1.1220003 -2.2417781 7.0589304 2.830925 1.3089718 2.5583181 0.89227414 1.975368 1.3320042 0.83854955 -3.626856 -0.31308487 -3.4639082
1945 -1.3396646 -2.0768163 -0.6774249 -4.436074 1.2343525 -0.9163651 -0.64859104 1.3832594 -0.9952633 -0.6203186 0.5292933 -3.4455354 -2.9184394 -4.3411355 -0.33521184 -1.9475732 -3.023563 0.63016355 -3.152024 -2.2566397
460 -0.30009103 4.6899705 0.76761883 -0.4742236 -0.8647573 -4.60183 4.923727 2.1788037 -3.941993 -4.6237545 -0.41768965 3.5231333 1.2775543 2.398544 -1.0725734 5.3058863 -1.1631522 -2.3891125 0.32755268 -1.2160242
2187 -0.8244745 -2.4296389 -0.23578331 -4.2163057 0.69634867 -0.15693732 -1.0936053 1.0725772 -0.5960965 -0.5786142 -0.62889457 -3.3030267 -3.819598 -3.8944428 -0.071969464 -2.3989413 -2.8325694 1.2641796 -2.7669506 -2.1894486
3002 5.0403757 0.71918166 -3.7459412 -2.0207782 0.22769563 -1.7994599 1.269487 -4.00073 0.4450505 3.0296943 2.3036997 2.7185416 0.5113094 4.7806 -4.940807 -4.6148906 3.584484 -1.5839354 -2.6344848 3.6988435
400 0.536012 2.9754863 0.39846903 2.5795918 1.0976692 -5.5956335 5.5367455 -0.01703815 -2.3215387 -3.8117688 -2.1978235 0.6871409 0.9231563 1.5986296 -2.492325 2.687658 0.5501627 -1.6874624 1.5169401 -2.7036352
1014 0.90519565 4.006285 3.2923813 1.5402571 2.2089639 3.633729 5.7917614 -2.0861232 -1.0721444 -0.4588317 5.285947 -1.3145695 -0.61452067 -0.2891502 0.51746804 -2.8983982 2.5962286 -0.44229338 3.2413237 0.116543554
1522 -1.5260227 0.47163168 -3.346107 -1.4176358 -2.6192312 3.6222692 1.6375749 3.268045 3.809612 -1.6268557 -0.103076145 1.447736 -1.0145128 -2.1279156 0.05738135 0.48109037 1.7404288 -0.54483545 2.541882 -0.7480467
1238 -2.8057861 1.7568072 -0.018955572 1.3888313 -3.1357133 2.2242665 3.6621888 3.4513786 4.6639814 -1.6985219 -1.5571095 2.654945 0.83594775 -0.55211556 3.2610002 1.2010405 0.5204125 -1.4394797 1.7625277 -3.0828364
312 4.1739244 -3.5305996 4.834137 -3.5756495 4.215946 3.4920464 1.7226354 1.4080019 -1.2549943 -0.56398815 -1.5173798 2.7938678 0.0134813525 -2.6407387 4.5809627 2.622269 -6.7462707 2.079201 -0.37042117 3.787539
567 -8.246366 5.059158 1.8239787 3.5753434 0.71947485 -3.3662608 5.9889975 -4.3179646 -5.896231 -4.9907293 -4.8057747 -1.3468709 4.4934797 3.147922 -1.1169617 2.1441011 0.757807 -1.8124067 0.4134652 2.2752995
993 -1.1589273 2.2785766 -3.4790263 -1.8570329 -3.4432604 3.5998797 2.7874417 2.1806588 3.9852006 -1.4243366 -0.31567597 1.0348483 0.7769674 -0.25544012 0.058236558 0.5829507 0.5781848 -1.4131029 2.1604855 -1.9348875
688 -2.8883677 1.7947928 -2.225952 6.5483427 -1.4681212 -1.8489856 1.132394 1.9025792 -1.2603388 6.354724 1.4896166 0.7117157 1.4921583 -1.2239496 -0.041102003 0.943139 2.286251 -2.0343819 -3.0614245 -1.1173043
1146 -2.026306 0.33276236 -3.863671 -1.5080019 -3.2193356 3.9856534 1.2254395 2.6169689 4.383095 -0.48822272 1.0013342 0.5913737 -0.54723704 0.9103885 0.3475689 -1.5690802 2.6220696 -0.18995269 2.9218047 -0.65003884
3672 -5.787729 4.490331 1.8788257 0.51273435 -2.6187367 3.8755465 -0.32933214 -0.9964226 -0.57370794 -0.6902301 -1.9954311 -1.5343897 -0.32896608 3.1095376 -1.579012 1.6680242 0.4272279 0.81610405 -7.086517 5.7130446
1736 -1.4762176 0.3933421 -0.79776907 0.15793046 -3.7232573 3.2524567 2.6498835 4.533803 3.7074244 -1.9765815 1.4112512 1.7318041 0.32049966 -2.8881123 1.0846629 1.434999 0.9423172 -0.15599722 1.1003882 -0.77737236
3019 7.375206 -0.006844991 -2.5291429 -1.7132041 -2.2354782 -2.039724 1.0281137 -4.9092245 3.165524 0.30973962 -0.57338774 3.063168 -0.31990096 4.1746163 -2.5206993 -5.353578 -0.6029325 0.84968805 -3.850762 3.546955
3930 -5.683149 1.4487008 -0.6456631 -0.2500573 -1.7480267 2.5726058 -1.4033421 -1.2795055 -2.579278 -2.3909607 -4.490008 -0.15554503 -0.925769 2.7575517 -3.2434928 4.355718 0.21107474 -1.8400589 -6.0195365 6.7055125
1185 -1.2033707 0.22937493 -2.883889 -1.7119125 -1.6345416 4.7230954 2.560037 3.7166822 3.538759 -0.6780897 1.4836165 0.9912162 0.76604116 -1.2258846 -0.06431133 0.5964028 1.92359 -1.1753329 2.4307063 -0.80614215
3734 -3.5077162 2.0981584 -1.940038 4.484458 -1.3259153 3.3235216 -1.4096282 -3.2108653 -0.6546668 -0.319513 -3.5483327 -1.9780045 -2.0846832 1.0814121 1.5054417 0.19295302 0.9661016 -2.9573376 -4.643862 4.1050477
3060 2.349909 1.0068109 -3.3075593 -1.8774834 -3.7044275 -3.4205236 -1.5077729 -3.7689037 3.056534 3.7642424 3.1521995 -0.8782427 3.256987 2.911943 -1.8932958 -1.2434697 -0.024350911 3.0335128 -2.0013342 2.6510525
2266 -0.33493054 -3.159188 -4.1974964 -0.7013739 0.72934705 -2.412584 -1.5509148 0.4646509 -3.0752175 -1.6414648 -0.87915087 -1.9191463 -1.320278 -3.075984 2.3002996 -1.117211 0.2607248 0.7565224 -3.6150777 -2.293221
1786 2.0038724 3.2053406 3.010665 1.2631209 1.4653394 3.8319726 5.4538736 -0.7943259 -1.2637138 -0.9945843 5.2117586 -2.0224037 -0.5555323 1.0758648 1.6790408 -3.2273145 2.27151 -1.055251 1.8344193 -2.022913
2986 4.629732 0.81687003 -0.5505594 0.029108996 1.8198981 -2.0256863 -2.2603831 1.2894378 4.4142504 -0.33802992 0.5200023 -3.7151883 -1.1303596 2.939815 -0.17594403 2.148826 1.2535441 -0.3770069 -0.5484607 2.5588374
3824 -1.9275613 1.0246089 0.215028 3.2541306 -0.36835414 3.1157136 0.15604873 -1.7839673 0.16121829 -1.6261585 -4.557446 -0.14097027 -1.4513718 0.38700756 -0.648249 1.5334239 0.0076140193 -2.171115 -6.7578473 4.932656
3804 -2.7797742 1.0682652 0.22453079 0.76893836 -0.0345436 2.2130296 -0.2786018 -1.9655287 -0.37574217 -2.0209982 -6.041311 0.6139354 -0.7272701 0.67972225 -0.7166958 1.9331648 0.8354648 -1.9093183 -7.1019855 5.1085153
431 -0.982644 2.9008281 -0.8381531 2.9583087 0.41107407 -6.340702 4.8895397 -1.129912 -0.266524 -4.051286 -2.204451 0.052323163 -0.53642464 0.5903182 -3.8521693 2.900769 1.0871813 -1.8592695 2.8666897 -2.354466
526 -1.9818009 4.843281 -5.8339443 1.3994632 -3.830801 -3.5520775 6.8474045 3.5313146 1.840356 -9.044714 -2.7988865 1.0764443 1.0403087 2.3307989 -3.0146255 1.5069551 6.5755997 0.38345343 5.6062746 -6.151181
374 -0.09301005 3.9262514 -0.72531164 0.3392173 1.5622396 -3.4871612 5.845628 -0.3904769 -3.4031124 -4.6220684 -1.3160015 1.4110444 1.2883044 1.0438032 -3.163226 4.1314793 0.31161287 -1.3493198 2.1812541 -0.7132954
2032 -1.3419374 -1.8084875 -0.54728776 -4.0534415 0.80481505 -1.0781835 -0.9958137 1.2017523 -1.1907395 -0.5566338 0.59059495 -3.5250914 -3.1177604 -3.739287 -0.32072458 -1.8380035 -2.970546 0.8148388 -3.1845238 -2.2785144
2956 4.7225666 0.3631641 -0.91302574 1.8584018 4.05801 -1.361554 -0.94242334 -0.54801464 4.299239 0.97945386 1.1448109 -2.5591784 -1.3594805 1.5710827 -0.644128 2.6702244 -0.23179859 -1.7306528 -1.0596282 2.764491
3800 -3.1501746 1.5244216 -2.388564 3.4241037 -0.8889379 2.4763508 -0.08620182 -1.6354296 -0.002425547 -1.5854206 -6.139659 0.015373678 -1.0932782 0.5952303 -0.67552364 0.3934644 1.8138396 -2.0135684 -7.0295954 4.4634714
1017 -2.0033865 0.7048982 -1.6060703 0.8376551 -1.6644611 4.8908954 2.0569284 4.1520734 3.7252223 -1.2531284 2.1201952 1.633366 -2.6484165 -2.2205725 -0.38386217 2.2147014 1.6323395 -1.1098051 1.4081225 -0.23729421
1192 1.4975535 2.1255198 2.7752202 2.7826238 0.3915774 2.94693 6.883039 1.4422504 -0.49501136 -0.99551994 2.8702314 -2.1205893 1.8115702 -1.0212352 0.1122363 -3.5899603 1.7021738 0.04948516 1.5410688 -2.9475193
1358 -0.0060316976 2.2833118 0.90904516 2.5044074 -0.6214894 0.7921473 6.342635 3.9388964 -1.7489483 -3.7177522 -4.241302 0.43019822 -0.20628199 4.2349772 -1.4705778 0.61514634 -0.047791943 -0.21841325 3.8803587 -5.373582
2336 -0.40410605 -1.9966762 -1.2423228 -3.6471379 0.31855655 -0.85682136 -1.3520484 0.64977795 -0.9995394 -1.0292504 0.20427871 -4.237273 -2.920309 -3.9897237 0.5695432 -1.8943362 -3.2324896 1.0202786 -2.6742268 -2.8286965
2748 5.786983 1.8454431 -5.6450167 -1.0816525 -1.5311654 -1.0379224 -2.7285557 -2.5835032 1.9693706 3.4546628 0.17801471 -3.3884585 1.2316533 5.260492 -3.0973904 -0.9734902 0.08427198 2.6328454 -2.299946 1.6575466
1583 1.020931 1.6329274 2.2794905 2.7803617 0.72408956 2.6437378 6.006917 -1.4912609 -0.8496297 -0.95748967 3.5589767 -1.2908369 0.9033453 -2.2560775 0.56664073 -3.6099122 3.64533 0.8065118 0.9863954 -1.1708485
172 4.760439 -1.278005 -0.38710883 -4.3421555 -1.044659 2.455423 -0.8110079 -0.7183056 -2.7277129 -4.4110456 -0.6513683 -1.8493369 1.3579081 0.905427 2.8832972 4.693512 -5.2094803 -0.24222748 3.3709536 2.8594265
2849 3.844994 -1.0266123 -1.8351752 -0.8280792 -3.9549046 -2.1908107 -1.0732858 -3.096021 1.3354683 3.9830582 2.3507304 -3.3609664 3.2079034 2.7090905 -4.769827 -1.2319356 -0.64724904 0.32133892 -0.59095275 1.0336905
2669 4.774187 1.8871616 -0.9317585 -0.24743362 1.0353639 -2.4269624 -2.1746738 0.17029463 4.516765 -0.5952876 0.47968072 -2.052431 -2.20318 1.6530235 -0.9876405 1.8061597 1.455719 0.270692 -0.6281275 3.7719493
3256 4.840696 -3.7434154 -4.2006927 -0.20016484 -0.011231691 -4.75027 -1.7137127 0.29878446 -1.5157503 1.6468351 1.3482597 0.23151836 2.2834384 9.457142 -3.4722297 -1.5874181 -0.44011772 1.4602942 1.1150392 6.3733172
3078 5.0080132 0.33295655 -0.34970793 0.46980324 0.32625866 -2.6378312 -2.3331723 -0.67340195 4.8517594 -0.69904757 0.33624506 -4.2150264 -1.257295 1.5637019 -1.6396483 1.9208815 0.8142948 -0.40673354 -0.6334808 2.9569051
3455 -4.414872 1.5480008 1.2606311 1.2440441 -3.2439666 1.3498757 1.0316138 2.7196703 -1.5540359 -1.9064723 0.060774244 -2.2267857 0.6505669 2.1485655 0.5120086 -3.7364042 -3.3967752 -4.798586 -5.6279945 6.406398
3396 2.1954453 -1.1137959 -2.4749827 -1.6382337 -4.0961885 -4.602776 -2.0412185 -3.1341436 3.6765153 2.194202 3.1307425 -0.36141858 1.8586547 3.8369546 -2.0678003 -1.7259109 1.3164147 3.8687418 -2.8070214 2.5292563
3387 5.254527 1.0529809 -0.71269166 1.3868252 1.4213098 -2.4476461 -1.825607 -0.14985557 4.34596 -0.81549925 0.03875865 -2.5024965 -2.8368163 2.055368 -0.6006389 1.7781066 0.13403548 -0.6067872 -0.96834916 2.7341864
544 -0.091069646 4.039205 0.45380616 2.0152202 2.172676 -3.4822323 5.614784 -0.6204547 -4.021431 -3.1234813 -1.2208784 2.2278335 0.7093566 2.1396928 -1.8286023 5.086985 -0.5029034 -1.3632277 1.7615743 -1.3869342
2901 5.1925864 -1.0230894 -3.3802855 -0.28733274 -2.07187 -4.470051 -2.344232 -4.6919494 -3.2834017 2.737967 -0.46180668 -2.5900173 0.26198503 3.7597823 -5.633082 -1.2498909 -1.1977842 1.6370473 -0.21976118 3.0295165
1985 1.0758373 -3.2459733 -1.8823428 -1.9535453 0.68530184 -1.4274148 -2.182211 -0.087693594 -1.9042249 -1.7844651 -1.7407423 -4.3887877 -2.1056037 -2.7930171 2.6130745 -3.3558486 -1.3302199 -0.16190408 -3.1333466 -2.6698573
703 -4.931084 -1.3337034 -0.3691066 5.6086345 -0.8688797 -4.704969 1.0583494 -0.44385517 -2.6218197 5.194545 2.6028044 1.0820446 -0.33733767 0.24241608 -0.31861514 -0.25297388 3.614117 -3.3405888 0.25681683 -1.8114476
1345 1.4601371 1.4237528 2.9904792 2.1721425 1.1746544 1.7340971 6.0173044 -0.51358926 -0.5858132 -0.64959425 4.3172436 -1.8102739 1.2922478 -2.2172608 0.17988305 -3.148909 2.9453466 1.3238862 1.7619686 -1.1508741
1926 0.5926793 -0.95765394 -1.0589192 -4.643718 2.137625 -0.56300837 -0.11471028 1.3426185 -2.7888396 -2.2029037 2.2104278 -3.8339202 -3.0269291 -5.8671813 -1.5275518 -1.3255051 -1.0596243 -1.3841224 -3.739928 -1.6478459
525 -0.3974968 3.6157322 -1.1405286 1.4791087 0.09896887 -5.2267904 5.259103 -0.6562854 -0.9147327 -4.6356263 -1.2403501 0.32817066 -0.39282584 1.0558208 -3.6935012 2.2699466 0.8359759 -2.3870273 2.2034483 -2.2369301
2782 5.0486197 2.1495593 -0.2580489 0.78316 1.6529068 -1.9078662 -1.6728957 0.46988577 4.8836894 0.2022752 0.53253096 -2.931541 -1.9192902 1.5458504 0.40629506 1.4483855 -0.29474843 -1.0296707 0.49190393 2.9598706
853 -3.870382 0.6233741 -0.9444352 3.1634119 -1.1197444 -1.8824786 0.11927522 0.22472021 -2.1661847 6.408012 3.4525597 0.06635893 3.206938 -0.102567196 2.13185 2.3182263 1.7377253 -0.6324382 -2.0878985 -2.0889018
3347 2.9727337 -1.983305 -2.2846882 -1.2256174 -4.6893873 -2.9391515 -1.6639172 -4.972332 2.1223927 3.841618 2.4889872 -0.013424688 1.8794794 2.0134015 -4.2242227 -0.6726775 -0.07204505 0.10654483 -0.8794737 2.2361717
3026 4.356655 1.2134191 -0.40974736 2.7584977 2.3078742 -2.1108892 -1.4202929 -0.31953707 4.583101 1.3273958 2.3061366 -2.2504978 -2.4982653 1.7482471 0.29510882 1.942525 -1.3551408 -2.3210998 -0.76289976 2.8656769
1703 1.5553972 2.5355074 -0.2771566 3.1193008 5.2911825 4.5617547 3.8651469 0.677955 -0.8395937 -1.0613248 1.3947936 3.5536711 -4.2447248 2.2142763 4.2567573 0.046811778 4.595165 3.4713821 2.2587054 -0.98466784
213 3.1432369 3.4548776 1.5282357 -5.1255836 -0.86582756 2.8932018 -1.0391912 -1.2562662 -1.563114 -0.374796 3.5446277 -3.1113608 3.3589215 -3.6754212 5.034675 3.8034961 -4.7204137 3.4903738 -2.1298661 2.527347
1447 -0.8004087 0.4644057 0.08073188 -0.58424693 -4.5142713 2.9275746 2.1331995 2.9822736 7.0576816 -1.9484134 0.2195601 1.7738769 -0.5657373 -1.51603 2.97909 0.13303334 0.32652903 -0.12015686 0.898385 -2.1568735
1879 -1.0448434 0.32474267 -0.91779345 -0.07073864 -3.4387968 3.6295967 1.6894337 4.1108804 4.2467885 -1.6180831 1.219973 1.7821695 -0.7820935 -2.1101384 1.4730011 2.4869885 1.895315 -1.2530695 0.78805906 -1.7147601
3629 -4.1129627 1.2920797 0.9909258 -0.20601429 -2.4308527 1.6908171 1.1556288 3.3207467 -1.6736882 -2.2910836 -0.885963 -3.4682562 2.8456032 2.482247 -0.26380235 -2.8679898 -2.0211966 -4.8098707 -5.2011065 5.9968452
834 -3.5095787 0.78753245 -0.78670114 3.8278244 -0.46632558 -2.2002587 0.21538045 0.7885116 -1.4355171 6.049788 2.1621764 -0.28716737 2.5847132 0.49012646 1.6438055 1.8023587 2.3165236 -2.3790288 -2.509225 -2.228477
3140 4.609116 0.7330554 -5.881985 -1.2291564 -1.2004844 -1.854088 -1.6801648 -4.1456046 -0.10668974 4.783261 -0.3495012 0.21883163 1.0441462 4.7994456 -3.5567694 -2.728147 -0.8898724 2.0512662 -0.93586475 3.1993232
3360 4.7092605 2.2575157 -3.9733481 -0.58685696 -1.062132 -1.8198091 -0.6466658 -3.0330954 0.68462837 5.835083 0.34765953 -2.5001552 3.307733 4.063156 -3.3881671 -3.0244198 -1.8320982 3.4216208 -2.3795757 2.0751488
1222 -2.163556 4.121325 -1.701927 -0.56136286 -3.9204059 2.1951823 2.4596717 2.4919865 4.7362704 -1.2934127 0.33211058 1.4896405 -2.4212003 -0.23827331 0.23761433 -0.60142475 1.9375046 -0.7951687 0.9030066 -2.9263294
2642 -0.7989598 -1.5480796 -0.20986111 -2.87678 0.88465977 -1.8134453 -3.0500498 3.1356435 -2.594047 0.37145644 -1.3632202 -4.5517535 -5.308116 -4.163006 -1.9890393 -2.2179031 1.6790045 0.73493886 -3.664111 -2.4148822
1505 3.8710446 -2.7503796 -1.2567772 0.38833266 -4.524662 7.922862 -0.9468872 -3.0989015 9.806353 3.7054548 -0.55718863 0.28517628 -2.30559 4.4907246 -2.886462 -7.486677 5.059969 6.8033943 0.07890816 4.0875998
2233 0.54772556 -2.4988866 -0.9584412 -1.3984808 1.484405 -2.1849835 -1.6097969 2.2749944 -1.4271119 1.0306098 -3.8120575 -2.2223716 -0.7944053 -3.0334208 2.1709297 -2.688181 -0.46544814 -0.30045182 -3.9565394 -2.9219215
3924 -5.424146 0.26046658 3.578942 -1.158491 -0.7958121 -0.9599464 -0.25930995 -0.890712 2.4828475 -0.660248 -2.1609454 -3.761814 1.167327 1.3874052 -1.1186637 -0.5557899 2.3568387 -7.325468 -2.5528638 3.4883182
2268 0.6598096 0.5686159 2.13692 -5.4434867 -1.1829664 0.37401477 -0.9914675 0.36430687 -2.0026882 1.1977187 0.21494244 -2.5246618 -2.7421086 -4.5639296 1.0499268 -1.4539021 -4.2688975 -1.3289822 -6.1402345 -5.482853
113 3.2003174 0.33669758 1.5840273 -5.500474 -0.6038124 3.8255563 -1.7950952 0.44606334 -1.3874811 -1.5008452 -2.7947016 0.2780142 0.40607703 0.45099393 2.0747516 4.2798924 -2.6916943 1.1955007 1.5753083 4.3047485
1557 -2.0676947 0.5166628 -3.5471818 -1.8603256 -3.3554409 2.3063176 1.5958108 3.6415164 3.0297718 -2.1812177 1.1781895 0.5455565 0.36219063 -0.41808078 0.73968595 0.9105531 2.559818 0.5936613 3.30218 -1.9423785
1662 -0.8657599 0.39791054 -1.1005853 -0.8163996 -3.4452195 3.883768 1.9181963 3.503055 4.410925 -2.1727266 0.43444243 2.3001344 -1.026521 -1.6782576 1.0061812 1.7742664 1.8133206 -1.3635081 1.2231525 -1.0254492
507 -0.15907519 3.63803 -1.5135354 0.025967482 0.8154077 -3.0596144 5.4742126 -0.41145253 -4.362944 -4.7263255 -0.2185812 2.7205307 1.2650896 1.7623672 -2.0661087 4.940248 -0.25036243 -1.0972762 2.406238 -0.44211772
2915 4.7444143 1.3678666 -0.087516874 1.2847638 3.5455997 -1.9382659 -0.7947964 0.2782731 4.583375 1.1617275 1.5110418 -2.1170313 -1.5584273 2.0155473 -0.48220575 1.393589 -0.8040067 -2.1678367 -1.3384914 3.09091
3448 -4.4581633 2.6910982 -2.5756636 3.4216409 -0.89334154 3.3548415 -1.2810587 -2.5571182 -0.4461591 -0.1765813 -3.3484669 -1.50656 -1.6760726 1.2510601 -0.1160806 1.7019843 2.6876538 -2.587695 -5.2271934 4.380787
2068 -0.7878738 -1.5033019 -0.5681308 -4.058875 0.7696962 -0.7901059 -0.7054226 0.3509598 -1.4449955 -0.6320347 0.74656254 -3.4370039 -3.6081276 -3.9879415 -0.29661092 -2.437681 -2.8331046 0.97085875 -2.482571 -2.188651
651 0.916671 4.684002 0.09400687 4.297905 2.3380253 -0.40399984 6.242667 -0.7688386 -2.7724462 -3.7077165 -7.1638346 1.921726 0.3487691 4.7295895 -0.15202281 2.1769066 1.9753801 2.395878 3.5510504 -3.4868639
3263 2.915065 -1.9343095 -3.5705879 -0.43653378 -0.8350068 -1.3827798 -1.5290366 1.972791 6.385393 6.0137343 2.5577574 0.46170035 -3.4182668 4.2203984 -4.531753 -9.398703 5.49089 3.2684727 -1.5601226 2.4827132
2890 4.649059 1.6398522 -0.683021 1.9259814 2.9358828 -1.5756034 -1.0754972 -0.4504007 4.4306736 1.5578887 2.2872794 -2.4521677 -1.3841815 2.063369 0.6384883 2.0244308 -0.973629 -3.83405 -1.0342946 2.2999828
1799 -1.8326861 0.13300064 -1.8199193 -2.7790217 -2.12555 5.4358053 1.4572579 3.0994585 3.0641906 -0.89948046 1.5751628 1.4052176 -0.3984903 -1.0151086 0.31764224 1.8475178 3.0821033 -1.3812191 0.8269763 -1.7045032
3966 -3.5824337 4.3946543 2.3972425 2.1619678 -0.90145034 3.3267913 -0.4333419 -3.6594207 0.30799758 -0.0635361 -3.3194587 -1.1281364 -1.045908 1.2170514 0.59087014 2.1543593 0.7853348 0.8520664 -6.9629407 4.936326
323 3.86593 -1.6332742 3.02034 -5.7041903 -1.7093763 2.780907 -1.509958 -3.268014 -0.838467 -0.39288256 1.0091877 0.24912639 -0.1396818 -1.6844217 1.8796263 4.034977 -1.1556922 5.4991474 0.7178226 0.9294232
3302 6.15373 -1.4449614 -2.311902 -4.7593455 -2.08643 -2.251913 -1.9134808 -4.1568937 5.616752 3.9860516 -1.9911492 1.5018232 -0.27118146 5.684117 -5.9371986 0.2365761 -0.5105287 2.210166 0.3100745 0.5240666
3214 4.1410723 -3.1342738 0.57893157 -0.46122852 2.695504 -5.6523223 -1.5913575 -5.0793076 -1.8219889 5.8684506 -0.38243577 -2.383822 0.2628981 4.0851436 -5.8250713 -4.079655 -2.540939 -0.3348578 -0.6830323 5.231884
2138 0.23437506 -2.6771038 0.15903834 -4.0278754 -0.024619024 -0.4203674 -1.4439597 0.3666546 -2.0318735 -1.7155073 0.240015 -4.3147416 -4.46788 -3.8884048 -0.41946304 -2.5257962 -2.7381644 0.8992077 -2.6920648 -2.0146008
2153 -0.8505237 -2.0634446 -0.15485257 -3.3621943 0.49915722 -0.9388068 -1.6501793 1.0511286 -0.07528707 -0.6279628 -0.63735956 -4.3577347 -3.8968809 -3.7315717 0.44760928 -2.9436269 -2.287143 0.815932 -2.6003783 -2.1446397
1107 -1.0627419 0.44069108 -1.0120655 0.57360387 -3.432201 3.5457528 2.166426 4.4042044 4.153842 -1.5070411 -0.38598093 2.361998 -0.5582315 -2.0265057 1.0243174 1.7850658 1.5169748 -0.9854112 0.9854828 -1.2488629
2292 -0.16022313 -2.3791304 -0.26625213 -2.626862 0.96594054 -1.4307891 -1.7908505 1.5507586 -1.359934 -0.51596475 -1.1175663 -3.5573237 -4.3814807 -4.286188 0.5799989 -2.7202897 -2.3295336 0.82532513 -3.1309338 -2.2576485
3998 -2.4126322 -5.0011387 1.3212615 0.7174168 0.88957655 -2.069789 1.1109108 1.049149 -0.9506104 0.8571119 0.20369843 6.6485167 -1.046035 -0.9679377 -0.0967525 3.6915486 4.4535503 0.75147873 -1.0267894 3.7125232
524 0.11745545 3.0101519 1.1014905 1.4974495 2.124322 -3.800443 6.0161786 0.19550544 -3.6400845 -3.7053785 -2.8112063 1.7986199 2.5917292 1.528641 -1.025229 3.4019961 0.026633305 -2.5783231 3.2764802 -0.9995261
41 3.619088 -3.6219192 4.7362757 -2.7587156 4.1645956 2.534953 1.4923654 0.96079946 -0.52294564 -1.2881604 -1.3637635 1.8125681 -0.19443598 -2.3019001 3.488412 2.588661 -6.593159 2.6443088 -0.04151424 4.395463
2904 2.7684152 1.7160016 -1.4842609 -2.0141091 -2.8620298 -4.345028 -0.7942484 -2.6434207 1.8808867 4.6965094 0.3165376 -3.1489363 2.6232498 3.3309844 -6.5497313 -2.853923 -3.6160944 0.3360202 0.0015681611 4.52112
916 -1.9983926 0.7255447 -0.55829257 -0.7690892 -3.200789 3.8598871 2.2095625 4.6086783 3.4748158 -1.6213224 0.20393156 1.577797 -0.25930625 -1.5454391 0.320757 2.3659413 -0.71075547 -0.360179 0.6827894 -1.3701786
3705 -5.008834 1.6605288 2.4685118 -2.204422 -2.6053414 -0.9609297 0.5907698 4.0068173 0.8862675 -3.6407804 -1.1809468 -4.2998 2.2913468 4.1398067 0.09770147 -4.5807567 -0.24557102 -13.891036 -3.6399941 4.2225
492 0.5441317 1.928093 1.3761829 2.1220698 2.3240867 -5.4283686 5.6828156 -0.29032573 -2.941629 -3.8694496 -2.2858315 0.26682743 1.4451002 2.2652144 -2.1239882 3.0206945 -0.00903079 -2.569208 0.7760228 -3.2219324
1620 -4.1939607 2.9628115 -2.8340518 1.2607502 -2.465319 -0.14939328 3.2849126 2.5236123 3.4658132 -2.607319 -1.7539392 1.8910496 -0.15302451 1.1648415 3.0569005 0.21299517 4.6013665 1.1155086 3.334322 -5.214025
1603 -1.0773076 1.2773198 -3.6859019 -0.99652267 -2.1947956 5.010106 1.9774402 4.318786 3.2105176 -0.4787344 0.8770428 1.6578257 -0.49179962 -0.7419289 0.47700587 0.8906283 2.1449556 -1.7574979 1.9708384 -0.92636496
3968 -4.0320215 1.4318147 1.1272813 4.5135603 -2.664231 4.254141 -0.41475922 -3.635834 -2.5245392 -0.7425932 -0.6866929 -2.2026916 -2.0122259 0.5878008 -0.2613434 1.4173664 -1.4681822 -2.9705558 -5.211287 4.8352056
3829 -6.1822543 -3.6902308 4.272936 -1.2604971 0.044874884 2.6825712 0.045609664 -1.9499362 0.9660955 0.9162649 1.122576 -1.4848258 2.9016292 1.5761439 3.4340165 -3.6668844 3.6304615 -4.490758 -5.674424 3.3183696
2511 -1.9390635 -1.0057768 -1.2983718 -3.440356 1.3905616 -2.7907264 -1.4116687 0.49971423 -1.2546741 -1.0469246 1.0145273 -4.6830187 -2.934346 -2.4831598 1.1234009 -1.9848343 -1.754087 0.21782805 -2.375076 -2.8772683
3586 -5.662393 1.7687744 -3.2389927 4.791996 -0.9745392 2.5610578 -1.0641562 -3.489092 -3.1127412 -0.33757403 -3.2300968 -1.8534161 -0.96858436 1.6711285 -0.38551244 0.7686584 3.5648034 -4.273909 -3.1586618 4.959135
1717 -3.0545936 -0.46556762 -2.1657798 -0.9880556 -3.1553402 2.2581615 1.8022914 2.4458299 4.548767 -1.4594715 1.2536557 0.9591354 1.0005386 -0.29201487 0.7636538 1.6962427 2.1918447 0.32070726 2.9418726 -1.8115361
3233 8.44699 0.28064874 -3.3807929 -3.058305 -1.5322675 -1.9751259 2.193984 -2.4132977 3.3336754 0.743661 0.38102522 3.088345 1.5261418 4.207985 -3.9243777 -4.159803 -1.3231921 -1.5778415 -2.5117936 3.0562632
2927 4.1506567 0.7098687 0.47504985 0.8789861 1.6905527 -2.431105 -2.531606 1.5175301 3.897616 1.5241174 0.6954496 -3.499544 -1.1162432 2.7948196 -0.20642276 1.848675 0.117507026 -0.32705718 0.1867067 2.6834002
3027 2.0684867 -0.86752075 -3.866127 -3.069895 -0.26657504 -2.7769468 -2.3346376 -5.87665 1.890653 4.1437387 1.8318477 -0.6935412 -0.47024268 4.0070643 -5.894006 -1.2897733 0.884376 -0.5117098 0.43784687 4.880108
2828 3.5545113 -0.530403 -1.7224271 -0.92364687 -4.897151 -2.8385484 -1.6148647 -3.910049 1.348178 2.918655 1.5940514 -1.8514555 2.805253 2.2598872 -3.7633495 -0.037671845 0.23749177 1.2641892 -1.853045 1.2764678
325 4.5082884 -1.2303476 -0.03179859 -4.280519 -1.4121208 4.227953 -1.445789 1.0306697 -2.797803 -1.6112814 -0.97739863 -0.6407323 2.0797517 0.863646 1.8175461 5.017251 -2.724113 -0.012082532 0.59663135 2.0923932
1793 -1.1491004 1.1247697 -2.108315 -0.04440038 -4.0536737 2.9847229 1.7508333 4.170052 4.207928 -1.7445608 0.7247557 1.926307 -0.5658228 -1.5175189 1.5970333 1.0415275 0.97157586 -0.7456358 1.2893702 -0.9403764
3982 -1.6075202 -4.0545125 2.3674805 1.3097637 0.92096597 -1.5357379 1.3451422 2.165197 -0.8644305 2.0281687 -0.8555611 5.615846 -1.2014161 -2.0091062 -0.6793775 2.0188923 4.160801 0.8274201 -1.9153107 3.1021187
2679 5.1131477 1.1904224 -1.0558356 1.1695231 3.0357718 -1.3093683 -1.6715847 1.3719807 3.3951745 1.8629009 1.0799164 -3.0982406 -0.7046731 2.7829387 -0.64034325 1.5783566 0.18157469 -1.3551208 -2.8055253 1.9431529
2142 -0.84077454 -3.1266444 -3.7656562 -1.5477823 1.3888952 -2.8943079 -1.6774477 0.9476439 -3.3427634 -0.81565356 -0.52812904 -1.9614022 -0.38789704 -2.3031232 2.5439506 -1.5538505 -0.09836185 -0.47215673 -3.3794289 -2.2045715
261 5.016038 -1.4978122 1.2963187 -3.6927857 -2.914931 4.3661942 -1.1549613 -0.09373541 -3.2315443 -1.8904325 -0.7339547 -0.24434286 1.6600735 2.0283885 2.9889724 4.6232014 -3.8081567 0.7373938 1.2384809 1.4299799
3136 4.3141193 -4.6429734 -2.039467 -3.777147 0.83698547 -2.3369021 0.20406075 -1.1405627 3.32916 2.3983412 0.6822151 -0.36461923 3.9050543 5.5892854 -3.3515751 -5.354405 1.0192766 0.9672769 1.2596756 4.3616743
514 0.0061801407 3.7607837 -0.15907432 1.8946882 1.4139217 -3.495766 5.5996475 -1.0052361 -3.916885 -3.7009394 -1.3235096 1.6333855 0.20619102 1.6125536 -2.753696 3.6319766 0.12101706 -1.1715649 2.7357242 -1.1202104
3971 -3.5385861 4.1751604 2.6468794 3.7063942 -1.9831388 4.616687 -1.3014985 -3.2352564 -1.5372616 0.22317095 -0.6061365 -3.0635774 -1.7914085 1.6898457 1.1829332 1.4831237 0.42727286 -2.1533332 -5.203676 5.1465116
3049 4.187562 -1.7308028 -0.35182095 -0.799132 -4.0273013 -2.7841272 -1.3617221 -2.6738415 2.2891347 2.3576083 1.0588715 -3.6970203 2.519183 2.5328248 -5.5528316 -0.38984573 -1.0302087 -0.25995606 -0.8399943 1.902374
1076 -2.042491 1.0982529 -1.3176454 -2.863348 -3.5751765 3.9328234 1.3806106 2.424527 3.0020266 -1.1823093 2.7821634 0.67357445 -0.70348513 0.058785725 0.9462293 1.0880761 1.8463619 -1.3954171 1.6684277 -2.586575
3017 0.5416257 0.15161592 -4.195942 -2.1310146 -1.5699258 -5.415726 -3.123653 -4.73819 2.7360933 4.4558325 2.3534913 -0.21189362 0.74777204 3.1559875 -4.0634828 -0.6471707 3.5360777 0.95481086 -1.2000426 3.9363713
3366 6.571043 -0.98980296 -2.1747146 -2.7203658 -1.6724414 -2.2147748 1.8717316 -4.0682197 3.8743186 1.9971011 1.4145099 3.1061862 1.2644423 2.8900516 -4.486358 -4.38305 0.047637865 -2.5651934 -2.99074 2.8103538
1331 -1.9974828 0.85528404 -1.6284515 0.9359131 -3.501754 2.4887516 1.6970961 4.0966763 4.9150434 -2.251796 0.29517785 0.8645463 -0.28390646 -2.3589647 2.2467723 1.4807463 1.3642974 -0.2603303 2.266946 -1.0220878
3488 -2.9411793 2.0486693 0.9150357 0.32173452 -0.21541835 2.5421367 0.6307954 -1.5408516 -0.09899551 -1.8242553 -4.6440034 0.9463503 -0.24864484 1.0850221 -0.60054237 1.2132103 -0.009744784 -1.0183386 -7.499676 5.1123185
3000 4.7486796 -0.29644778 0.8724029 0.9789683 3.73509 -2.0557659 -1.479834 1.6127983 3.6842818 1.1949145 1.6682588 -2.869671 -0.647091 3.3104877 -0.12747535 2.6680043 0.6966261 -1.8742985 -1.9321111 2.0150685
1250 -2.9550529 -0.9547361 -2.0677495 -1.4218405 -3.6196554 1.9310085 1.8990748 4.1523027 2.7998555 -3.03103 1.9693117 0.63108194 0.75406164 0.23072635 0.8743441 2.612612 2.4011636 0.114414126 2.9341953 -2.7537985
3406 3.6492908 1.2816885 -4.583234 -0.5828776 -1.3772004 -1.0911152 -0.6500795 -2.9848173 1.1106591 4.6890497 1.0597088 -2.534348 1.6880056 3.152002 -4.034653 -4.3147883 3.0205977 0.040446214 -1.7746779 0.5953557
3790 -2.3685105 1.2671688 -0.26087955 0.8143915 -0.30177975 2.277314 -0.22258574 -1.6585494 -0.37694636 -2.6028855 -6.692155 0.47427672 -0.89010006 1.0321401 0.4649974 1.1135138 0.121118404 -1.3765327 -6.678515 5.254931
1006 -1.2140136 -0.5190287 0.113246374 1.1893618 -3.210363 4.1875596 2.1981285 4.366882 4.5772967 -1.2397524 0.45509833 2.3920915 -0.6137096 -3.230769 1.4442165 1.9371428 2.1846273 -0.5874753 0.60788023 -1.0683888
2510 -1.4871403 -1.8281356 -1.3968838 -4.423056 0.47545493 -0.71734375 -1.2279166 -0.12165199 -1.7359201 -1.0376312 0.29284716 -3.1546006 -3.7398825 -3.5486324 0.05152605 -2.188145 -2.69148 1.0138301 -2.5124097 -1.8486547
2694 5.224222 1.2201643 0.5173533 -0.70852244 0.4222412 -3.0144129 -2.2703724 -0.27009416 3.4728994 0.20429286 0.6061203 -4.3389907 -1.0262691 3.0038824 -2.6877728 1.4215835 0.005518059 -0.75502795 0.48073438 3.5325992
3797 -5.5638766 2.1252103 -0.257326 4.8753467 -2.127438 4.1053987 0.66203773 -2.1563947 -2.1922512 -0.39569378 0.5495627 -2.2934182 -2.617993 1.228606 -2.5727208 0.26725313 -0.36036268 -2.2492518 -4.131712 5.2801714
695 -3.0552468 1.0623183 -1.4569277 4.643284 -0.7970918 -1.9460368 -0.046600904 0.72275436 -1.2813231 5.5143466 2.4230173 -1.0072331 2.2632575 0.22314417 0.7239864 2.1120322 3.3639152 -1.7557147 -3.228076 -1.7669548
2509 -3.2997882 -0.73620737 -2.146852 -2.2593377 2.2243755 -3.4772544 -1.9560498 1.2326516 -0.17378703 0.32450756 0.028792536 -4.982427 -3.4275694 -3.3956604 0.40949425 -1.4945921 -1.0758039 0.42774034 -2.0130668 -2.7388043
2555 -0.9226812 -1.7777056 -0.503097 -3.4831529 0.67049754 -0.40025675 -1.2425117 0.5097386 -0.3643039 -0.4461887 -0.7868282 -3.8701227 -4.1713905 -3.7398372 0.43654817 -3.4379275 -2.4287987 0.66886884 -2.3434799 -2.172287
3449 -4.3188004 1.3869747 -2.49564 5.3064637 -0.89816725 3.1034465 -1.5256768 -2.5997632 -0.12567389 -0.20293449 -2.7677295 -2.438908 -2.6115599 1.2711499 0.7317519 0.24161933 1.6309798 -3.885861 -4.759515 4.079181
1361 -0.905109 1.4091709 -0.6052784 -2.9296672 -3.351873 2.150716 0.4197987 2.9720263 5.827075 -1.8151301 0.13789263 1.1265016 -3.8548648 -3.83535 0.22312738 0.41718814 1.6484222 -0.14514007 -1.7292831 -3.102127
3172 1.8684665 -1.1554223 -2.5651147 -1.2328186 -2.5710394 -4.8289666 -1.2639316 -4.893924 3.5530462 2.7491643 3.1707313 -0.10448259 3.0735636 2.5515711 -1.9827567 -0.21715155 0.32825214 2.7390697 -2.1945033 2.587894
592 -0.9420865 3.7530837 -0.7935693 -2.2731686 1.6064124 -4.332988 4.2453704 2.7785969 -2.4045177 0.9056397 -2.6221163 0.1501212 3.5661657 -2.2366643 -2.6879234 2.0208929 0.3376703 0.408752 2.6978002 -1.4388455
3321 5.6833673 1.6399848 -4.4998775 -0.1492715 -1.5798041 -2.9713666 -1.8825418 -2.5940516 -1.2755157 4.156205 -1.5424865 -2.71101 1.942368 4.357729 -4.128397 -2.1574974 1.7195109 0.38569078 -1.5488523 1.1908212
1132 -1.1154585 -0.28696063 0.4164194 -0.5001716 -2.6487267 3.9089918 2.2590775 3.7686028 4.1330285 -0.80437833 1.2870176 2.0504358 0.3392422 -2.4939272 0.9041815 2.5901406 1.9512305 -1.4875399 1.3208363 -1.2575355
3077 8.125379 -0.1111355 -2.0510085 -0.68299395 -0.97134763 -0.24713199 2.0993237 -1.3752812 3.3390625 4.335566 0.07785025 5.1693983 1.1874286 6.0100613 -4.542969 -2.7767942 3.8207915 -1.3471149 -2.4401743 1.0118016
3342 3.3556056 0.0011202826 -2.511978 -1.1085331 1.1473924 -3.3937142 -1.4451865 -4.3039374 -0.3336885 5.3781734 -1.1748428 -2.312765 1.3737557 4.0836396 -5.7495165 -3.0143933 3.1446788 0.64511424 -2.1052155 2.2165163
3417 4.695912 0.86218995 1.2336849 1.521467 2.9385502 -2.1459193 -1.2788708 1.5240611 3.6085837 1.760976 1.6667675 -2.5488539 -0.71749634 1.9267377 -0.025174731 2.8044026 -0.053140547 -1.6337007 -2.0862603 1.806211
3324 5.1087165 4.264299 1.6619275 0.8446236 1.9520983 -3.4220228 -1.2338518 2.4442759 3.6854386 2.4439662 1.2660768 -1.4031045 -2.3683794 1.5278126 -0.3189726 1.1583486 -2.2767448 -1.1122595 -0.5454953 4.6658773
3344 5.2079725 -0.24980314 -3.3795142 -0.09767907 -3.6735673 -1.4874498 -1.0625875 -3.069786 0.27777487 3.2120833 1.3887753 -2.8248966 2.4337142 3.4409056 -4.08645 -2.2006016 1.7225337 -0.9151422 -2.1165824 0.50029594
3558 -5.9194136 -1.786652 5.4740977 -1.5006479 0.9809016 -0.4435663 -0.3883592 -1.2774005 2.9083033 0.19506559 -1.2832181 -2.9598203 1.1562486 2.2225337 -0.3381313 0.25971687 2.1357079 -5.3745117 -2.6157696 3.2133555
436 0.6852162 1.2130722 2.372835 2.4842715 2.346537 -3.9767592 6.048017 -2.5163157 -1.6607592 -3.392538 -2.447254 0.055363446 2.2087147 0.8283941 -2.207144 4.873486 -1.2279829 -1.020865 2.4085429 -3.413025
1761 -3.6704626 2.921467 -5.015245 0.1853539 -0.15084592 4.6599555 5.501886 2.7926686 1.9166877 0.37512642 0.81936306 4.400536 -0.783084 1.1348206 1.4598353 -0.66209143 1.0368251 -0.5398505 1.3058978 -5.5247474
391 0.8450618 2.4063559 -0.7875556 3.1602159 2.3463554 -5.5779514 5.702945 -0.52432156 -2.8966846 -3.677539 -1.3574895 -0.4509546 0.7995712 0.50105256 -2.412327 2.681136 -2.7674959 -1.2482995 1.7235587 -2.1061008
2960 4.763428 1.2801104 0.18447714 -0.38308772 2.3054404 -2.414938 -2.2496922 0.76244104 4.159657 0.56104124 0.18414131 -3.2086504 -1.5941824 2.4672558 -0.5338206 2.1483011 0.15619011 -0.1306133 -0.32593757 2.8753154
1844 0.3772171 4.4749575 -0.75255936 2.334211 -0.2186548 2.705824 6.558201 4.207747 -1.7707691 -3.1622732 -2.1975667 0.07195885 -0.957547 4.645517 -1.4007598 0.11204039 -0.15931636 0.135267 2.013829 -5.9428234
109 3.8581622 0.08600824 2.052132 -5.05593 -0.96966225 4.7689385 -1.9180641 -0.7395885 -1.660266 -0.22169371 -1.8246093 -0.0679707 -0.5985846 0.28906825 1.9606451 4.31488 -3.1819854 2.3105574 0.6981947 2.2882981
515 1.3436155 3.1681192 -0.61539686 1.6149077 2.30709 -5.7705455 6.2352004 2.489317 -2.903606 -3.0183127 -1.6550007 1.1782308 2.2373118 0.069235355 -2.3700066 2.1383734 -1.9067303 -1.8761203 2.1961956 -2.3036392
1329 -0.7622428 2.373099 -5.0184608 -2.4487824 -2.8121955 2.9032464 2.6827104 1.816058 4.5522456 -1.0834281 -0.878741 1.7546481 0.5153104 -1.0994499 0.20715371 -0.74512666 1.7289866 -0.8707862 3.3177311 -1.2533183
1153 -1.47306 -0.5681477 0.3546024 0.567421 -3.1212745 3.2308311 2.5507824 4.195119 4.7831006 -0.9875862 0.12062073 1.7887217 1.1119539 -2.3129134 2.1306632 1.5065858 1.0559815 -1.182122 2.1837137 -1.2516483
2992 3.3566155 0.07626687 -3.091926 -1.281217 -4.5064816 -3.161303 -1.434406 -5.4341164 0.5117533 2.6201794 2.4514902 -0.058469646 1.4118986 2.9691756 -4.149807 0.13922934 1.5786872 -0.77977836 -1.2714276 1.4534585
1573 2.1686323 2.0905645 2.4301057 2.6305509 1.7323244 2.378859 6.214088 -0.5024495 -1.1059728 -1.1898047 4.0665336 -2.4143693 1.8361256 -0.3578991 0.0913273 -2.5783334 2.0781586 0.9926959 0.9944493 -1.8576057
1175 -0.8261169 -0.16814041 -2.7025983 -2.516186 -2.259849 3.2064273 2.9282842 1.4857593 5.9967484 -2.4401035 -0.6934306 1.8309965 1.4162188 -1.2882056 -0.07440571 0.30976015 2.9205353 -0.103882484 1.7108084 -0.975231
2906 4.866785 1.201183 -0.9220653 1.1834289 2.1809564 -1.9017663 -1.7522161 0.7045508 3.9234045 0.012565967 -0.04810311 -3.070388 -2.079981 1.491611 -0.646879 1.7794997 0.11727426 -0.2578487 -0.85076314 2.9257457
2973 4.1456428 1.6020081 -3.4999483 -0.76111436 -4.520175 -1.4300444 -1.5952308 -2.3479872 0.8525471 3.927192 1.7126515 -2.516277 2.0531123 3.3174362 -3.660755 -2.4503732 1.8225191 0.92057574 -1.8508388 0.62831116
2102 -0.70576984 -1.3468477 0.65792364 -3.6860747 1.062743 -1.2803205 -0.84283507 0.7426688 -0.98814064 0.26255694 -0.3494242 -2.84096 -3.2980545 -3.9563951 -0.3191955 -1.9779028 -2.227622 1.5431559 -4.1860976 -2.8792174
1598 -1.1182735 0.041197658 1.0533404 1.1944653 -3.5978136 3.6066136 2.8332324 2.9910436 4.3444166 -1.7288829 0.35161775 1.7312372 1.0971031 -0.58512014 2.5910192 1.9204826 1.4177201 -2.3030386 1.8913107 -2.1554172
419 -2.2686713 1.9683293 -0.93778574 -0.9598752 2.830124 -7.5402675 2.4492157 -0.34868228 -2.4276366 -3.945066 -2.27532 -0.9148476 -2.317159 4.0646877 -2.8105805 3.6238472 2.156693 -2.1978 6.877286 -3.271522
3179 3.1345584 -2.8814116 -0.6191439 -1.0042773 -5.2840333 -0.7901838 -0.4101782 -2.725572 3.3594804 2.1096475 1.7531476 -0.8144196 2.940407 3.5983052 -2.543218 -3.0286443 -1.4946228 5.134919 -1.8324598 1.8998548
3842 -2.468317 3.205326 2.8854342 4.074567 -0.93415 4.3877106 -0.50919974 -3.5720406 -1.6707715 -0.6903747 -0.13580056 -4.412513 -1.2048413 0.6185062 0.9175298 1.7131956 -1.4464382 -3.5688047 -5.0183115 5.3395104
2038 0.27279076 -2.0164857 -0.7218271 -4.6754103 1.3441365 -0.54645866 -0.6297811 2.0022562 -3.5184665 -1.4187276 1.2573907 -3.0913217 -3.531499 -4.76775 -2.679799 -1.0577121 -0.46355128 0.32816496 -4.2984905 -2.216267
1322 0.79141957 1.6604097 2.3042624 2.4174857 1.7828074 1.3727252 5.746784 -0.49369276 -0.010683775 -0.43020394 3.8234274 -1.6563381 1.3782713 -2.2093327 1.1693943 -3.8190708 3.2693121 1.9006187 1.0146227 -1.4055753
2738 5.129835 0.0016908533 1.0079486 1.3014532 2.8343914 -2.6879776 -0.17970699 -0.22342242 5.131091 0.66555476 2.4842148 -0.7657478 -1.1757244 3.3610988 0.17683311 0.19846475 -1.3105029 -3.3206084 -2.359129 2.9132478
2176 -1.7984825 -2.1489427 -1.2201114 -2.968833 2.2098033 -1.0550079 -1.7794231 3.5135436 -1.7095089 0.99184877 -0.6794672 -3.6351626 -4.8938136 -4.939117 -3.1183448 -1.5309764 1.0099059 0.11975419 -3.0338953 -2.330662
3267 4.0847497 -1.8612629 -2.0138574 0.51343703 -4.5317807 -3.792817 -1.9028989 -4.439543 0.3344688 1.8539045 2.422436 -2.2235787 0.3144943 3.628446 -4.8318233 -0.22041294 -0.28585145 -0.47822028 -0.95584005 1.0933065
417 -0.63111144 3.6376336 0.8082074 1.5565773 0.7432043 -4.609443 4.96022 0.4294843 -2.4559822 -3.971038 -1.6504102 1.7767909 0.26230624 1.5132122 -2.274759 3.7922714 0.88573885 -3.2637897 1.1270403 -1.261359
1338 0.5068705 4.790944 -0.7016511 1.3176708 4.5173407 2.699544 3.9806578 -0.7647349 -1.2113467 -1.2356954 0.7987603 1.6772511 -2.2669783 2.0392745 3.4923546 0.7959346 4.907527 4.7917967 3.156964 -1.7233133
2072 -2.3481786 -0.34226358 -1.483438 -4.0597053 1.3947557 -2.5033002 -1.4706366 0.4721491 -0.9677178 -0.45837715 1.6881356 -4.878085 -2.3763585 -2.668854 1.2919866 -1.74346 -2.436644 -0.8220475 -1.5726049 -2.7962804
2183 -0.55039203 -1.5998023 -0.0485868 -3.9091332 0.9502456 -1.6489613 -1.9493915 0.090568565 -0.99767065 -1.3290199 0.13296337 -4.424638 -4.0015044 -3.1932158 0.9606178 -2.3924012 -2.4353147 1.1605828 -2.2390587 -1.5824988
169 2.0304222 0.6416646 3.4672744 -6.6204543 -1.5246608 2.5629144 -2.954036 -0.11031101 -1.5719938 -1.1424291 -0.5206216 -1.6193854 -1.4779875 -0.97398937 2.4916377 2.9702091 -3.9634542 2.771501 0.036144532 3.3077087
1488 -0.8581913 -0.85270804 0.353395 -0.24825846 -2.698049 4.0457745 2.3107934 3.619215 5.0687723 -1.5966249 0.31957826 2.2922528 0.4561475 -3.1495621 1.7440364 1.766254 2.2991364 -0.7241043 0.77033 -0.886499
2869 3.5747483 -2.9899023 -3.7461076 -0.9790893 -5.536906 -2.7654724 -1.9528955 -3.3281906 2.901861 1.2934407 1.3246745 -0.2502379 1.2489356 3.0455885 -3.8544004 0.13724296 -0.30584508 1.2683187 -0.32911798 1.1238002
3926 -2.9986634 2.5269022 1.86794 0.9674758 0.021478646 2.8136816 0.03655072 -2.2847118 -1.2589558 -0.7484715 -3.2351575 0.8605183 -1.0710385 0.7999259 -0.31450585 2.2669613 0.4657104 -1.4580677 -6.494252 5.994664
820 -3.9399867 0.76459914 -0.21034047 4.7930927 -2.1822257 -2.4900455 0.52591723 -0.13800097 -2.4177706 6.2162647 2.7729144 1.5830257 1.2456514 -0.25667974 1.9619181 0.9618942 1.2144837 -1.0892298 -1.2466193 -1.7533512
378 0.83622056 1.5536542 -0.45661485 3.357224 2.8348737 -4.1011496 5.6976705 -0.6810277 -2.3675838 -3.0256636 -2.0536482 0.63483125 0.6165347 1.2076629 -2.3635154 3.1670825 -1.2160765 -0.17801002 3.1253045 -2.4635525
1509 -1.2440642 1.7860593 -2.7596843 -3.664226 -2.420855 2.5941544 2.144049 1.8221933 5.0226784 -0.75416684 -0.34830764 2.770919 -1.3110803 -1.2172221 -0.23887862 0.5120792 0.39387766 -1.4475265 1.472981 -2.2166042
1630 -1.6900628 4.1712775 -2.8788366 2.2160938 4.890667 0.28702468 4.3618507 1.1579486 1.1671026 -4.0331903 0.16641055 0.38423303 -2.7737734 1.9237473 4.205417 -1.1923361 6.788547 4.3121443 3.2346554 -2.870328
291 2.7919574 2.6873798 2.4319756 -6.0991416 -0.45115113 1.5824349 -0.58766454 -0.5619435 -1.813748 -2.6795957 0.5856751 -1.4029174 0.5423035 -2.5604482 -0.15274698 5.174066 -3.570005 2.6510355 0.4436779 5.3079715
1669 -1.8223584 2.592909 -3.703868 -1.2888062 -3.3216314 3.3450634 1.5142418 2.2489393 5.2147117 -0.51490486 0.9600726 1.1715667 -0.22063735 -1.6093855 1.712416 0.76254165 0.71057266 -0.9551418 1.8900572 -0.7736504
1227 2.739674 1.590778 2.8665748 1.8791 2.1445408 3.548846 5.043713 0.08534851 -0.9007853 -0.12757073 3.8200898 -1.977635 1.286661 -0.59802485 1.5767711 -3.5365617 3.2237003 1.3943053 0.16456516 -1.5394809
2916 5.381751 0.34400678 -0.6089802 -0.32717547 1.2512547 -2.1225877 -2.126746 1.2039989 4.482006 -1.605199 -1.2686161 -3.0895026 -2.4031575 2.4112277 -0.9553248 1.4878268 1.2945168 0.15160859 0.5087455 3.0375376
3033 4.9081483 0.8962055 -1.037364 0.89184856 1.4667215 -1.9972408 -1.945079 -0.97817045 4.9115443 -0.68216383 -0.8280589 -3.4143264 -3.0300746 1.6699144 -1.5531586 1.7026811 -0.24819565 0.1124349 0.25306565 2.7875814
313 5.5367417 -0.66078556 0.4860366 -3.5752778 -2.9796064 4.006789 -1.3541597 0.7393276 -3.9381428 -1.8579475 -1.0591795 1.1805403 -0.31041837 1.0631233 2.1263814 4.130837 -4.636012 0.98000515 0.23190938 1.9135002
1871 1.6767322 3.8165176 2.9506054 0.9520552 1.1931903 3.0287204 5.0062833 -1.6631484 -2.1439195 -0.97003603 4.460103 -2.3412447 -0.2899534 1.0554131 1.0376737 -2.32135 2.5039332 -1.6522093 2.9074242 -1.6817791
236 3.0616248 -0.43576273 3.8360162 -2.6752584 -1.321275 2.868441 -1.986566 -2.893728 -2.3181973 -1.1115302 1.2195042 -0.22264068 1.1172472 -1.3010851 4.486822 4.359842 -0.88491964 3.0858793 0.54241383 4.2734475
2471 -1.964651 -2.1377819 -1.2216117 -3.4452894 1.0937035 -1.657807 -1.2350104 1.3366989 -0.8884676 0.46286863 -0.050874464 -2.7162187 -2.8811326 -4.5222173 0.10344383 -1.7748262 -3.0076368 1.49468 -3.2589743 -2.0312324
118 5.4051485 -1.2229202 -0.075116776 -3.0225809 -1.9574914 4.2581835 -0.8746487 -0.70817024 -2.405517 -2.809577 -0.8484726 -1.0359614 1.4412335 0.7740175 1.9287091 5.7067475 -4.5348215 -0.14720036 1.1193446 1.8042984
784 -3.2613978 0.5080936 -0.9471039 3.3567414 -0.5399179 -1.1609204 -0.5099045 0.59401596 -2.1012566 6.5590696 3.68115 -0.7889591 3.105732 0.62809694 2.3389823 3.3868096 1.0354422 -0.31849712 -2.6936462 -2.1225765
2149 -1.3784369 -2.0761194 -0.7683089 -3.0229077 0.60011154 -1.3538783 -1.6278316 1.9058723 -0.7035857 0.17759985 -0.28552616 -3.2965105 -4.2029796 -4.202383 -0.9408471 -1.7511829 -1.536638 1.7881725 -2.4923146 -2.2456849
1366 -0.45451152 2.626351 -0.34216663 2.6063814 5.8095984 3.1671689 4.446678 1.4071937 -0.3295452 -3.1837769 1.3167204 1.1326686 -3.0125582 3.4079282 4.820029 -0.80529577 4.8946576 2.434952 2.3395174 -2.1508398
3553 -4.521523 0.80990386 2.0452795 1.2940993 -1.866376 2.0336363 1.419091 4.102695 -0.44256753 -1.0107973 -0.96162087 -3.1017773 1.9789166 1.6475672 -0.8116219 -3.4715064 -2.7973008 -3.0460825 -5.0624423 6.658558
1757 -1.1227064 0.09122268 -1.0667408 -1.5153784 -2.7457788 4.6959352 1.8440818 3.5250843 2.9267375 0.083204314 0.87609214 1.5885613 1.1420014 -0.94592017 0.11537162 1.994054 2.6809137 -1.5118268 2.5193717 -0.8721067
3145 2.3193555 -1.5141371 -3.8444786 -0.77085644 -3.7588024 -4.745437 -1.3495435 -4.997827 2.321267 1.5143365 3.650504 -0.3008053 1.80187 3.291547 -2.6005676 -0.8436356 0.7236889 1.2063407 -1.123978 2.2267907
3104 3.581581 0.88668704 0.30426854 2.2216103 2.7671897 -2.7842968 -1.0934279 -0.6769194 5.492161 1.7702639 2.6608837 -2.7491665 -1.8625128 2.2858908 0.15897071 1.191728 -2.2332444 -1.9959917 -0.6442858 2.76044
3240 5.1421947 1.1945488 -4.7444186 -2.0403166 -2.4062572 -1.8157481 -0.60376775 -1.6772801 -0.36677712 3.7753842 2.0577805 -1.9838939 2.4746282 3.9214263 -4.2235284 -3.7007773 2.1973557 -0.48075423 -2.3860247 0.32049462
456 -0.9665604 3.578896 0.07428585 1.6161542 -0.28484502 -6.3656945 4.906425 -0.58856237 -1.0900766 -4.135002 -1.8976731 0.91361445 -0.7374889 0.40265563 -3.9341385 2.7909954 1.119685 -1.8099371 1.6837448 -1.6293898
3902 -3.5370162 4.085217 2.6145353 0.78729725 0.170397 3.6036756 0.661906 -2.5245113 -1.930341 -0.14393075 -1.6519928 0.5790341 -0.5907693 0.9209614 -0.84554 2.1524234 0.7075795 -0.95021814 -6.377857 6.904499
3345 4.851186 2.8592353 -4.3754196 0.09965108 -0.8306585 -1.570378 -1.2714198 -1.0928335 0.3708591 4.8455157 2.0570185 -4.79755 1.7738478 3.7688851 -4.105162 -4.529175 1.8738399 0.7267682 -2.4661753 1.7868714
2126 -0.9472175 -1.1016577 -1.5622666 -2.7262456 3.074804 -0.064732246 -1.7359827 -0.47199464 -2.1760573 1.8462481 -1.9340717 -1.605409 -6.6552167 -7.6855106 -1.3198512 0.3995407 -2.2510405 -6.4532084 -0.86482936 -1.3745897
1124 -0.06810179 4.1851935 -0.93296564 -1.701235 -4.409696 3.2690248 1.5889407 1.117011 5.536633 -1.851976 0.38303834 1.1484482 -3.1401045 -1.5033692 -0.3757157 0.6634624 2.711636 -0.8287181 -0.26538855 -2.3503382
3277 4.621827 -1.7610636 -1.2568077 -0.6432522 -3.25231 -3.0423286 -1.2376837 -4.718689 -0.68193305 2.7895048 1.7595133 -2.3808997 2.1860895 2.4551175 -4.6765637 -0.57212424 -1.173651 -1.0793258 -0.62257063 1.9031485
3945 -7.0245013 -4.0155225 3.886062 0.12598038 2.0866127 2.5245774 -0.44088852 -1.3521925 0.47461978 0.89674014 1.3720226 -0.7465934 0.15201035 2.8821137 3.1612759 -2.4446936 3.0459776 -3.840214 -4.0334306 4.505645
1791 -2.1079364 1.4395949 -2.2842338 -1.459911 -3.2332907 1.8370265 2.6254292 2.40555 4.5023894 -1.4635826 -0.11089447 2.5202727 0.3832628 -1.2802674 0.59799266 1.1674585 1.4088117 -0.190574 3.2864969 -1.1570625
2611 0.4674503 -3.390399 -3.0808892 -0.5495042 0.23884353 -2.5339923 -1.1383576 0.5454506 -2.6201153 -0.97452897 -1.2377421 -0.86363596 -0.29750314 -2.9350173 2.8476014 -0.82083166 0.26853526 -0.011533745 -3.0354347 -2.0655074
1628 2.3063607 0.8302626 2.7958531 3.3083434 0.7790087 2.0908833 5.8282275 0.5835683 -1.0552951 -0.785642 2.7771327 -2.7949 1.3905379 -1.1422833 0.045160223 -3.172231 2.3890202 1.336089 1.3737754 -2.730388
3529 -5.804747 -3.7939854 3.6330297 0.016196508 1.4121552 2.1663754 -0.37705278 -1.7653577 1.611238 0.54529935 1.3456361 -1.0266893 0.4065862 2.3048139 3.288574 -2.9662182 3.5511513 -5.63503 -4.9648657 3.5860922
2224 -0.82444245 -2.1952357 -0.75772214 -4.1881914 0.44731978 -0.79180443 -1.124806 0.827434 -0.9367722 -0.18687241 -0.17465247 -3.2728875 -2.736449 -4.586539 0.048909485 -2.3802147 -2.9281433 2.0213485 -3.3225276 -2.0534623
1574 -0.29324734 3.4618351 0.959901 2.938917 -0.8666609 -0.6083509 5.3103447 1.868218 -2.863588 -3.6468508 -3.575611 1.2604405 -3.5924435 4.370443 -0.89326715 0.109360114 1.8474897 3.6773 2.0862544 -6.5565042
1661 2.2702935 3.4622056 2.7747831 0.31641427 0.9782921 2.8080814 5.533851 -0.65887576 -2.0566926 -1.4397796 4.203333 -3.008037 1.1398708 1.0587018 0.79055446 -2.8149724 2.3976116 -0.9869595 3.499849 -2.5043948
774 -4.7379427 -0.99668556 -2.3425767 4.76992 -0.19160457 -1.4187999 -0.22593804 1.3485626 -2.8596702 6.5694866 1.5650042 -1.7503008 1.9700688 0.108028404 -0.439787 1.0695322 2.4199736 -1.7066022 0.5904872 -1.6277281
3274 2.412409 1.2193096 -2.368491 -3.8516674 -0.15233056 -5.6956344 -3.0321736 -4.453494 3.7727685 3.5506 1.9786649 0.23726088 0.59449893 4.73206 -4.4455934 1.6775795 2.6666844 2.4691534 -1.8248124 3.7856448
819 -4.1445436 -0.8206476 -2.4356086 5.979245 -0.04059516 -2.697474 0.5039866 1.9820898 -2.2712457 5.8554235 0.63340956 -1.1410482 0.7517711 0.20299494 -1.6163889 -0.54146093 3.8326657 -3.5123625 0.20148647 -1.4557028
3568 -4.1541123 -3.7273853 5.4872684 0.4979193 -0.031940624 4.6199956 -0.4418663 -2.5996702 0.32878998 0.36427373 -1.3088405 -2.848175 0.36326933 3.8858402 -0.24512365 0.5740644 -0.96527386 -6.2113323 -3.951777 3.7482128
3182 2.9012113 -0.7916733 -2.8294585 -1.1485221 -4.471378 -3.8464072 -1.4289074 -3.9721947 2.835948 2.1117811 1.0010262 0.07375953 3.2431831 2.9401295 -1.3494744 -1.3730304 -0.0033551664 4.390912 -2.266838 2.5842216
815 -4.0278273 1.1615121 -1.5513979 5.014169 -0.5101352 -3.063071 0.47225606 0.60962355 -1.6461931 5.800915 1.1304971 -0.87173724 1.8313094 -0.20015797 0.2110307 0.5597854 3.696301 -1.7761534 -2.1996183 -1.778435
1467 0.11385106 -0.71168846 -2.9914792 -2.2606006 -0.6253536 6.3385577 2.0071478 0.49034688 5.058351 -0.17901748 -0.47756866 1.1792454 -0.072464384 -0.9955099 0.13470958 0.72976965 2.8133883 -2.270392 1.6716515 -2.2243454
1709 -0.47320443 3.2874696 -0.9027353 3.5357957 4.0297313 2.5549889 3.5546582 0.6272593 -2.5063481 -0.17053531 -0.5143263 2.7434897 -2.7584004 1.0427576 4.1877446 -0.81476045 4.6401935 4.2095532 2.917559 -0.5518215
2939 3.3202367 -1.6086911 -1.9992146 -1.2044293 -5.607241 -1.7058305 -0.8996808 -3.9860396 1.4777093 2.7398427 1.9288288 -1.1302078 2.5022204 2.9451575 -5.3491774 0.5883233 -0.69658065 -1.0820774 0.597777 1.5988184
3113 3.8072436 -1.2454045 -2.4992976 -1.3635154 -3.9715943 -4.8550773 -0.8317515 -6.163468 1.619505 1.4947377 0.67437965 -0.6169527 2.4463458 2.061699 -3.581505 -1.3634479 -0.6351379 -0.46857882 -0.965286 2.2387757
2757 5.0672426 0.94220537 0.8335848 -0.14119083 1.6158564 -2.136264 -1.6906106 2.4906328 4.252452 -1.1116797 0.6133514 -2.9065409 -2.1720474 2.003316 -0.1218019 1.0309093 0.45819765 -0.41128764 0.417644 3.1640227
728 -4.808222 -0.4643144 -0.8758676 5.6326833 -0.92613566 -5.0746875 1.1180806 0.32917833 -1.8930933 5.5326896 1.8414487 1.2131377 -0.5244655 -0.26267034 0.13521072 -0.89404964 2.9792764 -2.6440046 0.16276933 -2.6188195
3617 -4.9924192 -3.5067463 4.7121468 -1.0118266 -1.9747537 4.5184197 2.137462 -4.2955294 -0.14169542 0.03091322 -5.4390283 -1.5464665 3.2706823 1.964838 -0.85768414 -3.0513299 -0.5191864 -3.7735758 -4.9650197 2.364187
53 2.4098103 2.1185634 0.03605071 -3.722243 -2.8245153 3.9957092 -0.8608249 -0.25549856 -3.9029357 1.1669344 1.4298735 2.8352044 2.9900084 -1.9768584 6.4943786 2.665353 -5.097837 4.4670324 -0.16564874 5.839686
