34 64
33 -0.14603034 -0.11974694 -0.52487826 0.32773432 -0.17770986 -0.28979364 0.25197837 0.043521285 -0.08584126 0.19637707 -0.035344012 0.44697934 -0.16821632 0.070156224 0.37991786 0.10867654 -0.30079842 -0.5225664 0.62212425 -0.31664303 0.4022065 0.21353193 -0.5249602 -0.7992722 0.21834457 0.14841804 -0.07552083 -0.02838138 0.052977793 -0.21851178 0.30163208 0.2048887 0.047858465 -0.33368713 -0.06505211 -0.12429359 0.06208851 -0.23532082 -0.8085515 0.036190014 0.12696087 0.48759937 0.1568957 0.24718246 -0.5932715 -0.13939708 0.20195505 0.59046215 -0.17083095 0.7576606 -0.24629998 0.41563776 -0.26099727 0.17717236 -0.22853778 -0.0037624945 0.6904292 0.28108814 -0.6655914 -0.41772124 -0.11662357 0.07132917 -0.043798428 0.53419566
0 0.3504215 0.013834351 0.33960298 -0.087392054 -0.2560762 -0.45334193 -0.7838442 0.2424696 0.11846517 -0.17364107 -0.123883106 -0.26462948 0.09239698 -0.52515185 -0.37871948 -0.077794775 0.48711342 0.30160242 -0.68267596 0.19373502 -0.5885032 -0.036433984 0.6774401 0.9881858 -0.24447118 -0.4087475 0.110635094 0.42521918 0.19061466 0.40601325 0.07805638 -0.03468492 -0.24788861 0.25442117 0.50228137 0.7174744 0.43781412 -0.24404027 0.43919384 0.046628676 -0.35462824 -0.47429052 -0.05681248 0.06651932 0.39483646 0.28992942 -0.62650186 -0.39954376 0.42611203 -1.0151801 0.4976011 -0.2779609 0.3048772 -0.54241973 0.38472307 0.06651288 -0.20978156 -0.22483164 0.5209366 0.27452597 -0.17966071 -0.12955669 -0.35771742 -0.58708084
32 -0.08364307 -0.35303527 -0.77009165 0.41827855 -0.3401365 -0.325607 0.040831815 0.21715723 -0.14207089 0.11426102 0.12581919 0.10816036 -0.06397666 0.19055587 0.07849458 0.35093486 -0.42283377 -0.5302761 0.6859531 -0.38723254 0.6145025 0.4856163 -0.5226614 -1.3452902 0.1532916 -0.020485861 0.13638712 0.11050797 -0.15362151 -0.39088506 0.21767168 0.09447621 0.08359259 -0.56613356 -0.014151706 -0.21102308 0.084096454 -0.3869091 -0.93038565 -0.019524802 0.008686311 0.3797879 0.33307144 0.45510945 -0.5607713 -0.38990435 0.053110395 0.43646187 -0.4360856 0.7124851 0.26274458 0.17770687 -0.29707447 0.30453396 -0.12794416 0.039101306 0.76970863 -0.032258816 -0.9505811 -0.3169169 -0.09454672 0.21756019 0.0065574455 0.6092139
2 -0.45465732 0.3078584 0.0726514 -0.21436627 0.14123589 0.039815735 0.22248457 -0.27324724 0.34023073 -0.19312504 -0.007056741 0.63736033 -0.27138624 -0.12469071 0.15778665 -0.0006910641 0.1843944 0.093520924 0.09416159 0.08207515 -0.22538906 0.08586306 0.08838816 0.70379335 -0.12359181 0.53603035 0.21779789 0.12965481 0.040078916 0.21396026 0.07048335 0.42743367 -0.05261813 0.11289607 -0.46095228 -0.26694566 0.34042627 -0.25722858 0.2415419 0.13469784 -0.14588514 0.4088715 -0.1019216 -0.22226015 0.39162016 -0.0128091425 0.013011817 0.16725776 0.015577364 0.28319025 -0.37143484 -0.064822085 -0.12658688 0.24226329 -0.46891055 0.06966665 0.6540982 0.40480685 0.11132122 -0.49522975 -0.1693627 0.28420705 -0.005722673 -0.096524626
1 -0.038273804 -0.15527897 0.5945944 0.21251264 -0.6108537 -0.6110011 -0.32770553 -0.1025654 0.4295933 -0.6832221 0.15928344 0.43050078 0.09641054 -0.006499154 -0.33355692 -0.20374356 0.71330225 0.6483025 -0.1407337 0.2163957 0.15787596 0.36029518 0.24281152 1.0589833 -0.26686928 0.052753128 0.2522442 0.044194203 0.117014125 -0.095114276 -0.5634409 0.4662027 -0.22030571 -0.18306124 0.60484326 0.4375866 0.38890934 -0.28320864 0.20718007 -0.11256689 -0.5806067 0.10979925 -0.3248647 -0.27071208 0.46777532 0.28804514 0.089622416 -0.37492862 -0.2147284 -0.44421238 0.16082086 0.26397035 -0.244321 -0.7299393 0.24460639 0.26944822 0.28642482 0.27064925 0.45094484 -0.055502187 -0.47891447 -0.0084615685 -0.71440345 -0.504542
3 -0.36889952 0.40337184 0.38623664 -0.2138771 -0.08634311 -0.062168185 -0.07428842 -0.22896926 0.46087965 -0.45085874 0.1315686 0.4799716 -0.17562239 -0.1888715 -0.027886909 -0.11947444 0.62833726 0.6070475 -0.27062172 0.2273478 -0.48631442 0.30545613 0.4362629 1.3641461 -0.25069186 0.47977278 0.2867984 0.17057142 0.19456862 0.25125164 -0.2110866 0.5650803 -0.32274967 0.06536088 0.010134349 -0.026904395 0.35113975 -0.40574744 0.73986024 -0.0026139661 -0.47880164 0.017653028 -0.17747927 -0.30927715 0.6934969 0.17024678 -0.1891498 -0.16697589 0.0035771274 -0.31480822 -0.123918526 -0.31840256 0.023508595 -0.11135018 -0.28312722 0.16215572 0.23037958 0.2708601 0.6075758 -0.27853623 -0.3264763 0.157268 -0.38361248 -0.76679534
31 -0.09288422 -0.16316853 -0.01669612 -0.33764794 0.39339715 0.3917489 -0.10763846 0.26365063 0.4345006 0.21828699 -0.18710254 0.24332206 0.50845844 -0.53702235 0.32315475 -0.27983147 -0.16580202 -0.4196282 0.063026935 -0.4615642 0.28610843 -0.87223387 0.12315917 -0.9016628 -0.16431352 0.21377306 -0.21562892 -0.11687344 -0.18151535 -0.18562251 0.9345891 -0.43000427 -0.087867685 0.3463013 -0.05308475 -0.39413956 0.58393824 0.015647965 -0.4016504 0.38539332 0.7433711 -0.15578076 0.26129737 0.107266285 0.07720888 -0.53557765 0.26600856 -0.20293191 0.25264013 0.032588013 -0.6408259 0.4702346 -0.7252459 0.33227155 0.17226318 -0.8566565 0.8643736 0.18924095 0.15416963 -0.79992557 0.6003498 -0.18111573 0.6181964 0.68838626
23 0.0021413027 -0.1297112 -0.1857461 0.100539014 0.38393602 -0.13862933 -0.00093551574 0.2774179 0.32434085 0.36585397 -0.012236391 -0.11362332 0.7332083 0.028159127 0.5677449 -0.6168586 -0.37874058 -0.73269904 0.8127017 -0.48663402 0.39995873 -0.6935546 -0.39802542 -1.2275249 -0.32773197 0.30881363 -0.551935 -0.089557976 -0.19938883 -0.39024785 0.36021677 -0.073238395 -0.3211827 0.30905595 0.4375509 -0.24284175 -0.3258377 0.19672093 -0.51750743 -0.1258287 0.87255585 -0.2919511 0.47014374 0.3916245 -0.8292025 -0.40196154 0.43285123 0.2124254 0.21865842 0.9575584 -0.9586156 0.26998657 -0.9584764 0.29102385 0.2165349 -0.074664995 0.41361758 0.60501873 -0.09139729 -0.7719938 0.67916673 -0.09810701 0.33281437 0.51075715
13 -0.30086634 0.2840793 0.21197087 -0.29707488 -0.10007001 -0.101116635 0.14773485 -0.32151863 0.39023134 -0.37941203 0.09919057 0.26994088 -0.1698468 0.11144427 -0.08174498 -0.0028398165 0.38409778 0.33424863 0.122336216 0.35196152 -0.18882738 0.54383385 0.28009066 0.62489086 -0.30285755 0.42866257 0.31093553 0.07203827 -0.012809601 0.016480103 -0.29215232 0.5398604 -0.0886503 0.04707596 -0.014393998 -0.10147079 0.07733298 -0.31180865 0.4087123 -0.131826 -0.42807895 0.055688802 -0.02565748 -0.29747835 0.41517928 0.0004462774 -0.083432615 -0.22338067 -0.18550213 0.18551412 -0.019015308 -0.3567785 -0.19361225 0.08025808 -0.3254493 0.20416157 0.21769434 0.06824273 0.13803312 -0.31826058 -0.15155245 0.1973667 -0.14459752 -0.55024993
8 0.08574776 -0.23574436 -0.09674867 0.047300205 -0.21110764 -0.15865272 -0.11543937 0.054433968 0.103331715 -0.2021582 -0.040578492 0.046057496 0.06491722 -0.03151023 0.016936723 0.09385328 -0.08232632 0.05044516 0.1127684 -0.028573273 0.3003927 0.4642142 -0.03335132 -0.2579873 -0.015220776 0.037109636 0.11412189 0.11425987 -0.09701026 0.004197049 -0.07831695 0.24661762 0.024013815 -0.06296796 0.0764537 0.10633318 0.11380658 -0.12761597 -0.25932363 0.057445813 -0.026891991 0.11229309 0.077010356 0.03696583 -0.08196376 0.13895616 -0.071094155 -0.042113893 -0.055977147 0.27887756 0.30444515 0.014188681 -0.27800885 0.058626004 0.025548574 0.14823893 0.25966135 -0.19512711 -0.46204016 -0.015783092 -0.21480446 0.27570796 -0.20451206 -0.073572956
6 0.38556188 0.48766243 -0.6159161 -0.64888173 -0.13485937 -0.2768435 -0.3263248 0.01096428 -0.38789508 0.35862046 -0.6756746 -0.94150174 -0.48235044 -0.3424183 0.24714303 0.00027222256 -0.20030268 -0.46719202 -0.8090342 0.11509764 -1.556038 -0.072693124 0.92167383 0.7256578 0.1865774 -1.16804 -0.11907577 0.045226824 0.13502015 0.9903277 0.85832715 -0.20369257 -0.14236291 0.5209266 0.37769982 1.0458953 -0.034594964 -0.604076 0.2886384 -0.16320242 -0.2850626 -0.65356666 -0.16383736 0.29322463 -0.62975514 0.15842544 -1.3720132 0.37024438 0.85376364 -1.2213038 0.68573344 -0.5465686 1.0448173 -0.57425386 0.12729387 -0.67263347 -1.2345815 -0.6042795 -0.0045158067 0.67042476 0.4320658 -0.7697033 0.054748584 -1.1318477
5 0.44390467 0.52749455 -0.4207195 -0.7175644 -0.019476507 -0.33659396 -0.38926813 -0.086316675 -0.21828589 0.089659765 -0.81429064 -0.939334 -0.16811442 -0.284584 0.092186175 -0.116402484 -0.15061936 -0.4542619 -0.8319596 0.41626722 -1.413539 -0.04227826 1.0369798 0.8475622 0.0021389993 -1.105415 -0.17664982 0.018359864 -0.21393402 0.94066 0.60616195 -0.23118441 -0.07009537 0.9012992 0.41460714 1.27995 -0.0916916 -0.3582538 0.5281861 -0.088149995 0.14195219 -0.954502 -0.3029174 0.12845333 -0.70944685 0.40455866 -1.3699684 0.3109046 1.0307106 -1.0038518 0.5866175 -0.9673886 0.6976317 -0.7926326 0.38537568 -0.5609232 -1.5510845 -0.6439301 -0.0706155 0.8073646 0.44787747 -0.67736864 -0.039166074 -1.3300207
7 -0.2552414 0.37134406 0.3816625 -0.39475185 -0.16030076 -0.11833088 0.03665877 -0.34458235 0.5049291 -0.5349486 0.04119764 0.31399438 -0.12227002 -0.018046131 -0.19343796 -0.0929039 0.5534312 0.50230676 -0.1871559 0.41501617 -0.3625045 0.3852615 0.4757984 1.0933108 -0.34186852 0.28190547 0.39328808 0.0077851373 0.02937065 0.1537466 -0.23869261 0.5121769 -0.09984423 0.1963553 0.073437236 0.104805745 0.21804452 -0.38313097 0.57628584 -0.14161791 -0.47578397 -0.01750026 -0.25787976 -0.37158725 0.55847204 0.07403259 -0.11183937 -0.2954164 -0.07520219 -0.23784016 -0.021740442 -0.27656448 -0.092281945 -0.19209503 -0.13935106 0.04086369 0.14296271 0.1940712 0.455062 -0.21463224 -0.15691347 0.049936697 -0.20252217 -0.80663276
27 -0.039397985 0.25633594 -0.09655715 -0.16018382 0.3621447 -0.11303333 -0.13993682 0.32522783 0.3418478 0.3354523 -0.044412863 0.20829847 0.41073865 -0.12135257 0.2736707 -0.14430106 0.24127747 -0.49514627 0.6275879 -0.38248783 0.08566693 -0.54785925 -0.3103047 -1.2663306 -0.4139912 0.65521246 -0.20685713 -0.10821132 -0.1477658 -0.61953443 0.54665285 -0.27199218 -0.46048757 0.07941065 0.30703536 -0.76170313 0.40823644 -0.30443406 -0.15128513 0.1320106 0.5024436 -0.7195948 0.68447703 -0.08294594 0.0036586323 -0.6821628 0.114068 -0.42157108 -0.09253332 0.14955962 -0.71770436 0.027921129 -0.687489 0.34784275 -0.020862596 -0.5032989 0.62091905 0.50690025 0.52105576 -0.799671 0.40813988 -0.40442812 0.41000965 0.82854754
29 0.284263 0.097631015 -0.5525605 0.26054478 -0.033989802 -0.23737364 0.3450808 0.06052029 0.054913238 0.564961 -0.28715602 0.49623314 0.2461253 0.4300365 0.7228093 -0.014466455 -0.12041401 -0.73379564 0.9683129 -0.04741521 0.2501353 0.35944152 -1.0548846 -1.5663033 -0.023302002 0.60804456 -0.6831198 -0.26346627 0.16438396 -0.5634375 0.023887439 0.39051434 -0.1906023 0.037046853 0.5625916 -0.26643172 -0.5635754 -0.24729303 -0.43886614 -0.015798336 0.46127257 -0.45263344 0.4801157 0.015358256 -0.89254236 0.06554095 0.41792235 0.37719902 0.012316996 1.2855219 -0.7767243 0.18050085 -0.63636565 0.44273144 -0.087066814 0.12425396 -0.1756541 0.47054577 -0.47692746 -0.23856282 0.11593963 -0.24200734 0.08627918 0.27392653
30 0.077084966 -0.5945675 -0.23894753 0.14268611 -0.2952452 0.07500242 0.058131482 0.05715661 0.32009497 -0.3778379 0.04823387 0.4250912 0.18311977 0.011712955 -0.03763949 0.2879159 -0.21390621 0.11563279 0.067733 0.0013289178 0.5350578 0.5661372 -0.2897334 -0.20805359 -0.22104506 0.043192677 -0.0077559752 0.14949313 0.03677817 -0.095011264 -0.21961771 0.5857902 0.1441597 -0.06176064 0.1402175 0.057955954 -0.07447807 -0.11289652 -0.29629233 0.13581716 -0.12905781 0.5316272 -0.28105423 0.35502526 0.13294613 0.09725578 0.39091456 0.124403216 -0.19866934 0.6005286 0.20535506 0.29124287 -0.41116753 0.16110763 0.27678135 0.21649447 0.5816523 0.01844189 -0.6058774 -0.073664024 -0.13054988 0.46030346 -0.012895443 -0.27701387
4 0.48175317 0.3635726 0.038630612 -0.69167125 0.067410804 -0.24072798 -0.5416516 -0.058164634 -0.041530482 0.03927328 -0.7765062 -0.68803054 0.12156804 -0.395568 0.031084884 -0.215657 0.0790506 -0.32008818 -0.8729215 0.50337034 -1.1471037 -0.18816347 1.0652999 0.73856467 -0.10407236 -0.86761767 -0.156557 0.20823047 -0.2410831 0.82724375 0.45110348 -0.3622735 -0.07977388 0.9304717 0.4926255 1.2265415 0.13307971 -0.073379435 0.5418981 0.006073231 0.2522283 -1.034444 -0.26653126 -0.0707797 -0.36411947 0.532327 -1.1790107 -0.005451861 1.0346628 -0.8996597 0.4684147 -0.8544562 0.3849823 -0.815719 0.5204606 -0.40807295 -1.3171328 -0.6973988 0.10282752 0.71149945 0.33660623 -0.42833683 -0.12442597 -1.1553664
10 0.4098358 0.437519 -0.35109496 -0.7061773 -0.13092773 -0.07609174 -0.3555338 -0.057655152 -0.261517 0.33818164 -0.6765378 -0.71999 -0.34881344 -0.42728692 0.20818934 -0.13808756 -0.09155179 -0.33434886 -0.98176616 0.17743367 -1.469244 -0.1872233 0.99375886 0.74450225 0.2763583 -1.1168797 0.089843266 0.21086109 0.16924366 1.0707469 0.8457158 -0.23946859 -0.00030123835 0.604576 0.304769 1.0510015 0.11293617 -0.49198702 0.22143316 -0.21952808 -0.29675096 -0.5291674 -0.33331692 0.10085484 -0.40922686 0.25197375 -1.2627742 0.31178692 0.8589368 -1.1366378 0.64956003 -0.2992979 0.95427215 -0.4729248 0.1656897 -0.5596524 -1.0024546 -0.65493786 0.0040359106 0.58707374 0.2985243 -0.43894076 0.100533165 -1.1780733
25 0.103873424 0.18527186 -0.1817359 -0.25861627 0.4807939 0.01242311 -0.15840854 0.4878353 0.38124993 0.45519885 -0.18452083 0.2666884 0.553237 -0.35189745 0.26085502 -0.17283668 0.12656802 -0.83754903 0.5030271 -0.6678929 0.2126393 -1.1637225 -0.36025894 -1.8036556 -0.3753474 0.31693444 -0.26935437 -0.28203982 -0.19016351 -0.7505195 1.1596907 -0.6883794 -0.37429753 0.15769692 0.4392281 -0.72856414 0.62004405 -0.3122231 -0.5538073 0.22038738 0.8644423 -0.74229026 0.50344557 0.13862528 -0.18313956 -0.97597504 0.29383013 -0.32318506 -0.058329083 -0.1834831 -0.89275986 0.48705512 -0.73437154 0.13386147 0.38944802 -1.129647 0.89037365 0.68650275 0.6351843 -0.9260532 0.741893 -0.7629885 0.7546198 1.160156
24 -0.10093138 0.2996376 0.14090516 -0.40568522 0.78533125 0.13304313 -0.12856266 0.33641446 0.5270271 0.2634756 -0.09297059 -0.015139862 0.7078365 -0.6243638 0.46988052 -0.6926708 -0.12675583 -0.641828 0.41653597 -0.7885111 0.17346719 -1.5628346 0.12208824 -1.1263276 -0.33537677 0.21741183 -0.19342518 -0.3026018 -0.27233008 -0.42818373 1.2454166 -0.6529707 -0.3016509 0.52278465 0.25881493 -0.49302933 0.43263492 0.11811852 -0.56695724 0.013502092 1.079255 -0.39430895 0.2978233 0.17452759 -0.43390003 -0.8747076 0.41289005 -0.16399942 0.2766787 -0.011599777 -1.1375495 0.54182255 -0.85697895 0.22733177 0.20931979 -0.9958389 1.0347295 0.8646239 0.743609 -1.1376944 0.90200937 -0.46411997 0.75245804 0.8608998
28 -0.059364483 0.11997834 0.085705645 -0.31500345 0.3531485 0.20282403 -0.030812507 0.12844548 0.24140702 -0.0759915 -0.0640064 0.109300524 0.006324854 -0.45438987 0.23850718 0.075550094 -0.035904817 -0.015679203 0.29352587 -0.28367552 0.19805655 -0.012940797 0.19956653 -0.6129828 -0.12227584 0.46149778 0.062599 -0.07039566 -0.052727133 -0.30643424 0.5766893 0.045573324 -0.116703846 0.092478275 -0.03167477 -0.48305234 0.3955972 -0.02765821 -0.29633087 0.19374166 0.26505196 -0.07386269 0.4013377 -0.128705 0.17977913 -0.35459977 0.03172973 -0.4692078 0.010543056 0.12762086 -0.13619159 0.01991674 -0.5063312 0.57507926 -0.29819673 -0.2812086 0.7042075 -0.08420149 0.14221443 -0.5800115 0.09789069 0.06624653 0.31790057 0.39496356
19 0.0050301654 -0.12139639 0.033623774 -0.2408156 -0.3296319 0.08054732 0.054306038 -0.122258194 0.3699281 -0.3344749 -0.11767036 0.34906948 0.10217204 -0.0057123895 -0.07752292 -0.06648277 0.2509212 0.2521186 -0.31832796 0.22281466 -0.027382882 0.25531098 0.20180804 0.31826657 -0.27166817 -0.08514383 -0.016211051 -0.07672021 0.06790195 -0.07572032 -0.027129838 0.3773082 -0.070234045 0.12881766 0.41605315 0.22073458 0.0385504 -0.22553335 0.18808123 0.0024090288 -0.21204567 -0.020306315 -0.33996052 -0.038535226 0.2173306 0.054536927 0.07790445 -0.09426955 -0.07472926 -0.1891235 0.007028389 0.09647982 -0.21274084 -0.34974104 0.3567762 -0.22561118 -0.07785181 -0.17627324 0.020628206 -0.08067622 0.09238184 -0.23243667 -0.00746983 -0.63403404
16 0.65721494 0.523412 -0.55800885 -0.62082106 -0.04394164 -0.29922673 -0.5951256 0.011002434 -0.30648822 0.40042156 -0.92941755 -0.9621996 -0.030816237 -0.29952243 0.20766398 -0.22933102 -0.29419684 -0.50299305 -0.8513332 0.28259224 -1.5915327 -0.13397942 0.926414 0.72460467 0.19721362 -1.0980757 -0.102241494 0.17526945 -0.03270664 1.142342 0.70725006 -0.16332573 -0.027890312 1.1245924 0.32824376 1.3092245 -0.19582202 -0.37499398 0.38762835 -0.1705084 0.16656977 -1.029851 -0.12740901 0.016729945 -0.8953706 0.51355714 -1.4549475 0.41733834 1.3382535 -0.8146159 0.455912 -0.7958284 0.7467453 -0.35292506 0.24818996 -0.2642244 -1.5521365 -0.5860403 -0.16512485 0.871202 0.3255153 -0.45286444 0.111715645 -1.3005033
14 0.23860444 -0.48293284 -0.39067075 0.101394355 0.1114468 0.1507686 -0.010736762 0.23408532 0.14919545 -0.029870346 -0.12541348 0.043448634 0.34448949 -0.10724232 0.34859607 0.21160574 -0.54100573 -0.17368828 0.46386126 -0.20477134 0.6220275 0.5888322 -0.36225182 -0.983837 -0.10675622 0.30218348 -0.24927188 0.15721492 -0.06671807 -0.1407509 -0.034409296 0.45143026 0.07123955 0.14238794 0.035457317 -0.16170053 -0.24591587 0.11038471 -0.48926562 0.23283938 0.37093204 0.19354896 0.26844844 0.31761783 -0.32171625 0.1791938 0.22197372 0.02802291 0.11579722 1.1369635 0.11730127 -0.030598022 -0.6596224 0.74628216 -0.039945114 0.42800573 0.40333566 -0.18663399 -0.93046355 -0.159611 -0.07336042 0.6878474 0.15636696 0.019385714
18 0.23925312 -0.45312843 -0.4662477 0.117092885 0.07133112 0.11294591 -0.002187544 0.246075 0.10028279 0.0027641295 -0.13627829 0.09445457 0.31684205 -0.09760927 0.33119255 0.24805741 -0.51323134 -0.21738051 0.41828576 -0.24206427 0.61317885 0.5324444 -0.43008018 -1.0222074 -0.0622179 0.2130369 -0.20472388 0.15664619 -0.057585075 -0.12046774 -2.0326752e-06 0.3629518 0.08876801 0.092249714 -0.011192648 -0.15039277 -0.18167396 0.05031597 -0.52819943 0.2486944 0.35260227 0.21771847 0.21041663 0.33610818 -0.35752147 0.16434303 0.20358689 0.11514386 0.06745657 1.0449785 0.15101685 0.018696088 -0.5592738 0.64064515 -0.011488978 0.3511008 0.45040593 -0.1396707 -0.95783275 -0.121610016 -0.11388271 0.6506593 0.13894768 0.06753161
22 0.2501389 -0.52492046 -0.5453592 0.15578112 0.05873993 0.13096228 -0.025290335 0.30502123 0.036962714 0.04029734 -0.11996744 0.029180517 0.26124159 -0.18228659 0.3200099 0.29395095 -0.63401586 -0.2640748 0.40395242 -0.34751338 0.6645643 0.5009935 -0.3957975 -1.1077498 0.01950155 0.107870705 -0.15600854 0.18458588 -0.034245905 -0.08776981 0.14635393 0.30407938 0.14964008 0.021433666 -0.08261675 -0.13261752 -0.13360807 0.060235728 -0.69703746 0.25696716 0.3427416 0.35148627 0.21733838 0.45415232 -0.41546738 0.1067405 0.18998149 0.17429988 0.07212331 1.0120587 0.2453655 0.11060696 -0.49262998 0.7061265 -0.026843755 0.30638307 0.58384174 -0.19096136 -1.0579677 -0.14145352 -0.109012954 0.68045926 0.18657193 0.17170413
15 0.2448239 -0.48708168 -0.509019 0.15166321 0.0023571884 0.053699464 -0.054231796 0.29750606 0.036430202 0.062541395 -0.13816935 0.045472495 0.27516928 -0.12385961 0.2857954 0.25870648 -0.5248863 -0.29991546 0.4269895 -0.303371 0.6478077 0.48207322 -0.40211502 -1.1726333 0.00081479433 0.1228197 -0.20290393 0.123993464 -0.06689773 -0.19248302 0.14692692 0.24041472 0.08416688 -0.0013535662 0.028273497 -0.12837559 -0.08580884 0.012226621 -0.6679115 0.25622523 0.36560544 0.17980866 0.28586835 0.37956157 -0.402616 0.0671955 0.16253588 0.099832125 0.044498216 0.90133035 0.18136942 0.091361 -0.5305865 0.555299 0.034287557 0.20688784 0.47762856 -0.21772052 -0.96090263 -0.1521045 -0.063797794 0.48159707 0.14603207 0.2405143
20 0.18802617 -0.45588878 -0.52805555 0.18832347 -0.0070714746 0.051724695 -0.001745507 0.26432562 0.0397732 0.03463133 -0.06383965 0.09411836 0.21637414 -0.033743486 0.26380157 0.30170754 -0.4830249 -0.23461153 0.5003698 -0.2627145 0.62404865 0.60700554 -0.4666816 -1.1138046 -0.04248747 0.23052081 -0.15221646 0.16394126 -0.03803876 -0.23081285 0.0008058044 0.3701453 0.06388488 -0.07610352 0.014842308 -0.22586884 -0.1584485 -0.029898513 -0.5796963 0.19296327 0.2369454 0.24890275 0.2967249 0.36522254 -0.3365926 0.04377661 0.18392634 0.11474053 -0.06233705 1.0155182 0.19735488 0.021001015 -0.5176804 0.659038 -0.06418989 0.36758986 0.49757242 -0.18499593 -0.9536679 -0.185528 -0.13015883 0.57607573 0.13299866 0.18659662
21 -0.011519203 -0.11338101 0.26361188 -0.3692804 -0.54412645 0.056067407 -0.024074536 -0.2293668 0.53993726 -0.60815763 -0.10552099 0.51347727 0.03877795 -0.08886644 -0.32844555 -0.06699955 0.5418117 0.5480858 -0.75038654 0.4116885 -0.19264977 0.25479388 0.4768877 1.0170863 -0.37504563 -0.2752203 0.18799499 -0.059978534 0.17328404 0.0995406 -0.08020619 0.44347778 -0.037340883 0.16447693 0.5045914 0.47283947 0.2582516 -0.3882973 0.42170247 -0.009130279 -0.52702624 0.0687214 -0.70914924 -0.107356325 0.5929508 0.1449821 0.043973763 -0.19949064 -0.098578475 -0.69239664 0.13522837 0.20443802 -0.02683327 -0.7469506 0.5768944 -0.37788907 -0.044635605 -0.1423658 0.3222915 0.030512974 0.0015377773 -0.3416977 -0.11790313 -1.0304041
26 -0.04072656 -0.2360884 -0.47868168 0.41943565 -0.16684268 -0.37988058 0.20057781 0.08302067 0.05253749 0.46013713 0.07533555 -0.028722154 0.19500889 0.64844304 0.5588887 -0.2706258 -0.27836883 -0.6860026 1.1336459 -0.11952223 0.29561642 0.4495106 -0.63479036 -1.3204547 -0.21902739 0.55188006 -0.6606779 0.093745254 -0.0043777563 -0.6000286 -0.24681461 0.573294 -0.46400166 -0.26922163 0.7368003 -0.26276267 -0.7644198 -0.09441877 -0.3542403 -0.3154585 0.16847256 -0.30584553 0.8127301 0.2869265 -0.8372237 -0.23976651 0.118390284 0.28940436 -0.1684342 1.3496997 -0.5546448 -0.11339086 -0.8095468 0.40810215 -0.09893084 0.5609327 -0.2065403 -0.022463862 -0.57310104 -0.5303469 0.37775305 -0.14629614 -0.050450396 0.23601232
17 0.060941372 -0.18579072 0.32741362 -0.25636238 -0.54570824 -0.050056428 -0.1432689 -0.18053661 0.5420669 -0.6758485 -0.08290509 0.42693818 0.12941533 -0.14052774 -0.39245296 -0.1053907 0.51494145 0.5766822 -0.75673187 0.40403467 -0.13856834 0.25328466 0.4815924 1.1541321 -0.37616366 -0.33194754 0.19821095 0.025456289 0.1457775 0.19585611 -0.19303736 0.4569554 -0.0049404213 0.2067575 0.514046 0.61491954 0.23021698 -0.3184374 0.4185565 -0.009852924 -0.47711432 0.10581974 -0.7441134 -0.029550212 0.54114944 0.27483606 0.04531679 -0.1698895 -0.02806658 -0.62856376 0.21378228 0.1795747 -0.03579267 -0.7747634 0.63325393 -0.19807848 -0.016674893 -0.065619744 0.2643837 0.10295702 -0.078801304 -0.16980235 -0.24131489 -1.0741186
9 -0.2172253 0.09736866 -0.055097766 -0.110634975 0.08035654 0.015293404 0.03788517 -0.022232372 0.17121781 -0.1321609 0.065066256 0.17027487 -0.12186444 -0.09598261 0.26381058 0.1184127 -0.012980016 0.15603618 0.43607074 -0.08177274 0.16580616 0.52526975 0.051549505 -0.30403218 -0.11563876 0.63928026 0.12833533 0.08035121 -0.026452478 -0.19741094 0.023247747 0.4276351 -0.15327132 -0.09520559 -0.13996384 -0.48898983 0.16911873 -0.12946704 -0.09686163 0.06554849 -0.10122015 0.0808269 0.4556776 -0.20997205 0.1878208 -0.15131667 -0.060123604 -0.28944582 -0.120755404 0.5216463 0.008648945 -0.21641673 -0.41815937 0.64014304 -0.57015556 0.22264668 0.51716495 -0.16989827 -0.16289145 -0.4407756 -0.17275676 0.3388042 -0.0048718145 0.17754869
12 -0.3059289 0.6058671 0.530904 -0.4790025 -0.04741161 -0.23342018 0.033272337 -0.43851432 0.502368 -0.45258868 0.010636447 0.17163779 -0.21092069 -0.05215749 -0.25469857 -0.20673703 0.73095614 0.3362601 -0.2106549 0.5249042 -0.65001285 0.21251358 0.67131734 1.3218968 -0.26389712 0.16766416 0.51210934 0.1443931 -0.01294133 0.36231768 -0.19803533 0.26913416 -0.05386996 0.21307 0.05038356 0.27101335 0.32762304 -0.48919478 0.71152836 -0.24874422 -0.52099484 -0.1164952 -0.37197894 -0.4092611 0.5675106 0.092136465 -0.36132607 -0.19798099 -0.046669964 -0.39970836 0.03212862 -0.44384623 0.11921539 -0.35917506 -0.19709624 -0.003885116 0.06836041 0.32028976 0.57687366 -0.2560245 -0.14912158 0.12561983 -0.2808572 -0.9607095
11 -0.0071856584 0.1515708 0.31836417 -0.56034535 -0.23824832 0.08475235 -0.113530576 -0.24813375 0.37461916 -0.5111038 -0.29459268 0.13200264 -0.1533597 -0.374445 -0.220388 -0.09716687 0.40811288 0.32313406 -0.8234197 0.31684908 -0.4780743 0.015265826 0.84101456 1.0335019 -0.05700934 -0.46312404 0.35316566 0.021621069 0.008800578 0.4645656 0.30350104 0.05807448 0.11160414 0.29388222 0.20751184 0.56828797 0.5292667 -0.39955044 0.32096645 -0.0011025473 -0.33622792 0.021763556 -0.690271 -0.20123944 0.48012587 0.13665535 -0.40756893 -0.13992766 0.13946973 -0.93774 0.40010464 0.040105756 0.21192487 -0.60953575 0.32527798 -0.5691379 -0.05537984 -0.24680188 0.2794037 0.050582793 0.0121918395 -0.13947657 -0.08225988 -0.94828135
