34 64
33 -0.16320412 0.05860159 0.06073592 0.090909116 -0.6306914 0.10014647 -0.4001472 0.17603055 -0.22931327 0.027402584 -0.005877871 0.68777275 0.4112866 -0.6795423 0.43521696 -0.055052903 -0.50234854 -0.06647444 -0.4970407 -0.26874408 0.0997669 -0.29151258 0.50835663 0.92407507 -0.8830406 -0.2856899 -0.14284626 -0.22762896 0.103604995 0.110784486 -0.32149532 0.18755127 -0.21332678 -0.035520963 -0.59776765 0.023146689 -0.12359059 0.30619785 -0.5750096 0.076716535 -0.022444664 0.2985863 -0.17729618 -0.3816449 0.58159107 0.35342646 0.033464998 0.019331967 0.34779608 -0.48417982 0.6508479 -0.03697229 -0.017984703 0.09674169 0.6203902 -0.575015 0.10545892 -0.075925305 0.25054893 -0.16085911 -0.17283691 -0.115803555 -0.031606574 0.0016534177
0 0.5870035 0.40559453 -0.16559753 -0.092393115 -0.012452347 0.27424955 0.54640865 -0.17823441 -0.14195554 0.12770449 -0.102233954 -0.8791764 -0.55859995 0.80310255 -0.5696352 0.39577416 -0.19272463 0.2472964 0.63521546 0.14325564 0.30799133 0.2470333 -0.12669264 -0.81873477 0.35770285 -0.3475419 0.34406835 -0.033887036 -0.59325415 -0.060666505 -0.04484694 0.0023038355 -0.16753085 0.10847608 0.407125 -0.354218 0.36992446 0.13808265 0.4310716 -0.07382995 0.42971975 -0.35481703 0.4485716 0.3936269 -0.7768501 -0.70367694 0.2827703 -0.051353 -0.12957343 0.1913436 -0.4726978 0.078926474 0.13936266 -0.30019465 -0.59191084 0.33442006 -0.5041038 -0.18857245 0.5774151 -0.51623064 -0.086397864 0.19959672 0.051486906 0.08787071
32 -0.27643928 0.18763763 0.15486868 -0.070560224 -0.8098024 0.13779522 -0.1591898 0.16813186 -0.0013018347 -0.07275366 -0.07797616 0.85445315 0.36741957 -0.36443266 0.44435623 -0.21034384 -0.19245747 -0.22265938 -0.5394994 -0.326919 0.2286236 -0.35009748 0.75707215 0.8618709 -0.9596331 -0.34462783 -0.38791028 -0.03888354 0.1332769 0.22106487 -0.30482253 -0.14222808 -0.26788947 -0.010602555 -0.8338577 -0.043368466 -0.36039236 0.53914464 -0.7068078 -0.12564874 0.13154264 0.46106163 -0.17325898 -0.37621203 0.73444086 0.2525755 -0.11104429 -0.43873814 0.1323353 -0.41380996 0.3429101 -0.20397909 0.07475617 0.21797574 0.71903384 -0.62050766 0.5293223 0.010436921 0.49271098 -0.29662165 -0.55067074 -0.004481839 0.051035576 -0.009805031
2 0.25852573 -0.037564375 0.17633958 0.008091633 0.1771772 0.27135423 -0.16265814 0.16392846 -0.39536744 -0.12445417 -0.2625108 0.0116758 -0.0814718 -0.3709005 -0.08950875 0.3178683 -0.3777437 0.40135884 0.08134525 0.06565297 0.47018674 -0.17075618 -0.14773992 0.102903925 -0.15524541 -0.23478438 -0.09326702 -0.3584096 0.011184211 -0.02295078 -0.023545425 0.15316662 -0.09367103 -0.046622418 0.37450248 0.27461022 0.4797346 -0.017921045 -0.32554027 0.1972796 -0.056866266 -0.141814 0.28513435 0.14034437 -0.33657965 0.117985606 0.13041137 0.29903352 0.7133225 0.10511619 0.31656918 0.31427082 -0.19772369 -0.4992193 0.0020336672 -0.21457002 -0.2846459 -0.0995476 -0.07135393 0.29144686 0.5549123 -0.22187948 0.023061847 -0.005227553
1 0.8726767 0.30836672 0.2468524 0.20369998 0.20428711 -0.09954295 0.6860033 -0.18584953 -0.09715875 -0.64909685 -0.4120972 0.047077883 -0.6970244 0.23059624 -0.5261789 0.54015654 0.06909084 0.20227633 0.12900592 0.054296453 0.009917665 0.021665571 -0.20886391 -0.5389183 -0.08021136 -0.24978691 -0.06885508 -0.018549709 0.19638631 0.5963541 0.09957814 -0.45472997 0.089084744 0.17155538 0.15926696 0.25582513 0.85163814 0.26169568 0.071693905 0.43810275 0.4084858 -0.1396698 0.6574482 0.06288129 -1.351305 -0.1306115 -0.03177647 0.31005645 0.43582737 0.62811774 -0.40748355 -0.23627928 -0.33958107 -0.30910078 -0.18245119 0.14754783 -0.37407562 0.32828596 0.7001254 0.11186256 0.20604359 0.21726039 0.5343234 0.27448836
3 0.50262046 0.27531695 0.15251257 0.08960777 0.5036851 0.044033166 0.4371924 0.057582125 -0.5114142 -0.53739095 -0.35031673 -0.36368376 -0.33311498 0.06010203 -0.49682483 0.62041503 -0.14327686 0.48999923 0.231679 0.30642515 0.6100745 -0.03631093 -0.29356274 -0.4637985 0.41661072 -0.20111303 -0.2966543 -0.03715458 0.03909065 0.2157244 0.09384448 -0.14484516 0.06654301 0.0128144715 0.8635825 0.5266977 0.80869716 -0.33542967 -0.30168104 0.20425798 0.22588418 -0.22713898 0.5971614 0.4261776 -0.90809625 -0.16564548 0.14222364 0.37635398 0.5878856 0.36856368 -0.023876073 0.43731046 -0.5299417 -0.5250257 -0.7570482 0.17854816 -0.5888503 0.1254176 0.13053438 0.4764876 0.680095 -0.08087253 0.13381276 -0.0009831982
31 -1.1221539 0.081288144 -0.05515011 0.14898089 -0.41232637 0.47348842 -1.0368671 -0.24573071 -0.23492946 0.32345158 0.016415747 -0.09662971 0.20654742 -0.13834585 -0.29809946 -0.29918498 0.14326958 -0.19715846 0.1448928 -0.5439237 -0.24502142 0.427087 -0.4247548 0.13661325 -0.06024925 1.0926524 0.25035724 -0.18141857 0.59207433 -0.75425357 -0.35200512 0.89288044 -0.26875928 -0.018418986 0.12338063 -0.03740526 0.696054 -0.2633062 -0.28760317 -0.015791832 -0.2044162 -0.3506283 -0.2779319 0.24443947 0.5083578 0.4078809 -0.11422068 0.4600678 -0.17593597 -0.37163204 0.33084646 -0.23027809 0.6060604 0.043737266 0.25002116 -0.32843968 0.02613343 0.09633618 -0.53897494 -0.04135025 0.47663826 -0.20481569 0.53083277 0.42699215
23 -0.9276024 0.21832645 -0.10009967 0.19550611 -1.0249095 -0.06478215 -1.2272797 0.42257857 -0.0745831 0.40402138 0.3413212 0.42274785 0.40282714 -0.46596578 -0.0010827029 -0.439016 0.0075367647 -0.024590993 -0.49052727 -0.42957762 -0.39520803 -0.045040492 0.16717254 0.95443404 -0.6514447 0.50006855 0.24522544 0.044106986 0.5466467 -0.4305686 -0.549321 0.698467 -0.08505255 -0.19626544 -0.28755713 -0.31950247 0.50032 0.019234275 -0.09057494 0.22344701 -0.13175845 0.5466568 -0.32995644 0.038840473 1.0218786 0.23799074 0.31012192 0.4634137 -0.08731363 -0.78600806 0.80146664 -0.10211194 0.47979724 0.09049129 0.7417268 -0.29931268 0.05738989 0.19058193 -0.46743876 -0.066824496 0.083161674 0.2322878 0.24648727 0.1371508
8 0.15517452 -0.023674136 0.3561259 -0.059858818 -0.08778853 0.108273566 0.018137686 0.19032761 -0.016439132 -0.12718579 -0.114264265 0.60704786 -0.14577523 -0.45996007 0.19756763 -0.16648518 0.27646562 -0.23765503 0.08846333 -0.03394202 0.10173148 -0.0010248161 0.11361458 0.047495842 -0.40188083 -0.023301624 -0.34593692 -0.1318994 0.0774841 0.17694834 -0.07220071 0.012581678 0.12573701 -0.14554761 -0.47732845 0.0029748387 0.072640605 0.30903316 -0.208424 0.07867787 0.19215651 0.23064981 0.10626959 0.032728247 -0.15609607 0.05625852 -0.01326669 -0.10077263 0.073484905 0.12790525 -0.109241836 0.14147964 -0.04822291 0.14660066 0.28952426 -0.1503482 0.24614006 0.12726073 0.2489764 0.2794861 -0.08540304 0.01542148 0.37773725 -0.060387865
13 0.5107951 0.23112616 0.26404297 0.105608955 0.2328308 -0.2487139 0.3183898 0.13505784 -0.2507028 -0.25212285 -0.21915253 -0.09886287 -0.31731117 0.024622984 -0.19113359 0.32481825 -0.15728822 0.14151098 0.13097408 0.3865425 0.4682109 0.016523648 -0.10830424 -0.2722764 0.08826098 -0.3034937 -0.25859857 -0.178781 0.023271544 0.20356412 0.09734855 -0.22209153 -0.049790073 0.114166364 0.42626104 0.2873284 0.52220505 -0.1257363 -0.13398589 -0.0068915254 0.38201508 0.057403214 0.29409468 0.23365033 -0.52414155 -0.21561606 0.1612922 0.20546706 0.44394684 0.11692495 -0.042513806 0.11796567 -0.22314054 -0.4322027 -0.34474796 0.10356704 -0.14321284 0.087166265 0.0199859 0.32388836 0.39024907 -0.1228616 0.017779237 0.0838027
6 -0.057182707 0.5524879 -0.62438256 0.13345116 0.13499197 0.5047942 1.0332911 -0.120235845 -0.25676274 0.66456205 0.43487638 -0.54755205 0.28241172 0.9029237 -0.066833936 0.0538047 0.1958263 -0.66784793 1.4855686 0.35192007 0.6640392 1.2420522 0.4024977 -1.2575581 0.6447647 0.1163859 -0.22724058 0.5518475 -1.6077373 0.16877963 -0.4955161 0.49654087 0.31900924 -0.3530061 0.4247485 -0.6998208 -0.6491063 -0.18491626 0.92136234 -0.94174355 0.4257372 -1.0635628 0.2728591 1.0109334 -0.37408295 -1.2277377 0.2358756 -0.73619944 -1.2834184 0.25319436 -1.2884803 0.86852586 0.15567635 0.07244854 -1.113393 0.5000751 -0.6303748 -0.31246212 0.30360597 -0.59638464 -0.45970505 0.34806603 -0.40571877 -0.08172064
5 0.067993164 0.5529041 -0.35834396 -0.0048423586 -0.014761777 0.04981281 0.8188543 0.19343211 -0.1413058 0.92911875 0.72079384 -0.95500666 0.13670987 1.1108358 -0.10598319 0.0010224477 0.043245357 -0.6337774 1.5257176 0.82858694 0.9269936 1.1385758 0.17220697 -1.3955044 0.6108302 -0.16251685 0.042808644 0.14369896 -1.3546588 -0.3655518 -0.18990993 0.26975754 -0.0904877 0.19569606 0.41255993 -0.7654818 -0.63301754 -0.102684535 1.1959288 -1.1781517 0.83167076 -0.7273864 -0.11910793 0.91605544 0.018866504 -1.2830758 0.6219092 -0.84999895 -0.94202197 -0.24817313 -1.0547255 0.65398407 0.4970917 -0.16698457 -0.9121367 0.44351363 -0.21811531 -0.30927908 -0.07115524 -0.72368157 -0.24253803 0.24174649 -0.5807217 0.074520096
7 0.5657039 0.28195095 0.25277847 0.17995615 0.3832197 -0.22216539 0.36211172 -0.07562311 -0.32294005 -0.31962693 -0.23796813 -0.29074752 -0.36013576 0.19009094 -0.3431556 0.48308915 -0.21250331 0.16851507 0.214409 0.3727607 0.5290108 0.12248836 -0.26372516 -0.47084925 0.2531789 -0.18814902 -0.28532577 -0.23172927 0.092083804 0.199674 0.07711528 -0.23172505 -0.10032656 0.24522462 0.6629419 0.41286105 0.72246116 -0.2612611 -0.15211242 -0.015780125 0.376759 -0.20772824 0.3364778 0.2667205 -0.80223995 -0.17866446 0.07392036 0.3471191 0.5500142 0.26948524 -0.10130715 0.13511968 -0.22694923 -0.5783482 -0.50488806 0.092620805 -0.29022685 0.06083551 0.023124263 0.2940465 0.6394773 -0.21178441 0.08886857 0.19452122
27 -1.123627 0.25999114 -0.1710418 0.23464344 -0.38559034 -0.029169329 -0.60961205 -0.1478882 -0.27100205 0.00030448017 -0.02507225 0.031693786 0.491381 -0.3307917 -0.22406952 -0.10036955 -0.37233946 -0.18495403 -0.57833743 -0.32827604 -0.14966506 -0.13273422 0.078435235 0.7482991 -0.20256606 0.7855331 0.2289039 0.13022321 0.55537117 -0.77448624 -0.39621845 0.72514755 -0.36564976 -0.20565024 0.12373759 0.4983881 0.7621024 -0.44079787 -0.86187637 0.1255676 -0.04524808 0.22368437 -0.18777096 0.069650695 0.92041034 0.46543413 0.20301378 0.7402863 -0.3424384 -0.85994464 0.6911435 -0.3383076 0.23374794 0.20126683 0.13476525 -0.30823177 -0.07422832 0.099413656 -0.48360288 0.152691 0.29537034 -0.15383059 0.12540403 0.6190116
29 -0.25881198 0.1376971 -0.21419764 0.3296363 -0.8842443 -0.7040453 -0.45037687 0.4906968 0.04439564 0.5687627 0.36070037 0.7693749 0.11020785 -1.0298562 0.44172746 -0.35925195 -0.38140583 -0.5370842 -0.78471255 0.043102875 -0.678943 -0.23913287 0.40363824 1.0193594 -0.85584104 -0.22252429 0.006059337 0.090755925 0.30447364 -0.11362385 -0.20883843 0.49851227 0.13820994 -0.21235654 -0.92739767 -0.2289035 0.23597674 0.25457218 0.14331783 0.27270666 0.40453935 1.0810918 -0.31907263 -0.27923676 1.0977782 0.049183387 0.6900626 0.43547568 -0.4144172 -1.1560428 0.72937334 -0.26622838 -0.051032845 0.5285797 0.5321405 -0.06966676 0.025636533 0.10053607 -0.017512385 0.22851878 -0.19563143 0.011940238 -0.1923354 0.2006704
30 0.2763043 -0.007455607 0.23788038 0.00190575 -0.3418689 0.031781252 0.02096198 0.18898913 0.17043707 0.03563167 -0.22158375 0.6919881 -0.47815034 -0.40142548 0.16313884 -0.129655 0.024707006 -0.13680707 -0.22160685 -0.08622317 0.10116346 -0.1450592 0.17276868 0.24696536 -0.7330235 -0.41874 -0.52581686 -0.32565498 0.38477662 0.35846734 0.03221376 -0.26878908 0.117845826 0.06526494 -0.6044086 0.03335963 0.16329613 0.5859875 -0.12334643 0.000116917654 0.15321481 0.30765018 0.18462569 -0.22469121 -0.04046467 0.16707647 -0.1391301 -0.3307535 0.46107277 0.1368946 -0.122313686 -0.30965343 -0.13378428 -0.19283552 0.5232675 -0.3541075 0.43121338 0.027927993 0.3478707 0.13477916 -0.020755956 -0.20236012 0.35284886 0.10790993
4 0.24208975 0.61648744 -0.33511308 0.07696315 -0.10075627 -0.18538697 0.6555009 -0.06923469 -0.24018732 0.6815851 0.6973224 -0.97266245 0.033593316 1.0202508 -0.29881302 0.18693505 -0.06964979 -0.5188334 1.1850178 0.710768 0.7517649 1.1486859 0.011791616 -1.2105083 0.5362134 -0.09186401 -0.05121079 -0.030708289 -0.85613555 -0.18745029 -0.1298074 0.12874557 -0.24964324 0.4773695 0.3887337 -0.6784202 -0.42722628 -0.2557832 0.9123705 -1.0028007 0.731836 -0.8039406 -0.26962513 0.62279856 -0.094943486 -0.9873072 0.41366416 -0.6457343 -0.5450528 -0.270298 -0.8185515 0.40519685 0.40731186 -0.3153336 -0.9150534 0.35273683 -0.18465456 -0.360443 -0.068281464 -0.82854974 -0.06785397 0.040348373 -0.3429126 0.14213406
10 0.048581146 0.601417 -0.7371949 0.24181625 0.032359436 0.2588853 0.77737063 -0.3440736 -0.26760334 0.60195583 0.43249732 -0.683899 0.090110675 0.8584029 -0.33246213 0.20557857 0.116345465 -0.5496124 1.1742878 0.22725411 0.25193736 1.2357882 0.16056688 -1.1233993 0.62412167 0.25180075 -0.13866498 0.49913633 -1.1545835 0.20766139 -0.4568505 0.5136891 0.26821634 -0.19780278 0.42782235 -0.71259874 -0.28084928 -0.30289575 0.94161767 -0.65819275 0.35086742 -1.0872977 0.18191335 0.8002804 -0.47170448 -1.080862 0.22634792 -0.3808564 -1.1015897 0.16345018 -1.0481377 0.6149392 0.12194387 -0.02494511 -1.1361762 0.57075673 -0.786727 -0.32605088 0.2722227 -0.68350327 -0.24904236 0.29584375 -0.21863776 0.011091355
19 0.40614024 0.22547373 0.015837906 0.23716055 -0.15263364 -0.25826016 0.26419717 0.087548606 0.03680648 0.077148885 -0.057434086 0.15840174 -0.46865147 0.021137688 -0.13906577 0.07757279 -0.016105449 -0.14511025 0.06791824 0.17042138 0.117540576 0.26776353 -0.0032113146 -0.19736025 -0.22755969 -0.27614793 -0.39012253 -0.17009558 0.19019501 0.41641766 0.02739089 -0.22022296 0.1870101 0.15474142 -0.059557848 -0.061590984 0.31889483 0.19412106 0.30017775 -0.15412462 0.26776046 -0.032956682 0.17997853 0.04606382 -0.2982926 -0.15090339 -0.02904221 -0.15858647 0.26305798 0.12807502 -0.3211104 -0.21270369 -0.13539423 -0.35243237 -0.07964119 0.023810077 0.039503653 0.050671633 0.13010691 0.046882592 0.15674165 -0.08581693 0.17794615 0.18106118
28 -0.57384497 0.20853454 0.12816022 0.0035304052 -0.35552207 0.25143299 -0.2534827 0.072919816 -0.39733067 -0.35707888 -0.15077485 0.08960327 0.20802097 -0.28791028 -0.26575065 -0.1521903 -0.050540548 0.14398831 -0.1664007 -0.3085403 0.1521155 -0.008732069 0.06023214 0.41049835 -0.07156746 0.49513313 0.27532223 -0.0044378396 0.22336115 -0.3467161 -0.24363288 0.4400262 -0.298584 -0.2289311 0.17475787 0.1939682 0.39944434 -0.4036266 -0.96742576 0.19341588 -0.12748761 0.24084714 0.06729353 0.21421827 0.3001421 0.33562225 -0.09057493 0.38501424 -0.07216414 -0.34318936 0.36649147 -0.12031254 0.12660968 0.20162864 0.06726568 -0.19661254 0.075750925 0.1575971 -0.2201985 0.14894603 -0.10159524 0.00020633695 0.38876832 0.25514492
24 -1.5985992 0.23333801 -0.1849882 0.2438578 -0.94210297 0.52548325 -1.4355376 -0.18668465 -0.40400144 0.17741664 0.38075402 -0.3496403 0.6455876 0.21222904 -0.63533705 -0.2551038 0.045030594 0.20616114 -0.14964782 -0.9660708 -0.25632524 0.35781935 -0.37491855 0.5759219 -0.05791247 1.4422116 0.7807566 0.05679776 0.7373362 -1.064804 -0.8304327 1.0748672 -0.5221293 0.09822215 0.63285935 -0.059523866 1.0172632 -0.5527883 -0.4614265 0.14748283 -0.51001084 -0.36712724 -0.37554386 0.23656787 0.6134971 0.6909073 -0.24000025 0.90066886 -0.20329547 -0.57233036 0.78406525 -0.15514144 0.87695813 -0.06562546 0.38727057 -0.56249803 -0.42052934 0.2603006 -0.6947412 -0.42722136 0.628617 0.13667652 0.61447036 0.5458372
25 -1.8328106 0.44469664 -0.63105 0.37019557 -0.90726817 0.31966087 -1.0038322 -0.54533803 -0.3039899 0.28649342 0.1938477 -0.347611 0.5126387 0.21709792 -0.6177495 -0.2641847 -0.25347787 -0.2579943 -0.52454287 -0.8656502 -0.40661347 0.4102318 -0.08725109 0.6891401 -0.05376 1.4556499 0.42634895 0.23904446 0.89132184 -1.0891714 -0.67477864 1.0581206 -0.5304303 0.03085782 0.27895975 0.26856047 0.8525085 -0.75148284 -0.8170848 -0.07640472 -0.26504162 -0.29653823 -0.5053797 0.0319862 1.148802 0.6260214 -0.1763699 0.7184414 -0.64425004 -0.9143963 0.58998096 -0.6847223 0.6263207 0.27421847 0.06369047 -0.50954443 -0.15274504 0.02188324 -0.5953313 -0.4981132 0.27282125 -0.12940833 0.48202544 0.91261905
16 -0.14079115 0.5046011 -0.5308876 0.06154987 0.18637173 0.3209754 0.83915055 -0.0010546414 -0.20201698 1.032923 0.46500745 -0.9309977 0.28842643 1.067397 0.11724461 0.031594243 0.01589075 -0.8042097 1.6840848 0.5624788 0.9165633 1.1997485 0.3613626 -1.3161476 0.6010766 -0.07931288 -0.102816306 0.26473272 -1.7408603 -0.3047594 -0.4227693 0.5001966 0.19056395 -0.18392123 0.34413877 -0.7168761 -0.7836061 0.040338483 1.1834844 -1.2794864 0.69563335 -0.9625319 -0.04230763 1.0727483 0.07565785 -1.343777 0.47400922 -0.99075013 -1.1154627 -0.08806954 -1.2784702 0.7641745 0.37243047 -0.023592148 -1.0774086 0.49804574 -0.374023 -0.4264511 0.1529845 -0.73315775 -0.35634652 0.38901412 -0.6385605 -0.004493596
21 0.75647557 0.4012491 -0.043297186 0.35496283 0.112111375 -0.27445057 0.6699066 -0.20377102 0.00568228 -0.082344875 -0.15644343 -0.189107 -0.7932816 0.4647643 -0.53313 0.41104472 0.021053763 -0.04060001 0.33775774 0.26541698 0.231269 0.53721434 -0.22870316 -0.78159285 0.09997589 -0.277283 -0.4868251 -0.18137714 0.22067067 0.6505881 0.12605938 -0.45688617 0.22541262 0.3743053 0.33969355 0.05140908 0.61812365 0.072352484 0.48837793 -0.19550003 0.35367495 -0.48448324 0.4160148 0.17504385 -1.0068518 -0.2804689 -0.19612241 -0.13238634 0.42054445 0.54084516 -0.7376689 -0.25443202 -0.26068938 -0.6424783 -0.4979994 0.15137872 -0.21182337 0.064682364 0.32158363 -0.058573686 0.4195818 -0.11049072 0.32119405 0.3250669
20 -0.22533667 -0.14699106 0.31017992 -0.15703247 -0.4600454 0.07717766 -0.46083325 0.6060714 0.06221306 0.18413572 -0.05229242 0.94199246 -0.1480931 -0.9339777 0.5213736 -0.5400948 0.25950155 -0.34026203 -0.25600868 -0.07626788 -0.11789883 -0.25740048 0.24235016 0.62241066 -0.78523934 -0.09669176 -0.38845944 -0.13410567 0.2493955 -0.11191648 -0.14992668 0.29522365 0.18909046 -0.38457912 -0.8915779 -0.10757291 0.011185294 0.4522339 -0.23338728 0.15314507 0.25504076 0.847499 -0.020291537 -0.06579357 0.6167143 0.0676386 0.31224754 -0.11256926 -0.080792576 -0.3431576 0.31891137 0.083208166 -0.008049633 0.36285767 0.6492905 -0.20598248 0.49352756 0.1388844 -0.0037574533 0.50686824 -0.24298005 -0.005030741 0.3093576 -0.17678627
12 0.6722085 0.34735528 0.21265422 0.13184868 0.48082244 -0.15948877 0.50971216 -0.031310186 -0.49333632 -0.341456 -0.1905142 -0.45588204 -0.22972445 0.41649893 -0.27617756 0.67858297 -0.2607831 0.27474955 0.39703083 0.53679115 0.7629602 0.1273226 -0.21672334 -0.6232057 0.40014514 -0.40915516 -0.28724062 -0.1193856 -0.23564109 0.1917357 0.080420084 -0.2765319 -0.18208772 0.29845557 0.8564958 0.37060636 0.5401593 -0.35493693 -0.065055944 -0.044232816 0.5982686 -0.3155977 0.3083286 0.32444987 -0.97296315 -0.44474867 0.29041177 0.30725962 0.538125 0.31203437 -0.054286256 0.43672818 -0.26816937 -0.601237 -0.6701639 0.17401402 -0.48968613 0.040046092 0.10973206 0.14519365 0.6279345 -0.050840132 -0.17007409 -0.0059684324
26 -0.14679615 0.52346176 -0.37258974 0.37026075 -1.258896 -0.72902656 -0.6184897 0.7257362 0.06648597 0.4310392 0.214927 0.6941706 0.07435018 -0.69979286 0.16233419 -0.30663577 -0.39228487 0.03892324 -0.9448683 0.04150942 -0.5169554 -0.3008473 0.76213074 1.2415503 -0.96870434 -0.53223586 0.009140249 0.1431805 0.2907374 0.36390245 -0.23708916 0.20473737 0.21377778 -0.32612568 -0.7542065 -0.55964607 0.1303891 0.24559961 0.1615353 0.3071799 0.17063789 1.1905261 -0.19106396 -0.16758163 1.1756814 -0.23585421 0.6708529 0.15835638 0.040559176 -1.0307425 0.7390586 -0.39497063 -0.0371994 0.13594833 0.68131214 0.06260543 0.1956674 0.06681728 -0.07254776 -0.14044094 -0.56566364 0.38472825 -0.2005288 0.005506458
17 0.6748121 0.3758312 -0.043620702 0.35449532 0.09354114 -0.22970028 0.67378354 -0.24461031 -0.005893981 -0.035499252 -0.09958594 -0.17455395 -0.721322 0.43902594 -0.4806322 0.32648456 0.050149284 -0.1677484 0.40877047 0.23152854 0.25934824 0.6440909 -0.20876968 -0.7915628 0.08839638 -0.17526144 -0.50119805 -0.20242783 0.18459785 0.5889844 0.08184276 -0.39349958 0.20677982 0.3832407 0.27180374 0.01927581 0.50037503 0.048276607 0.45312855 -0.3006687 0.33580482 -0.564046 0.32623598 0.17227845 -0.9148612 -0.2281374 -0.2642912 -0.1951761 0.3185689 0.5051617 -0.7952625 -0.24637066 -0.20644878 -0.56795156 -0.5075623 0.09533338 -0.15163518 0.024595441 0.27967548 -0.093699984 0.3717583 -0.15412974 0.35437408 0.36003417
15 -0.22041042 -0.15444249 0.32657945 -0.20876953 -0.45750186 0.20306496 -0.4246787 0.5246337 0.02498413 0.13161309 -0.102827445 0.90359384 -0.021445565 -0.84800726 0.52969706 -0.46515486 0.16206726 -0.26692048 -0.23062542 -0.12493179 -0.007046318 -0.32180703 0.30263734 0.6324332 -0.8123838 -0.17354684 -0.31313014 -0.17094621 0.14304537 -0.09098627 -0.15356588 0.24596232 0.059417672 -0.3325014 -0.8755445 -0.11177431 -0.0994563 0.5187979 -0.34635946 0.12772405 0.17182513 0.73367697 -0.01435143 -0.113144144 0.60253847 0.10398849 0.2464657 -0.19654384 0.000620735 -0.31048515 0.33669323 0.074131735 0.044292696 0.3134856 0.7167137 -0.3044939 0.50375545 0.08831802 0.083102405 0.3671003 -0.30422387 -0.035636682 0.23761635 -0.18234593
22 -0.33299476 -0.16910481 0.29561764 -0.21988788 -0.46438006 0.22893128 -0.5036687 0.58280164 -0.012274526 0.1782924 -0.09754951 0.93962 0.016583903 -0.97064394 0.5790782 -0.52720845 0.13001129 -0.27910057 -0.26652998 -0.13285612 0.01578224 -0.34636155 0.31758007 0.74101484 -0.82230115 -0.10970349 -0.3469698 -0.15532294 0.15447502 -0.19606367 -0.1834491 0.35882264 0.0793901 -0.41604817 -0.8613711 -0.05009191 -0.08547932 0.44600782 -0.43144864 0.123815164 0.16590576 0.7947415 -0.041825254 -0.07644428 0.7438879 0.13094734 0.30151796 -0.14201449 -0.035017516 -0.40660635 0.4229287 0.13372001 0.026169388 0.3475632 0.7058245 -0.3223851 0.49782237 0.06384049 -0.01838455 0.458481 -0.26913702 -0.06006016 0.22077127 -0.19607489
9 0.10789945 0.10198194 0.3945455 -0.005439946 0.044449493 -0.14076163 0.08329439 0.3933743 -0.2775997 -0.45487052 -0.3524702 0.49561405 0.07696008 -0.7208431 0.10464879 0.028910104 -0.16817667 0.09970105 -0.24044283 0.16395776 0.21760482 -0.42773917 0.23111373 0.44308275 -0.317237 -0.1797355 -0.044643376 -0.049497902 -0.0046194033 0.083159305 -0.018223863 0.10163252 -0.027074512 -0.40294597 -0.07811495 0.33829474 0.38298646 0.022454621 -0.6991685 0.35097083 0.16062804 0.63998014 0.35204503 0.1903657 0.07830592 0.07390675 0.3057703 0.3699561 0.19710171 -0.2485654 0.3668316 0.09886869 -0.27563557 0.08383056 0.14277068 0.010442953 0.07633117 0.2222651 -0.007207549 0.65889335 -0.031737026 0.0140168825 0.05677657 0.027400983
14 -0.20418328 -0.15088774 0.34646893 -0.24032041 -0.44471964 0.23369387 -0.34883067 0.57872087 0.03202464 0.13013294 -0.10802338 0.9171151 -0.1147124 -0.90654224 0.5072167 -0.55074954 0.25973704 -0.31715587 -0.13712804 -0.12500636 -0.03701839 -0.2671023 0.27804855 0.55169195 -0.7719048 -0.110909 -0.29559615 -0.15090217 0.099076666 -0.11314842 -0.13496365 0.29520366 0.12556013 -0.40875897 -0.92690337 -0.15622106 -0.09898516 0.5237929 -0.3274483 0.13810964 0.20076525 0.790284 0.031776227 -0.0249676 0.5769361 0.0594959 0.25490746 -0.22270632 -0.1197171 -0.3016055 0.22227243 0.0862992 0.028558167 0.42227194 0.6538222 -0.23384666 0.5335277 0.11404908 0.10284512 0.44634184 -0.3918768 0.0032024041 0.32570332 -0.18281724
18 -0.2790776 -0.18175076 0.39160547 -0.24414636 -0.3752645 0.27880043 -0.42640844 0.50165737 -0.02843206 0.05845381 -0.11031904 0.9376939 -0.005555591 -0.90951425 0.5423772 -0.49285635 0.23622204 -0.32094985 -0.16682005 -0.1630887 0.017114192 -0.28777364 0.24292691 0.58318067 -0.766453 -0.0191519 -0.35158637 -0.14560002 0.15545401 -0.17086892 -0.20124812 0.32669026 0.061924275 -0.3633279 -0.86435187 -0.022829747 -0.04495555 0.46633753 -0.4430168 0.14311591 0.21506062 0.70892656 -0.0034636606 -0.066965275 0.54118264 0.14440003 0.2271216 -0.12960163 -0.051355034 -0.27596438 0.33155045 0.165622 0.030074334 0.39480713 0.6676167 -0.32664126 0.47905672 0.12845144 0.07618199 0.46913633 -0.25859797 -0.032808438 0.34487355 -0.18596765
11 0.4077993 0.44877267 -0.15507358 0.29677 0.0590711 -0.14606263 0.573314 -0.19519453 -0.21186051 0.0710779 0.23192476 -0.24796923 -0.2946528 0.53077316 -0.33145928 0.30684394 0.18162796 -0.25920644 0.639613 0.3548495 0.35231787 0.8572181 -0.15712017 -0.8791865 0.24364588 -0.011431224 -0.51023006 0.011398849 -0.105371125 0.46663177 -0.06640055 -0.15656023 0.13554133 0.3418878 0.34349328 -0.1780645 0.13662247 -0.22254775 0.5319762 -0.38764635 0.4468622 -0.707429 0.11002174 0.2990113 -0.746356 -0.45375112 -0.04294354 -0.2658446 -0.0060058557 0.3599922 -0.69719124 0.22711809 -0.10526386 -0.38978136 -0.64281905 0.17829622 -0.31180224 0.011705618 0.14074042 -0.2631071 0.27304128 -0.0015507763 0.15457901 0.105513744
